{"learner":{"attributes":{"best_iteration":"465","best_score":"0.7184951282835743"},"feature_names":["player_id","player_team_id","home_team_id","opponent_team_id","ground_id","position_id","style_id","floodlit","neutral_match","international_valid","rain_rule","target_id","is_home","actual_days","current_age","batting_order"],"feature_types":["int","int","int","int","int","int","int","int","int","int","int","int","int","int","float","float"],"gradient_booster":{"model":{"gbtree_model_param":{"num_parallel_tree":"1","num_trees":"469"},"iteration_indptr":[0,1,2,3,4,5,6,7,8,9,10,11,12,13,14,15,16,17,18,19,20,21,22,23,24,25,26,27,28,29,30,31,32,33,34,35,36,37,38,39,40,41,42,43,44,45,46,47,48,49,50,51,52,53,54,55,56,57,58,59,60,61,62,63,64,65,66,67,68,69,70,71,72,73,74,75,76,77,78,79,80,81,82,83,84,85,86,87,88,89,90,91,92,93,94,95,96,97,98,99,100,101,102,103,104,105,106,107,108,109,110,111,112,113,114,115,116,117,118,119,120,121,122,123,124,125,126,127,128,129,130,131,132,133,134,135,136,137,138,139,140,141,142,143,144,145,146,147,148,149,150,151,152,153,154,155,156,157,158,159,160,161,162,163,164,165,166,167,168,169,170,171,172,173,174,175,176,177,178,179,180,181,182,183,184,185,186,187,188,189,190,191,192,193,194,195,196,197,198,199,200,201,202,203,204,205,206,207,208,209,210,211,212,213,214,215,216,217,218,219,220,221,222,223,224,225,226,227,228,229,230,231,232,233,234,235,236,237,238,239,240,241,242,243,244,245,246,247,248,249,250,251,252,253,254,255,256,257,258,259,260,261,262,263,264,265,266,267,268,269,270,271,272,273,274,275,276,277,278,279,280,281,282,283,284,285,286,287,288,289,290,291,292,293,294,295,296,297,298,299,300,301,302,303,304,305,306,307,308,309,310,311,312,313,314,315,316,317,318,319,320,321,322,323,324,325,326,327,328,329,330,331,332,333,334,335,336,337,338,339,340,341,342,343,344,345,346,347,348,349,350,351,352,353,354,355,356,357,358,359,360,361,362,363,364,365,366,367,368,369,370,371,372,373,374,375,376,377,378,379,380,381,382,383,384,385,386,387,388,389,390,391,392,393,394,395,396,397,398,399,400,401,402,403,404,405,406,407,408,409,410,411,412,413,414,415,416,417,418,419,420,421,422,423,424,425,426,427,428,429,430,431,432,433,434,435,436,437,438,439,440,441,442,443,444,445,446,447,448,449,450,451,452,453,454,455,456,457,458,459,460,461,462,463,464,465,466,467,468,469],"tree_info":[0,0,0,0,0,0,0,0,0,0,0,0,0,0,0,0,0,0,0,0,0,0,0,0,0,0,0,0,0,0,0,0,0,0,0,0,0,0,0,0,0,0,0,0,0,0,0,0,0,0,0,0,0,0,0,0,0,0,0,0,0,0,0,0,0,0,0,0,0,0,0,0,0,0,0,0,0,0,0,0,0,0,0,0,0,0,0,0,0,0,0,0,0,0,0,0,0,0,0,0,0,0,0,0,0,0,0,0,0,0,0,0,0,0,0,0,0,0,0,0,0,0,0,0,0,0,0,0,0,0,0,0,0,0,0,0,0,0,0,0,0,0,0,0,0,0,0,0,0,0,0,0,0,0,0,0,0,0,0,0,0,0,0,0,0,0,0,0,0,0,0,0,0,0,0,0,0,0,0,0,0,0,0,0,0,0,0,0,0,0,0,0,0,0,0,0,0,0,0,0,0,0,0,0,0,0,0,0,0,0,0,0,0,0,0,0,0,0,0,0,0,0,0,0,0,0,0,0,0,0,0,0,0,0,0,0,0,0,0,0,0,0,0,0,0,0,0,0,0,0,0,0,0,0,0,0,0,0,0,0,0,0,0,0,0,0,0,0,0,0,0,0,0,0,0,0,0,0,0,0,0,0,0,0,0,0,0,0,0,0,0,0,0,0,0,0,0,0,0,0,0,0,0,0,0,0,0,0,0,0,0,0,0,0,0,0,0,0,0,0,0,0,0,0,0,0,0,0,0,0,0,0,0,0,0,0,0,0,0,0,0,0,0,0,0,0,0,0,0,0,0,0,0,0,0,0,0,0,0,0,0,0,0,0,0,0,0,0,0,0,0,0,0,0,0,0,0,0,0,0,0,0,0,0,0,0,0,0,0,0,0,0,0,0,0,0,0,0,0,0,0,0,0,0,0,0,0,0,0,0,0,0,0,0,0,0,0,0,0,0,0,0,0,0,0,0,0,0,0,0,0,0,0,0,0,0,0,0,0,0,0,0,0,0,0,0,0,0,0,0,0,0,0,0,0,0,0,0,0,0,0,0,0,0,0,0,0,0,0],"trees":[{"base_weights":[-1.4547532E-3,5.0893736E-1,-8.231224E-1,5.4227E-1,1.3650216E-1,-5.798149E-1,-1.2586532E0,5.6932056E-1,4.238335E-1,2.5225592E-1,-1.211626E-1,-4.4356963E-1,-1.3984581E0,-1.2705994E0,2.4887174E-1,5.374122E-1,6.556741E-1,4.460335E-1,-2.62864E-2,2.8646094E-1,-2.5199857E-2,-5.531402E-1,-0E0,-4.0791303E-1,-6.443388E-3,-7.192023E-3,-2.5055164E-3,-5.2406276E-3,-6.6145086E-3,-0E0,2.6468537E-3,7.362034E-4,2.7123948E-3,3.3647304E-3,8.643759E-4,-1.0830209E-3,2.2947222E-3,1.1174165E-3,-9.72436E-4,1.5736256E-3,-1.7618024E-4,-1.0616515E-3,-0E0,-3.3777126E-3,-0E0,4.869826E-4,-7.5644866E-4,-1.4239737E-3,-2.6264733E-3],"categories":[],"categories_nodes":[],"categories_segments":[],"categories_sizes":[],"default_left":[0,0,0,0,0,0,0,0,0,0,0,0,0,0,0,0,0,0,0,0,0,0,0,0,0,0,0,0,0,0,0,0,0,0,0,0,0,0,0,0,0,0,0,0,0,0,0,0,0],"id":0,"left_children":[1,3,5,7,9,11,13,15,17,19,21,23,25,27,29,31,33,35,37,39,41,43,45,47,-1,-1,-1,-1,-1,-1,-1,-1,-1,-1,-1,-1,-1,-1,-1,-1,-1,-1,-1,-1,-1,-1,-1,-1,-1],"loss_changes":[2.0755264E3,3.6709656E1,1.9680383E2,6.9853516E0,7.922963E0,1.3240518E2,1.4339111E1,3.7328491E0,6.0291214E0,2.1335783E0,3.4590728E0,2.8134552E1,1.8146973E0,1.4897461E0,1.0295438E0,2.1149902E0,3.401886E0,4.97686E0,1.0517104E0,1.9598627E0,3.949619E-1,1.3431883E0,1.0281565E0,1.3154251E1,0E0,0E0,0E0,0E0,0E0,0E0,0E0,0E0,0E0,0E0,0E0,0E0,0E0,0E0,0E0,0E0,0E0,0E0,0E0,0E0,0E0,0E0,0E0,0E0,0E0],"parents":[2147483647,0,0,1,1,2,2,3,3,4,4,5,5,6,6,7,7,8,8,9,9,10,10,11,11,12,12,13,13,14,14,15,15,16,16,17,17,18,18,19,19,20,20,21,21,22,22,23,23],"right_children":[2,4,6,8,10,12,14,16,18,20,22,24,26,28,30,32,34,36,38,40,42,44,46,48,-1,-1,-1,-1,-1,-1,-1,-1,-1,-1,-1,-1,-1,-1,-1,-1,-1,-1,-1,-1,-1,-1,-1,-1,-1],"split_conditions":[2E0,1.6772496E0,3.188709E-1,9.980602E-1,2.0168443E0,4E0,2.5E1,5.1E2,2.3E1,1.25E2,3E0,4E0,1.33E2,6.5846556E-1,1.29E2,2E0,2.4E1,-1.9794768E0,3E1,2E0,1.32E2,2.0543694E0,-3.2416534E-1,-6.999131E-1,-6.443388E-3,-7.192023E-3,-2.5055164E-3,-5.2406276E-3,-6.6145086E-3,-0E0,2.6468537E-3,7.362034E-4,2.7123948E-3,3.3647304E-3,8.643759E-4,-1.0830209E-3,2.2947222E-3,1.1174165E-3,-9.72436E-4,1.5736256E-3,-1.7618024E-4,-1.0616515E-3,-0E0,-3.3777126E-3,-0E0,4.869826E-4,-7.5644866E-4,-1.4239737E-3,-2.6264733E-3],"split_indices":[11,15,15,15,15,11,3,0,3,4,3,6,4,15,0,4,3,14,4,10,4,14,14,15,0,0,0,0,0,0,0,0,0,0,0,0,0,0,0,0,0,0,0,0,0,0,0,0,0],"split_type":[0,0,0,0,0,0,0,0,0,0,0,0,0,0,0,0,0,0,0,0,0,0,0,0,0,0,0,0,0,0,0,0,0,0,0,0,0,0,0,0,0,0,0,0,0,0,0,0,0],"sum_hessian":[4.944E3,3.049E3,1.895E3,2.794E3,2.55E2,1.221E3,6.74E2,2.258E3,5.36E2,1.8E2,7.5E1,1.051E3,1.7E2,6.7E2,4E0,1.672E3,5.86E2,5.14E2,2.2E1,1.65E2,1.5E1,1.3E1,6.2E1,1.013E3,3.8E1,1.6E2,1E1,1.41E2,5.29E2,1E0,3E0,2.6E1,1.646E3,5.62E2,2.4E1,7E0,5.07E2,5E0,1.7E1,1.56E2,9E0,7E0,8E0,1.1E1,2E0,3.4E1,2.8E1,5.04E2,5.09E2],"tree_param":{"num_deleted":"0","num_feature":"16","num_nodes":"49","size_leaf_vector":"1"}},{"base_weights":[-0E0,9.669401E-2,-6.62199E-3,1.09093174E-1,-4.1851676E-1,8.295082E-2,1.796087E-1,-8.9718664E-1,-2.4253519E-1,9.694819E-2,-8.0823235E-2,2.2949661E-1,2.5381124E-2,-9.4277304E-1,-0E0,-3.8730726E-1,-0E0,-9.1543294E-2,1.0779486E-1,-3.1964034E-1,5.5384923E-2,1.0310689E-1,2.8749326E-1,-4.8949152E-1,5.4530803E-2,-4.8265774E-3,-0E0,7.763588E-2,-2.2880407E-3,8.026391E-4,-1.9286447E-3,1.1648581E-4,-1.7258405E-3,1.4433197E-3,4.7652613E-4,1.8048804E-3,-1.9820624E-3,-6.329728E-4,1.6303507E-3,-1.955575E-3,6.76397E-4,2.192336E-3,9.0227195E-4,2.0757028E-4,-3.8911141E-3,1.0459487E-3,-9.2429116E-5,-0E0,1.4173803E-3],"categories":[],"categories_nodes":[],"categories_segments":[],"categories_sizes":[],"default_left":[0,0,0,0,0,0,0,0,0,0,0,0,0,0,0,0,0,0,0,0,0,0,0,0,0,0,0,0,0,0,0,0,0,0,0,0,0,0,0,0,0,0,0,0,0,0,0,0,0],"id":1,"left_children":[1,3,-1,5,7,9,11,13,15,17,19,21,23,25,-1,27,29,31,33,35,37,39,41,43,45,-1,-1,47,-1,-1,-1,-1,-1,-1,-1,-1,-1,-1,-1,-1,-1,-1,-1,-1,-1,-1,-1,-1,-1],"loss_changes":[6.455668E2,2.964526E1,0E0,8.043289E0,6.95282E0,7.7652683E0,9.031296E0,1.2919884E0,3.1592145E0,6.410698E0,8.824229E0,6.0839195E0,4.038531E0,1.4349174E-1,0E0,2.4060507E0,1.9833109E0,5.2464905E0,6.039818E0,5.460079E0,8.361755E0,4.4921737E0,8.932617E0,3.3161292E0,3.6477144E0,0E0,0E0,3.656294E-1,0E0,0E0,0E0,0E0,0E0,0E0,0E0,0E0,0E0,0E0,0E0,0E0,0E0,0E0,0E0,0E0,0E0,0E0,0E0,0E0,0E0],"parents":[2147483647,0,0,1,1,3,3,4,4,5,5,6,6,7,7,8,8,9,9,10,10,11,11,12,12,13,13,15,15,16,16,17,17,18,18,19,19,20,20,21,21,22,22,23,23,24,24,27,27],"right_children":[2,4,-1,6,8,10,12,14,16,18,20,22,24,26,-1,28,30,32,34,36,38,40,42,44,46,-1,-1,48,-1,-1,-1,-1,-1,-1,-1,-1,-1,-1,-1,-1,-1,-1,-1,-1,-1,-1,-1,-1,-1],"split_conditions":[4E0,2.0168443E0,-6.62199E-3,5.08E2,3E0,4.62E2,9.980602E-1,1.9637415E0,2E0,3.7E1,5.6E1,2E0,-1.9794768E0,2E0,-0E0,2.2E1,9.1E1,6E0,6.2E1,-1.0395077E0,4.86E2,4E0,7E1,-2.3293848E0,4.1E1,-4.8265774E-3,-0E0,7E0,-2.2880407E-3,8.026391E-4,-1.9286447E-3,1.1648581E-4,-1.7258405E-3,1.4433197E-3,4.7652613E-4,1.8048804E-3,-1.9820624E-3,-6.329728E-4,1.6303507E-3,-1.955575E-3,6.76397E-4,2.192336E-3,9.0227195E-4,2.0757028E-4,-3.8911141E-3,1.0459487E-3,-9.2429116E-5,-0E0,1.4173803E-3],"split_indices":[6,15,0,0,3,0,15,14,12,0,4,6,14,8,0,0,4,3,0,15,0,4,4,14,4,0,0,0,0,0,0,0,0,0,0,0,0,0,0,0,0,0,0,0,0,0,0,0,0],"split_type":[0,0,0,0,0,0,0,0,0,0,0,0,0,0,0,0,0,0,0,0,0,0,0,0,0,0,0,0,0,0,0,0,0,0,0,0,0,0,0,0,0,0,0,0,0,0,0,0,0],"sum_hessian":[5.038E3,4.697E3,3.41E2,4.591E3,1.06E2,3.368E3,1.223E3,2.4E1,8.2E1,3.112E3,2.56E2,9.16E2,3.07E2,2.3E1,1E0,5.2E1,3E1,1.61E2,2.951E3,9.6E1,1.6E2,2.98E2,6.18E2,1.2E1,2.95E2,2.2E1,1E0,4E0,4.8E1,2.3E1,7E0,1.08E2,5.3E1,1.8E2,2.771E3,7E0,8.9E1,9.3E1,6.7E1,1.4E1,2.84E2,2.48E2,3.7E2,3E0,9E0,1E2,1.95E2,1E0,3E0],"tree_param":{"num_deleted":"0","num_feature":"16","num_nodes":"49","size_leaf_vector":"1"}},{"base_weights":[1.2015474E-2,5.159917E-1,-8.178949E-1,5.530725E-1,9.060407E-2,-5.824847E-1,-1.2331941E0,5.7416725E-1,4.613536E-1,2.1123847E-1,-1.9316041E-1,-4.314887E-1,-1.4361967E0,-1.2447022E0,2.6374834E-3,3.774282E-1,5.857675E-1,3.487911E-1,5.6008023E-1,4.4172502E-1,1.1781523E-1,-5.5936426E-1,-5.5672523E-2,-3.8797832E-1,-6.7197103E-3,-7.3669152E-3,-5.419246E-1,-5.938315E-3,-7.359795E-3,1.9576028E-3,-1.8266142E-4,3.294376E-3,2.7741948E-3,1.9519652E-3,-0E0,2.60269E-3,4.534566E-3,2.736956E-3,-0E0,-2.1035688E-3,8.2055834E-4,-3.4106385E-3,-0E0,5.2991792E-5,-2.035923E-3,-1.4979526E-3,-2.7211318E-3,-0E0,-3.3417114E-3],"categories":[],"categories_nodes":[],"categories_segments":[],"categories_sizes":[],"default_left":[0,0,0,0,0,0,0,0,0,0,0,0,0,0,0,0,0,0,0,0,0,0,0,0,0,0,0,0,0,0,0,0,0,0,0,0,0,0,0,0,0,0,0,0,0,0,0,0,0],"id":2,"left_children":[1,3,5,7,9,11,13,15,17,19,21,23,25,27,-1,29,31,33,35,37,39,41,43,45,-1,-1,47,-1,-1,-1,-1,-1,-1,-1,-1,-1,-1,-1,-1,-1,-1,-1,-1,-1,-1,-1,-1,-1,-1],"loss_changes":[2.106306E3,4.8384888E1,1.8179004E2,3.4890747E0,8.906284E0,1.5322571E2,1.6248291E1,3.407837E0,4.4914474E0,3.0401745E0,2.7409587E0,3.7688232E1,1.3992615E0,1.3416748E0,0E0,1.389471E0,2.3775024E0,4.3416862E0,8.7815857E-1,1.720768E0,3.2187302E0,1.6603703E0,1.9779165E0,1.2190994E1,0E0,0E0,9.4262767E-1,0E0,0E0,0E0,0E0,0E0,0E0,0E0,0E0,0E0,0E0,0E0,0E0,0E0,0E0,0E0,0E0,0E0,0E0,0E0,0E0,0E0,0E0],"parents":[2147483647,0,0,1,1,2,2,3,3,4,4,5,5,6,6,7,7,8,8,9,9,10,10,11,11,12,12,13,13,15,15,16,16,17,17,18,18,19,19,20,20,21,21,22,22,23,23,26,26],"right_children":[2,4,6,8,10,12,14,16,18,20,22,24,26,28,-1,30,32,34,36,38,40,42,44,46,-1,-1,48,-1,-1,-1,-1,-1,-1,-1,-1,-1,-1,-1,-1,-1,-1,-1,-1,-1,-1,-1,-1,-1,-1],"split_conditions":[2E0,1.6772496E0,3.188709E-1,9.980602E-1,2.0168443E0,4E0,2.6E1,8E0,6E0,2E0,3E0,4E0,1.33E2,4E0,2.6374834E-3,2E0,3.1E1,1.9E1,2E1,6.8E1,3E0,4.7E1,1.19E2,9E0,-6.7197103E-3,-7.3669152E-3,2E0,-5.938315E-3,-7.359795E-3,1.9576028E-3,-1.8266142E-4,3.294376E-3,2.7741948E-3,1.9519652E-3,-0E0,2.60269E-3,4.534566E-3,2.736956E-3,-0E0,-2.1035688E-3,8.2055834E-4,-3.4106385E-3,-0E0,5.2991792E-5,-2.035923E-3,-1.4979526E-3,-2.7211318E-3,-0E0,-3.3417114E-3],"split_indices":[11,15,15,15,15,11,1,4,2,6,3,6,4,11,0,13,4,3,2,4,1,4,4,1,0,0,5,0,0,0,0,0,0,0,0,0,0,0,0,0,0,0,0,0,0,0,0,0,0],"split_type":[0,0,0,0,0,0,0,0,0,0,0,0,0,0,0,0,0,0,0,0,0,0,0,0,0,0,0,0,0,0,0,0,0,0,0,0,0,0,0,0,0,0,0,0,0,0,0,0,0],"sum_hessian":[5.033E3,3.133E3,1.9E3,2.878E3,2.55E2,1.218E3,6.82E2,2.318E3,5.6E2,1.83E2,7.2E1,1.039E3,1.79E2,6.79E2,3E0,1.4E2,2.178E3,2.73E2,2.87E2,4.6E1,1.37E2,1.5E1,5.7E1,9.96E2,4.3E1,1.69E2,1E1,5.58E2,1.21E2,1.39E2,1E0,6.21E2,1.557E3,2.46E2,2.7E1,2.66E2,2.1E1,3.5E1,1.1E1,7E0,1.3E2,1.3E1,2E0,4.6E1,1.1E1,6.46E2,3.5E2,2E0,8E0],"tree_param":{"num_deleted":"0","num_feature":"16","num_nodes":"49","size_leaf_vector":"1"}},{"base_weights":[5.174652E-3,5.1331955E-1,-8.379084E-1,5.486385E-1,1.0431786E-1,-5.897297E-1,-1.2654798E0,5.698512E-1,4.5304817E-1,-2.449138E-2,2.5392917E-1,-4.363596E-1,-1.4278718E0,-1.2731378E0,1.566309E-3,5.280163E-1,6.845311E-1,2.2765033E-1,4.996027E-1,3.057912E-1,-1.7722388E-1,4.1005975E-1,-5.6948017E-2,-3.9760238E-1,-6.543311E-3,-1.4334888E0,-0E0,-5.3059896E-3,-6.595466E-3,2.672648E-3,4.3244596E-4,-0E0,3.439547E-3,1.4795249E-3,-1.9216087E-3,1.8045341E-3,2.945283E-3,2.1774003E-3,-0E0,2.1544374E-3,-1.3363939E-3,-0E0,2.684753E-3,-3.7594463E-3,1.0186318E-4,-1.3539961E-3,-2.5788732E-3,-7.1912734E-3,-0E0],"categories":[],"categories_nodes":[],"categories_segments":[],"categories_sizes":[],"default_left":[0,0,0,0,0,0,0,0,0,0,0,0,0,0,0,0,0,0,0,0,0,0,0,0,0,0,0,0,0,0,0,0,0,0,0,0,0,0,0,0,0,0,0,0,0,0,0,0,0],"id":3,"left_children":[1,3,5,7,9,11,13,15,17,19,21,23,25,27,-1,29,31,33,35,37,39,41,43,45,-1,47,-1,-1,-1,-1,-1,-1,-1,-1,-1,-1,-1,-1,-1,-1,-1,-1,-1,-1,-1,-1,-1,-1,-1],"loss_changes":[2.1595513E3,4.436615E1,1.9681104E2,3.8155518E0,5.290053E0,1.5085544E2,1.0603638E1,8.718262E0,4.4319763E0,6.6751504E0,6.595012E0,3.0985565E1,9.024048E-1,3.5046387E-1,0E0,3.9742126E0,2.3596802E0,4.397125E0,3.6957397E0,2.1386003E0,5.2422094E0,4.279723E0,3.2772434E0,1.328566E1,0E0,4.3597412E-1,0E0,0E0,0E0,0E0,0E0,0E0,0E0,0E0,0E0,0E0,0E0,0E0,0E0,0E0,0E0,0E0,0E0,0E0,0E0,0E0,0E0,0E0,0E0],"parents":[2147483647,0,0,1,1,2,2,3,3,4,4,5,5,6,6,7,7,8,8,9,9,10,10,11,11,12,12,13,13,15,15,16,16,17,17,18,18,19,19,20,20,21,21,22,22,23,23,25,25],"right_children":[2,4,6,8,10,12,14,16,18,20,22,24,26,28,-1,30,32,34,36,38,40,42,44,46,-1,48,-1,-1,-1,-1,-1,-1,-1,-1,-1,-1,-1,-1,-1,-1,-1,-1,-1,-1,-1,-1,-1,-1,-1],"split_conditions":[2E0,1.6772496E0,3.188709E-1,9.980602E-1,6.4E1,4E0,2.6E1,5.1E2,2E0,2E0,1.1E1,4E0,1.44E2,6.5846556E-1,1.566309E-3,4.97E2,2E0,2.1E1,-1.9752622E-1,2.0168443E0,-1.6085622E0,-6.980809E-1,1.5E1,-6.999131E-1,-6.543311E-3,8.21E2,-0E0,-5.3059896E-3,-6.595466E-3,2.672648E-3,4.3244596E-4,-0E0,3.439547E-3,1.4795249E-3,-1.9216087E-3,1.8045341E-3,2.945283E-3,2.1774003E-3,-0E0,2.1544374E-3,-1.3363939E-3,-0E0,2.684753E-3,-3.7594463E-3,1.0186318E-4,-1.3539961E-3,-2.5788732E-3,-7.1912734E-3,-0E0],"split_indices":[11,15,15,15,4,11,1,0,6,6,3,6,4,15,0,0,1,3,14,15,14,14,3,15,0,0,0,0,0,0,0,0,0,0,0,0,0,0,0,0,0,0,0,0,0,0,0,0,0],"split_type":[0,0,0,0,0,0,0,0,0,0,0,0,0,0,0,0,0,0,0,0,0,0,0,0,0,0,0,0,0,0,0,0,0,0,0,0,0,0,0,0,0,0,0,0,0,0,0,0,0],"sum_hessian":[5.038E3,3.145E3,1.893E3,2.891E3,2.54E2,1.203E3,6.9E2,2.345E3,5.46E2,1.32E2,1.22E2,1.021E3,1.82E2,6.88E2,2E0,1.736E3,6.09E2,1.01E2,4.45E2,3.8E1,9.4E1,8.4E1,3.8E1,9.82E2,3.9E1,1.81E2,1E0,1.37E2,5.51E2,1.707E3,2.9E1,1E0,6.08E2,9.4E1,7E0,1.85E2,2.6E2,2.9E1,9E0,9E0,8.5E1,2.1E1,6.3E1,4E0,3.4E1,4.83E2,4.99E2,1.8E2,1E0],"tree_param":{"num_deleted":"0","num_feature":"16","num_nodes":"49","size_leaf_vector":"1"}},{"base_weights":[-8.063772E-3,4.8967138E-1,-8.201254E-1,3.9029315E-1,5.634884E-1,-6.9441396E-1,-1.4668264E0,5.087283E-1,2.9343766E-1,5.654836E-1,-1.1032372E-3,-6.527559E-3,-5.172757E-1,-7.3516793E-3,-0E0,5.4935366E-1,2.253578E-1,-7.447896E-2,3.0325645E-1,5.681785E-1,-0E0,-7.6374227E-1,-4.375622E-1,-0E0,5.5696416E-1,4.1483417E-3,5.981083E-1,-3.1516266E-1,1.646135E-3,3.1040478E-1,-4.202935E-4,7.9020305E-4,2.8641191E-3,-3.4713818E-4,-0E0,-2.7290487E-3,-5.9878067E-3,-1.6487105E-3,-2.7398255E-3,2.809512E-3,-0E0,7.021609E-4,-9.854073E-4,3.628826E-3,-0E0,-2.2169533E-3,-0E0,1.6219566E-3,1.3011656E-4],"categories":[],"categories_nodes":[],"categories_segments":[],"categories_sizes":[],"default_left":[0,0,0,0,0,0,0,0,0,0,0,0,0,0,0,0,0,0,0,0,0,0,0,0,0,0,0,0,0,0,0,0,0,0,0,0,0,0,0,0,0,0,0,0,0,0,0,0,0],"id":4,"left_children":[1,3,5,7,9,11,13,15,17,19,-1,-1,21,-1,-1,23,25,27,29,31,33,35,37,-1,39,41,43,45,-1,47,-1,-1,-1,-1,-1,-1,-1,-1,-1,-1,-1,-1,-1,-1,-1,-1,-1,-1,-1],"loss_changes":[2.0170024E3,2.0811768E1,1.4894287E2,1.3789185E1,3.5219116E0,1.684638E2,9.819336E-1,5.382416E0,3.0796356E0,3.1140747E0,0E0,0E0,2.1911224E1,0E0,0E0,2.7429657E0,5.8530393E0,1.8382362E0,2.4128342E0,2.060608E0,2.8921185E-2,2.406247E1,9.594818E0,0E0,1.8430634E0,1.5061439E0,1.5716352E0,1.8217719E-1,0E0,2.3252869E0,0E0,0E0,0E0,0E0,0E0,0E0,0E0,0E0,0E0,0E0,0E0,0E0,0E0,0E0,0E0,0E0,0E0,0E0,0E0],"parents":[2147483647,0,0,1,1,2,2,3,3,4,4,5,5,6,6,7,7,8,8,9,9,12,12,15,15,16,16,17,17,18,18,19,19,20,20,21,21,22,22,24,24,25,25,26,26,27,27,29,29],"right_children":[2,4,6,8,10,12,14,16,18,20,-1,-1,22,-1,-1,24,26,28,30,32,34,36,38,-1,40,42,44,46,-1,48,-1,-1,-1,-1,-1,-1,-1,-1,-1,-1,-1,-1,-1,-1,-1,-1,-1,-1,-1],"split_conditions":[2E0,4E0,4E0,2E0,2E0,3E0,1.43E2,1.1931034E0,-1.9182578E0,1.45E2,-1.1032372E-3,-6.527559E-3,4E0,-7.3516793E-3,-0E0,2E0,1.3E1,1.7E1,1.7506757E0,2E0,1.2915338E0,2E0,7E0,-0E0,3E0,7.5E1,2.2E1,2E0,1.646135E-3,1.3E2,-4.202935E-4,7.9020305E-4,2.8641191E-3,-3.4713818E-4,-0E0,-2.7290487E-3,-5.9878067E-3,-1.6487105E-3,-2.7398255E-3,2.809512E-3,-0E0,7.021609E-4,-9.854073E-4,3.628826E-3,-0E0,-2.2169533E-3,-0E0,1.6219566E-3,1.3011656E-4],"split_indices":[11,5,11,5,13,11,4,14,14,4,0,0,5,0,0,4,1,3,14,4,14,5,1,0,7,4,3,7,0,4,0,0,0,0,0,0,0,0,0,0,0,0,0,0,0,0,0,0,0],"split_type":[0,0,0,0,0,0,0,0,0,0,0,0,0,0,0,0,0,0,0,0,0,0,0,0,0,0,0,0,0,0,0,0,0,0,0,0,0,0,0,0,0,0,0,0,0,0,0,0,0],"sum_hessian":[4.985E3,3.09E3,1.895E3,1.331E3,1.759E3,1.592E3,3.03E2,5.88E2,7.43E2,1.757E3,2E0,3.53E2,1.239E3,3.02E2,1E0,5.08E2,8E1,1.5E1,7.28E2,1.75E3,7E0,2.94E2,9.45E2,5E0,5.03E2,5.4E1,2.6E1,1.2E1,3E0,7.19E2,9E0,2.4E1,1.726E3,4E0,3E0,2.01E2,9.3E1,4.89E2,4.56E2,5E2,3E0,3.7E1,1.7E1,2E1,6E0,6E0,6E0,6.8E2,3.9E1],"tree_param":{"num_deleted":"0","num_feature":"16","num_nodes":"49","size_leaf_vector":"1"}},{"base_weights":[-1.4368539E-3,9.532581E-2,-6.438977E-3,1.073538E-1,-4.519649E-1,1.1571077E-1,-6.4318806E-2,-7.079773E-1,-7.848131E-3,1.4645867E-1,7.862452E-2,-1.8963572E-1,1.7706935E-1,-9.1804326E-1,-2.804414E-1,2.3139985E-1,-1.530241E-1,8.4386855E-2,1.761241E-1,7.159531E-2,4.7321987E-1,-1.1471699E-2,-5.561233E-1,3.4174213E-1,-2.9679292E-1,-4.923269E-3,-0E0,-0E0,-2.2949937E-3,-0E0,2.4243274E-3,-1.6096458E-3,7.2980387E-4,1.181304E-3,6.261923E-5,1.8247778E-3,7.981944E-4,6.2354637E-4,1.8226182E-4,3.4461175E-3,-2.0641628E-4,-9.630425E-4,2.5406578E-3,-0E0,-3.7974368E-3,2.0992835E-3,-0E0,-2.5102934E-3,-0E0],"categories":[],"categories_nodes":[],"categories_segments":[],"categories_sizes":[],"default_left":[0,0,0,0,0,0,0,0,0,0,0,0,0,0,0,0,0,0,0,0,0,0,0,0,0,0,0,0,0,0,0,0,0,0,0,0,0,0,0,0,0,0,0,0,0,0,0,0,0],"id":5,"left_children":[1,3,-1,5,7,9,11,13,15,17,19,21,23,25,27,29,31,33,35,37,39,41,43,45,47,-1,-1,-1,-1,-1,-1,-1,-1,-1,-1,-1,-1,-1,-1,-1,-1,-1,-1,-1,-1,-1,-1,-1,-1],"loss_changes":[6.261343E2,3.0282333E1,0E0,6.645508E0,1.005769E1,4.6168633E0,6.287261E0,3.076004E0,1.3425783E0,3.9288597E0,4.6762667E0,8.277135E0,5.498436E0,2.7502842E0,1.194013E0,1.0031109E0,1.8729321E0,8.177574E0,4.0150185E0,3.4375305E0,4.4739895E0,9.040264E0,4.5827084E0,1.9191165E0,1.6153786E0,0E0,0E0,0E0,0E0,0E0,0E0,0E0,0E0,0E0,0E0,0E0,0E0,0E0,0E0,0E0,0E0,0E0,0E0,0E0,0E0,0E0,0E0,0E0,0E0],"parents":[2147483647,0,0,1,1,3,3,4,4,5,5,6,6,7,7,8,8,9,9,10,10,11,11,12,12,13,13,14,14,15,15,16,16,17,17,18,18,19,19,20,20,21,21,22,22,23,23,24,24],"right_children":[2,4,-1,6,8,10,12,14,16,18,20,22,24,26,28,30,32,34,36,38,40,42,44,46,48,-1,-1,-1,-1,-1,-1,-1,-1,-1,-1,-1,-1,-1,-1,-1,-1,-1,-1,-1,-1,-1,-1,-1,-1],"split_conditions":[4E0,2.0168443E0,-6.438977E-3,1.6772496E0,9E0,1.0136613E-1,9.6E1,5E0,2E0,-9.6576357E-1,2.2E1,4.2246535E-1,1.25E2,1.9085245E0,6.3E1,2E0,2.1E1,-1.520335E0,-8.859389E-1,4.5E1,1.41E2,7.135686E-2,2E0,1.0226508E0,2E0,-4.923269E-3,-0E0,-0E0,-2.2949937E-3,-0E0,2.4243274E-3,-1.6096458E-3,7.2980387E-4,1.181304E-3,6.261923E-5,1.8247778E-3,7.981944E-4,6.2354637E-4,1.8226182E-4,3.4461175E-3,-2.0641628E-4,-9.630425E-4,2.5406578E-3,-0E0,-3.7974368E-3,2.0992835E-3,-0E0,-2.5102934E-3,-0E0],"split_indices":[6,15,0,15,1,14,4,2,6,14,2,14,4,14,4,12,1,14,14,4,4,14,6,14,12,0,0,0,0,0,0,0,0,0,0,0,0,0,0,0,0,0,0,0,0,0,0,0,0],"split_type":[0,0,0,0,0,0,0,0,0,0,0,0,0,0,0,0,0,0,0,0,0,0,0,0,0,0,0,0,0,0,0,0,0,0,0,0,0,0,0,0,0,0,0,0,0,0,0,0,0],"sum_hessian":[5.012E3,4.662E3,3.5E2,4.566E3,9.6E1,4.363E3,2.03E2,5.8E1,3.8E1,2.36E3,2.003E3,1.38E2,6.5E1,3.5E1,2.3E1,1E1,2.8E1,7.82E2,1.578E3,1.974E3,2.9E1,9.7E1,4.1E1,5.1E1,1.4E1,3.3E1,2E0,1E1,1.3E1,5E0,5E0,2.1E1,7E0,2.43E2,5.39E2,1.16E2,1.462E3,7.67E2,1.207E3,2.2E1,7E0,7.5E1,2.2E1,1.2E1,2.9E1,4.4E1,7E0,1E1,4E0],"tree_param":{"num_deleted":"0","num_feature":"16","num_nodes":"49","size_leaf_vector":"1"}},{"base_weights":[3.560776E-3,4.9490696E-1,-8.11723E-1,5.302652E-1,1.02335304E-1,-5.368586E-1,-1.1375726E0,5.319484E-1,-2.2428548E-2,2.1996781E-1,-1.1352465E-1,-3.8404498E-1,-1.3863044E0,-9.32101E-1,-1.2596323E0,5.494379E-1,4.5610136E-1,-0E0,-1.283825E-3,4.855526E-1,1.0581827E-1,-4.3303016E-1,-2.3306892E-3,-3.5060653E-1,-6.165673E-3,-6.958179E-3,-0E0,-8.005956E-1,-6.6622715E-3,-1.2755156E0,4.201182E-4,2.576266E-3,3.211077E-3,2.3289945E-3,-4.2072698E-4,2.5991118E-3,-0E0,1.1373765E-3,-1.2645625E-3,-2.543302E-3,-0E0,7.0628535E-4,-9.971064E-4,-1.4265722E-3,-2.1989015E-3,-3.6144184E-3,-6.311189E-3,-6.3860277E-3,-0E0],"categories":[],"categories_nodes":[],"categories_segments":[],"categories_sizes":[],"default_left":[0,0,0,0,0,0,0,0,0,0,0,0,0,0,0,0,0,0,0,0,0,0,0,0,0,0,0,0,0,0,0,0,0,0,0,0,0,0,0,0,0,0,0,0,0,0,0,0,0],"id":6,"left_children":[1,3,5,7,9,11,13,15,17,19,21,23,25,27,29,31,33,-1,-1,35,37,39,41,43,-1,-1,-1,45,-1,47,-1,-1,-1,-1,-1,-1,-1,-1,-1,-1,-1,-1,-1,-1,-1,-1,-1,-1,-1],"loss_changes":[2.0268959E3,4.2791504E1,1.6661841E2,3.4804077E0,6.989312E0,1.3101923E2,1.6083374E1,1.8214722E0,3.9154524E-1,4.406498E0,2.577905E0,2.1858429E1,3.737793E-1,1.2304199E1,1.3376648E1,4.963257E0,3.6319046E0,0E0,0E0,1.4180279E0,5.794025E0,9.06935E-1,2.2094712E0,3.639511E0,0E0,0E0,0E0,4.524933E0,0E0,6.464844E-1,0E0,0E0,0E0,0E0,0E0,0E0,0E0,0E0,0E0,0E0,0E0,0E0,0E0,0E0,0E0,0E0,0E0,0E0,0E0],"parents":[2147483647,0,0,1,1,2,2,3,3,4,4,5,5,6,6,7,7,8,8,9,9,10,10,11,11,12,12,13,13,14,14,15,15,16,16,19,19,20,20,21,21,22,22,23,23,27,27,29,29],"right_children":[2,4,6,8,10,12,14,16,18,20,22,24,26,28,30,32,34,-1,-1,36,38,40,42,44,-1,-1,-1,46,-1,48,-1,-1,-1,-1,-1,-1,-1,-1,-1,-1,-1,-1,-1,-1,-1,-1,-1,-1,-1],"split_conditions":[2E0,1.6772496E0,-2.0723764E-2,2E0,2.0168443E0,4E0,6.5846556E-1,9.980602E-1,2E0,2E0,3E0,4E0,8.21E2,4E0,2.5E1,5.1E2,1.6582471E0,-0E0,-1.283825E-3,3E0,5.064913E-1,2.0543694E0,3.78E2,-6.999131E-1,-6.165673E-3,-6.958179E-3,-0E0,4E0,-6.6622715E-3,1.1E1,4.201182E-4,2.576266E-3,3.211077E-3,2.3289945E-3,-4.2072698E-4,2.5991118E-3,-0E0,1.1373765E-3,-1.2645625E-3,-2.543302E-3,-0E0,7.0628535E-4,-9.971064E-4,-1.4265722E-3,-2.1989015E-3,-3.6144184E-3,-6.311189E-3,-6.3860277E-3,-0E0],"split_indices":[11,15,15,13,15,11,15,15,5,6,3,6,0,11,3,0,14,0,0,7,14,14,0,15,0,0,0,6,0,5,0,0,0,0,0,0,0,0,0,0,0,0,0,0,0,0,0,0,0],"split_type":[0,0,0,0,0,0,0,0,0,0,0,0,0,0,0,0,0,0,0,0,0,0,0,0,0,0,0,0,0,0,0,0,0,0,0,0,0,0,0,0,0,0,0,0,0,0,0,0,0],"sum_hessian":[5.057E3,3.157E3,1.9E3,2.892E3,2.65E2,1.036E3,8.64E2,2.886E3,6E0,1.76E2,8.9E1,8.82E2,1.54E2,3.33E2,5.31E2,2.319E3,5.67E2,2E0,4E0,4.7E1,1.29E2,1.8E1,7.1E1,8.53E2,2.9E1,1.53E2,1E0,2.58E2,7.5E1,5.26E2,5E0,1.716E3,6.03E2,5.6E2,7E0,4.6E1,1E0,1E2,2.9E1,1.6E1,2E0,3.7E1,3.4E1,5.07E2,3.46E2,2.28E2,3E1,5.25E2,1E0],"tree_param":{"num_deleted":"0","num_feature":"16","num_nodes":"49","size_leaf_vector":"1"}},{"base_weights":[-6.5724812E-3,4.9439737E-1,-8.1628644E-1,5.369112E-1,-0E0,-5.791789E-1,-1.2279966E0,5.6016576E-1,4.375224E-1,7.195559E-2,-1.4465742E-1,-4.423406E-1,-1.3880768E0,-1.2392902E0,2.6312522E-3,4.7639132E-1,2.9198956E-3,4.1566435E-1,9.1221726E-1,2.841721E-1,-0E0,-2.9946002E-1,7.665949E-2,-4.0129858E-1,-6.431433E-3,-1.3928832E0,-0E0,-1.1761822E0,-7.5681335E-3,2.402292E-3,-0E0,2.2547478E-3,5.4566528E-5,4.8668194E-3,-0E0,2.8073573E-3,-4.25648E-4,9.2101726E-4,-3.376329E-4,-3.1818757E-3,-4.9069597E-5,5.419081E-4,-0E0,-1.4500938E-3,-2.5465428E-3,-6.9886297E-3,-0E0,-4.573223E-3,-6.1572692E-3],"categories":[],"categories_nodes":[],"categories_segments":[],"categories_sizes":[],"default_left":[0,0,0,0,0,0,0,0,0,0,0,0,0,0,0,0,0,0,0,0,0,0,0,0,0,0,0,0,0,0,0,0,0,0,0,0,0,0,0,0,0,0,0,0,0,0,0,0,0],"id":7,"left_children":[1,3,5,7,9,11,13,15,17,19,21,23,25,27,-1,29,-1,31,33,35,37,39,41,43,-1,45,-1,47,-1,-1,-1,-1,-1,-1,-1,-1,-1,-1,-1,-1,-1,-1,-1,-1,-1,-1,-1,-1,-1],"loss_changes":[2.0295016E3,6.538629E1,1.826128E2,4.5910034E0,2.6332111E0,1.3106598E2,1.6143188E1,2.4155273E0,3.0707169E0,2.4773097E0,3.326511E0,3.2736084E1,3.8562012E-1,4.385254E0,0E0,1.3739166E0,0E0,7.0523376E0,1.3585014E0,5.0088005E0,1.5346653E0,4.385464E0,1.8196008E-1,1.0573013E1,0E0,3.8433838E-1,0E0,2.8546143E0,0E0,0E0,0E0,0E0,0E0,0E0,0E0,0E0,0E0,0E0,0E0,0E0,0E0,0E0,0E0,0E0,0E0,0E0,0E0,0E0,0E0],"parents":[2147483647,0,0,1,1,2,2,3,3,4,4,5,5,6,6,7,7,8,8,9,9,10,10,11,11,12,12,13,13,15,15,17,17,18,18,19,19,20,20,21,21,22,22,23,23,25,25,27,27],"right_children":[2,4,6,8,10,12,14,16,18,20,22,24,26,28,-1,30,-1,32,34,36,38,40,42,44,-1,46,-1,48,-1,-1,-1,-1,-1,-1,-1,-1,-1,-1,-1,-1,-1,-1,-1,-1,-1,-1,-1,-1,-1],"split_conditions":[2E0,1.6772496E0,3.188709E-1,9.980602E-1,2.0168443E0,4E0,2.6E1,2E0,2E1,2E0,2E0,4E0,2.2E1,4E0,2.6312522E-3,1.1E1,2.9198956E-3,2E1,2E0,2E0,2E0,6E0,2E0,-6.999131E-1,-6.431433E-3,2E0,-0E0,6.5846556E-1,-7.5681335E-3,2.402292E-3,-0E0,2.2547478E-3,5.4566528E-5,4.8668194E-3,-0E0,2.8073573E-3,-4.25648E-4,9.2101726E-4,-3.376329E-4,-3.1818757E-3,-4.9069597E-5,5.419081E-4,-0E0,-1.4500938E-3,-2.5465428E-3,-6.9886297E-3,-0E0,-4.573223E-3,-6.1572692E-3],"split_indices":[11,15,15,15,15,11,1,2,2,6,12,6,2,11,0,5,0,3,10,12,2,3,10,15,0,13,0,15,0,0,0,0,0,0,0,0,0,0,0,0,0,0,0,0,0,0,0,0,0],"split_type":[0,0,0,0,0,0,0,0,0,0,0,0,0,0,0,0,0,0,0,0,0,0,0,0,0,0,0,0,0,0,0,0,0,0,0,0,0,0,0,0,0,0,0,0,0,0,0,0,0],"sum_hessian":[4.998E3,3.087E3,1.911E3,2.844E3,2.43E2,1.218E3,6.93E2,2.285E3,5.59E2,1.59E2,8.4E1,1.046E3,1.72E2,6.9E2,3E0,5.29E2,1.756E3,5.41E2,1.8E1,3.9E1,1.2E2,5.3E1,3.1E1,1.002E3,4.4E1,1.71E2,1E0,5.74E2,1.16E2,5.26E2,3E0,4.94E2,4.7E1,1.7E1,1E0,2.4E1,1.5E1,3.1E1,8.9E1,2.1E1,3.2E1,3E1,1E0,5.04E2,4.98E2,1.7E2,1E0,1.11E2,4.63E2],"tree_param":{"num_deleted":"0","num_feature":"16","num_nodes":"49","size_leaf_vector":"1"}},{"base_weights":[1.0530796E-2,1.0529118E-1,-6.3913153E-3,1.18595354E-1,-4.7498584E-1,1.2848045E-1,-8.469955E-2,-5.5488104E-1,5.426219E-2,9.848394E-2,2.0160556E-1,4.106096E-2,-3.5141888E-1,-0E0,-5.8808094E-1,2.5867665E-1,-2.0446895E-2,5.4066688E-2,1.4514233E-1,1.6286027E-1,3.4955135E-1,4.2064387E-1,-8.399935E-2,-6.8719566E-2,-3.9790192E-1,-1.117072E-3,3.773036E-4,-3.7037265E-3,-1.4449359E-3,-0E0,1.704976E-3,-6.6716206E-4,-0E0,-6.0140475E-4,3.4627723E-4,9.14967E-4,2.1944405E-5,9.814417E-4,1.6053347E-4,2.110226E-3,-0E0,2.889998E-4,3.6702412E-3,-2.0187662E-3,6.071943E-4,-2.7275335E-3,-0E0,-7.5450604E-4,-2.5772692E-3],"categories":[],"categories_nodes":[],"categories_segments":[],"categories_sizes":[],"default_left":[0,0,0,0,0,0,0,0,0,0,0,0,0,0,0,0,0,0,0,0,0,0,0,0,0,0,0,0,0,0,0,0,0,0,0,0,0,0,0,0,0,0,0,0,0,0,0,0,0],"id":8,"left_children":[1,3,-1,5,7,9,11,13,15,17,19,21,23,25,27,29,31,33,35,37,39,41,43,45,47,-1,-1,-1,-1,-1,-1,-1,-1,-1,-1,-1,-1,-1,-1,-1,-1,-1,-1,-1,-1,-1,-1,-1,-1],"loss_changes":[6.1891284E2,3.613277E1,0E0,9.397865E0,5.208721E0,9.218575E0,7.5048323E0,1.4539642E0,5.6645393E-1,6.228178E0,6.40316E0,7.2215405E0,1.7837238E-1,2.3382188E-1,1.9997711E0,3.2799923E-1,8.65126E-2,4.275102E0,7.8260307E0,4.098688E0,5.8360043E0,3.0486126E0,7.3532596E0,1.1100299E0,4.7088528E-1,0E0,0E0,0E0,0E0,0E0,0E0,0E0,0E0,0E0,0E0,0E0,0E0,0E0,0E0,0E0,0E0,0E0,0E0,0E0,0E0,0E0,0E0,0E0,0E0],"parents":[2147483647,0,0,1,1,3,3,4,4,5,5,6,6,7,7,8,8,9,9,10,10,11,11,12,12,13,13,14,14,15,15,16,16,17,17,18,18,19,19,20,20,21,21,22,22,23,23,24,24],"right_children":[2,4,-1,6,8,10,12,14,16,18,20,22,24,26,28,30,32,34,36,38,40,42,44,46,48,-1,-1,-1,-1,-1,-1,-1,-1,-1,-1,-1,-1,-1,-1,-1,-1,-1,-1,-1,-1,-1,-1,-1,-1],"split_conditions":[4E0,2.0168443E0,-6.3913153E-3,1.6772496E0,2E1,4.86E2,2E0,2.2E1,7.2E1,6E0,1.21E2,2E0,1.8E1,4E0,2E0,1.7E1,1.38E2,3.7E1,3.65E2,7.2E2,9.980602E-1,4.57E2,6.4E1,4.5E1,3.41E2,-1.117072E-3,3.773036E-4,-3.7037265E-3,-1.4449359E-3,-0E0,1.704976E-3,-6.6716206E-4,-0E0,-6.0140475E-4,3.4627723E-4,9.14967E-4,2.1944405E-5,9.814417E-4,1.6053347E-4,2.110226E-3,-0E0,2.889998E-4,3.6702412E-3,-2.0187662E-3,6.071943E-4,-2.7275335E-3,-0E0,-7.5450604E-4,-2.5772692E-3],"split_indices":[6,15,0,15,1,0,12,0,4,2,4,6,4,2,12,4,4,0,0,0,15,0,4,0,0,0,0,0,0,0,0,0,0,0,0,0,0,0,0,0,0,0,0,0,0,0,0,0,0],"split_type":[0,0,0,0,0,0,0,0,0,0,0,0,0,0,0,0,0,0,0,0,0,0,0,0,0,0,0,0,0,0,0,0,0,0,0,0,0,0,0,0,0,0,0,0,0,0,0,0,0],"sum_hessian":[5.078E3,4.733E3,3.45E2,4.631E3,1.02E2,4.424E3,2.07E2,9.1E1,1.1E1,3.155E3,1.269E3,1.38E2,6.9E1,6E0,8.5E1,7E0,4E0,1.635E3,1.52E3,1.017E3,2.52E2,3.6E1,1.02E2,1.5E1,5.4E1,2E0,4E0,5.1E1,3.4E1,1E0,6E0,3E0,1E0,1.22E2,1.513E3,1.189E3,3.31E2,8E2,2.17E2,2.05E2,4.7E1,2E1,1.6E1,4.2E1,6E1,2E0,1.3E1,2.3E1,3.1E1],"tree_param":{"num_deleted":"0","num_feature":"16","num_nodes":"49","size_leaf_vector":"1"}},{"base_weights":[3.8316331E-3,9.5690414E-2,-6.2752925E-3,1.05044566E-1,-3.2728165E-1,-1.01645686E-1,1.1246978E-1,-5.252985E-1,-7.200203E-2,4.6919355E-1,-1.506324E-1,2.9558814E-1,1.0180944E-1,-7.45524E-1,-1.2715234E-1,1.2043929E-1,-3.1868318E-1,-0E0,3.1303118E-3,-4.5046753E-1,-1.0881531E-2,-5.6447845E-2,3.538243E-1,-5.2661285E-2,1.1863651E-1,-8.479946E-1,-0E0,-4.061667E-1,1.728833E-4,1.9634636E-3,-0E0,-2.0114311E-3,-0E0,-2.777237E-3,-0E0,1.4479689E-3,-8.456523E-4,1.2481232E-3,-1.7749021E-3,1.9993845E-3,2.3447063E-4,2.2099662E-4,-1.1324477E-3,6.233144E-4,-3.55686E-4,-4.477054E-3,-0E0,-2.6702178E-3,-0E0],"categories":[],"categories_nodes":[],"categories_segments":[],"categories_sizes":[],"default_left":[0,0,0,0,0,0,0,0,0,0,0,0,0,0,0,0,0,0,0,0,0,0,0,0,0,0,0,0,0,0,0,0,0,0,0,0,0,0,0,0,0,0,0,0,0,0,0,0,0],"id":9,"left_children":[1,3,-1,5,7,9,11,13,15,17,19,21,23,25,27,29,31,-1,-1,33,35,37,39,41,43,45,-1,47,-1,-1,-1,-1,-1,-1,-1,-1,-1,-1,-1,-1,-1,-1,-1,-1,-1,-1,-1,-1,-1],"loss_changes":[5.7149786E2,1.8018604E1,0E0,6.985237E0,3.9317207E0,3.8860044E0,7.888069E0,2.973174E0,2.652769E0,5.4225326E-1,5.2901907E0,5.242296E0,1.0890713E1,3.460476E0,1.6233414E0,1.0252278E0,1.0213785E0,0E0,0E0,1.3500147E0,4.814903E0,3.1678085E0,2.1617298E0,7.0283012E0,4.385559E0,7.111149E-1,0E0,8.7236845E-1,0E0,0E0,0E0,0E0,0E0,0E0,0E0,0E0,0E0,0E0,0E0,0E0,0E0,0E0,0E0,0E0,0E0,0E0,0E0,0E0,0E0],"parents":[2147483647,0,0,1,1,3,3,4,4,5,5,6,6,7,7,8,8,9,9,10,10,11,11,12,12,13,13,14,14,15,15,16,16,19,19,20,20,21,21,22,22,23,23,24,24,25,25,27,27],"right_children":[2,4,-1,6,8,10,12,14,16,18,20,22,24,26,28,30,32,-1,-1,34,36,38,40,42,44,46,-1,48,-1,-1,-1,-1,-1,-1,-1,-1,-1,-1,-1,-1,-1,-1,-1,-1,-1,-1,-1,-1,-1],"split_conditions":[4E0,2.0168443E0,-6.2752925E-3,3.7E1,7E0,3E0,6.9E1,-5.5882454E-2,3.78E2,2E0,3.120312E-1,3E0,1.28E2,1.5E1,2.34E2,2E0,2.2E1,-0E0,3.1303118E-3,7E0,7.951805E-1,5E0,2E0,1.04E2,7.87E2,7.4E2,-0E0,7E0,1.728833E-4,1.9634636E-3,-0E0,-2.0114311E-3,-0E0,-2.777237E-3,-0E0,1.4479689E-3,-8.456523E-4,1.2481232E-3,-1.7749021E-3,1.9993845E-3,2.3447063E-4,2.2099662E-4,-1.1324477E-3,6.233144E-4,-3.55686E-4,-4.477054E-3,-0E0,-2.6702178E-3,-0E0],"split_indices":[6,15,0,0,2,4,0,14,0,4,14,4,0,3,0,6,3,0,0,3,14,3,10,0,0,0,0,3,0,0,0,0,0,0,0,0,0,0,0,0,0,0,0,0,0,0,0,0,0],"split_type":[0,0,0,0,0,0,0,0,0,0,0,0,0,0,0,0,0,0,0,0,0,0,0,0,0,0,0,0,0,0,0,0,0,0,0,0,0,0,0,0,0,0,0,0,0,0,0,0,0],"sum_hessian":[4.953E3,4.619E3,3.34E2,4.524E3,9.5E1,1.49E2,4.375E3,4.9E1,4.6E1,8E0,1.41E2,2.3E2,4.145E3,2.8E1,2.1E1,2.3E1,2.3E1,3E0,5E0,4E1,1.01E2,2.9E1,2.01E2,3.98E2,3.747E3,2.6E1,2E0,1E1,1.1E1,7E0,1.6E1,2E1,3E0,3E1,1E1,3.1E1,7E1,1.2E1,1.7E1,1.7E2,3.1E1,2.51E2,1.47E2,3.64E3,1.07E2,2.4E1,2E0,8E0,2E0],"tree_param":{"num_deleted":"0","num_feature":"16","num_nodes":"49","size_leaf_vector":"1"}},{"base_weights":[-7.993807E-3,4.873523E-1,-8.214224E-1,5.206589E-1,1.1867954E-1,-5.9997165E-1,-1.2050595E0,5.438121E-1,4.216405E-1,2.3317017E-1,-1.3779636E-1,-4.635585E-1,-1.389934E0,-6.100255E-3,3.328277E-3,2.983601E-3,4.8761025E-1,2.756043E-1,4.8768675E-1,3.0629575E-1,-0E0,-3.7228522E-1,2.200211E-1,-4.2175946E-1,-6.4796135E-3,-1.4024562E0,-0E0,1.13892205E-1,4.9754566E-1,1.5928119E-3,-5.160956E-4,2.498906E-3,-4.563832E-5,4.4266507E-4,2.608722E-3,-1.3816417E-3,7.1129017E-4,-3.5749495E-3,-1.7362968E-4,1.5154221E-3,-0E0,-1.712308E-3,-2.822991E-3,-7.036636E-3,-0E0,1.3234164E-3,-1.4627367E-3,2.5008656E-3,-0E0],"categories":[],"categories_nodes":[],"categories_segments":[],"categories_sizes":[],"default_left":[0,0,0,0,0,0,0,0,0,0,0,0,0,0,0,0,0,0,0,0,0,0,0,0,0,0,0,0,0,0,0,0,0,0,0,0,0,0,0,0,0,0,0,0,0,0,0,0,0],"id":10,"left_children":[1,3,5,7,9,11,13,15,17,19,21,23,25,-1,-1,-1,27,29,31,33,35,37,39,41,-1,43,-1,45,47,-1,-1,-1,-1,-1,-1,-1,-1,-1,-1,-1,-1,-1,-1,-1,-1,-1,-1,-1,-1],"loss_changes":[2.0252126E3,3.7253174E1,1.5751904E2,4.647766E0,7.9888034E0,1.266456E2,2.1862854E1,4.624756E0,4.0164566E0,2.8193312E0,7.02065E0,3.2479233E1,2.2203674E0,0E0,0E0,0E0,3.1986694E0,3.4319277E0,3.0163956E0,5.5136194E0,1.9143797E0,4.7256093E0,9.3608606E-1,9.511551E0,0E0,4.0100098E-1,0E0,2.319417E0,1.8960876E0,0E0,0E0,0E0,0E0,0E0,0E0,0E0,0E0,0E0,0E0,0E0,0E0,0E0,0E0,0E0,0E0,0E0,0E0,0E0,0E0],"parents":[2147483647,0,0,1,1,2,2,3,3,4,4,5,5,6,6,7,7,8,8,9,9,10,10,11,11,12,12,16,16,17,17,18,18,19,19,20,20,21,21,22,22,23,23,25,25,27,27,28,28],"right_children":[2,4,6,8,10,12,14,16,18,20,22,24,26,-1,-1,-1,28,30,32,34,36,38,40,42,-1,44,-1,46,48,-1,-1,-1,-1,-1,-1,-1,-1,-1,-1,-1,-1,-1,-1,-1,-1,-1,-1,-1,-1],"split_conditions":[2E0,1.6772496E0,3.188709E-1,9.980602E-1,2.0168443E0,4E0,2.6E1,-1.8657629E-3,-5.072219E-1,1.1E1,2E0,4E0,1.41E2,-6.100255E-3,3.328277E-3,2.983601E-3,5.3351298E-2,2.1E1,1.6582471E0,6.4E1,1.8E1,6E0,1.09E2,9E0,-6.4796135E-3,2E0,-0E0,8.7E1,1.45E2,1.5928119E-3,-5.160956E-4,2.498906E-3,-4.563832E-5,4.4266507E-4,2.608722E-3,-1.3816417E-3,7.1129017E-4,-3.5749495E-3,-1.7362968E-4,1.5154221E-3,-0E0,-1.712308E-3,-2.822991E-3,-7.036636E-3,-0E0,1.3234164E-3,-1.4627367E-3,2.5008656E-3,-0E0],"split_indices":[11,15,15,15,15,11,1,14,14,3,12,6,4,0,0,0,14,3,14,4,3,3,4,1,0,13,0,4,4,0,0,0,0,0,0,0,0,0,0,0,0,0,0,0,0,0,0,0,0],"split_type":[0,0,0,0,0,0,0,0,0,0,0,0,0,0,0,0,0,0,0,0,0,0,0,0,0,0,0,0,0,0,0,0,0,0,0,0,0,0,0,0,0,0,0,0,0,0,0,0,0],"sum_hessian":[5.021E3,3.12E3,1.901E3,2.857E3,2.63E2,1.211E3,6.9E2,2.296E3,5.61E2,1.86E2,7.7E1,1.037E3,1.74E2,6.86E2,4E0,1.159E3,1.137E3,1.85E2,3.76E2,1.37E2,4.9E1,4.9E1,2.8E1,9.92E2,4.5E1,1.72E2,2E0,3.4E1,1.103E3,1.7E2,1.5E1,3.7E2,6E0,7.3E1,6.4E1,1.3E1,3.6E1,2.1E1,2.8E1,2.4E1,4E0,6.49E2,3.43E2,1.71E2,1E0,2.8E1,6E0,1.099E3,4E0],"tree_param":{"num_deleted":"0","num_feature":"16","num_nodes":"49","size_leaf_vector":"1"}},{"base_weights":[-3.993858E-3,8.921388E-2,-6.3721132E-3,1.00772046E-1,-4.458769E-1,1.0463222E-1,-2.9745018E-1,-9.3550766E-1,-2.7492067E-1,9.032375E-2,1.9931662E-1,-4.141437E-1,-0E0,-0E0,-1.0002215E0,-4.3839958E-1,-0E0,2.6046726E-1,8.239689E-2,3.3783457E-1,8.610683E-2,-4.666527E-1,-0E0,2.5378788E-2,-1.5842068E-1,-1.0632712E0,-0E0,-0E0,-2.4416791E-3,9.057816E-4,-2.5219144E-3,-0E0,1.8458023E-3,4.460173E-4,-5.100251E-4,2.2441945E-3,2.1690583E-4,6.8538066E-4,-1.2163296E-3,-0E0,-2.8459162E-3,-0E0,1.0167033E-3,-0E0,-2.427441E-3,-0E0,-5.4979525E-3,-0E0,5.452928E-4],"categories":[],"categories_nodes":[],"categories_segments":[],"categories_sizes":[],"default_left":[0,0,0,0,0,0,0,0,0,0,0,0,0,0,0,0,0,0,0,0,0,0,0,0,0,0,0,0,0,0,0,0,0,0,0,0,0,0,0,0,0,0,0,0,0,0,0,0,0],"id":11,"left_children":[1,3,-1,5,7,9,11,13,15,17,19,21,23,-1,25,27,29,31,33,35,37,39,-1,41,43,45,-1,47,-1,-1,-1,-1,-1,-1,-1,-1,-1,-1,-1,-1,-1,-1,-1,-1,-1,-1,-1,-1,-1],"loss_changes":[5.9928436E2,2.8640163E1,0E0,6.851864E0,5.789404E0,5.7155E0,1.0033646E0,1.7554626E0,3.5977502E0,4.816017E0,8.463955E0,1.0309772E0,2.0721772E-1,0E0,1.6016083E0,1.5521908E0,2.8228397E0,4.9558783E0,4.7911377E0,7.5902424E0,5.447416E0,1.1414781E0,0E0,2.8299117E-1,7.4201834E-1,3.619728E-1,0E0,4.757508E-2,0E0,0E0,0E0,0E0,0E0,0E0,0E0,0E0,0E0,0E0,0E0,0E0,0E0,0E0,0E0,0E0,0E0,0E0,0E0,0E0,0E0],"parents":[2147483647,0,0,1,1,3,3,4,4,5,5,6,6,7,7,8,8,9,9,10,10,11,11,12,12,14,14,15,15,16,16,17,17,18,18,19,19,20,20,21,21,23,23,24,24,25,25,27,27],"right_children":[2,4,-1,6,8,10,12,14,16,18,20,22,24,-1,26,28,30,32,34,36,38,40,-1,42,44,46,-1,48,-1,-1,-1,-1,-1,-1,-1,-1,-1,-1,-1,-1,-1,-1,-1,-1,-1,-1,-1,-1,-1],"split_conditions":[4E0,2.0168443E0,-6.3721132E-3,2.3754687E0,3E0,6.53E2,2.5E2,2E0,2E0,-1.520335E0,7.2E2,3E0,2E0,-0E0,1.6582471E0,2.2E1,5.16E2,6E0,1.3E2,2E0,1.337655E0,8.5E1,-0E0,2E0,1E2,2.8E1,-0E0,7E0,-2.4416791E-3,9.057816E-4,-2.5219144E-3,-0E0,1.8458023E-3,4.460173E-4,-5.100251E-4,2.2441945E-3,2.1690583E-4,6.8538066E-4,-1.2163296E-3,-0E0,-2.8459162E-3,-0E0,1.0167033E-3,-0E0,-2.427441E-3,-0E0,-5.4979525E-3,-0E0,5.452928E-4],"split_indices":[6,15,0,14,3,0,0,4,12,14,0,10,12,0,14,0,0,3,4,12,15,0,0,2,4,0,0,0,0,0,0,0,0,0,0,0,0,0,0,0,0,0,0,0,0,0,0,0,0],"split_type":[0,0,0,0,0,0,0,0,0,0,0,0,0,0,0,0,0,0,0,0,0,0,0,0,0,0,0,0,0,0,0,0,0,0,0,0,0,0,0,0,0,0,0,0,0,0,0,0,0],"sum_hessian":[5.042E3,4.698E3,3.44E2,4.603E3,9.5E1,4.564E3,3.9E1,2E1,7.5E1,3.982E3,5.82E2,2.5E1,1.4E1,1E0,1.9E1,4.7E1,2.8E1,1.66E2,3.816E3,2.54E2,3.28E2,2.4E1,1E0,8E0,6E0,1.8E1,1E0,3E0,4.4E1,2.2E1,6E0,4.8E1,1.18E2,3.689E3,1.27E2,1.8E2,7.4E1,2.89E2,3.9E1,5E0,1.9E1,3E0,5E0,4E0,2E0,1E0,1.7E1,1E0,2E0],"tree_param":{"num_deleted":"0","num_feature":"16","num_nodes":"49","size_leaf_vector":"1"}},{"base_weights":[-1.1799889E-2,8.315174E-2,-6.2250337E-3,9.578455E-2,-5.352279E-1,7.438024E-2,1.8524165E-1,-8.7922406E-1,-2.3281494E-1,9.592292E-2,-0E0,8.7620035E-2,2.8941202E-1,-9.5488024E-1,-0E0,4.789989E-3,-3.5371616E-1,1.5911524E-1,4.4157457E-2,-2.2689228E-1,3.8496416E-2,-4.4706628E-1,1.1091853E-1,3.156909E-1,-7.035206E-2,-5.808007E-3,-9.4192056E-4,-0E0,8.852084E-6,-0E0,8.268919E-4,-2.524278E-3,2.5336628E-4,7.4756716E-4,3.2637795E-3,-8.683126E-4,3.9953872E-4,-2.2393814E-3,1.3651124E-4,-6.666323E-5,7.9426274E-4,-0E0,-2.7585456E-3,2.2460292E-3,3.064731E-4,1.6450185E-3,-1.7302606E-4,2.9409613E-4,-1.3646011E-3],"categories":[],"categories_nodes":[],"categories_segments":[],"categories_sizes":[],"default_left":[0,0,0,0,0,0,0,0,0,0,0,0,0,0,0,0,0,0,0,0,0,0,0,0,0,0,0,0,0,0,0,0,0,0,0,0,0,0,0,0,0,0,0,0,0,0,0,0,0],"id":12,"left_children":[1,3,-1,5,7,9,11,13,15,17,19,21,23,25,27,29,31,33,35,37,39,41,43,45,47,-1,-1,-1,-1,-1,-1,-1,-1,-1,-1,-1,-1,-1,-1,-1,-1,-1,-1,-1,-1,-1,-1,-1,-1],"loss_changes":[5.9445056E2,3.6151367E1,0E0,8.408173E0,7.493208E0,5.931566E0,8.281857E0,3.72686E0,2.0780213E0,9.138018E0,7.3079696E0,5.3502665E0,4.3359184E0,3.5584984E0,9.403128E-6,2.4578299E-1,3.1772065E0,4.706318E0,1.2385462E1,7.452242E0,4.7637405E0,1.4723673E0,6.6830316E0,2.2877655E0,1.0335732E0,0E0,0E0,0E0,0E0,0E0,0E0,0E0,0E0,0E0,0E0,0E0,0E0,0E0,0E0,0E0,0E0,0E0,0E0,0E0,0E0,0E0,0E0,0E0,0E0],"parents":[2147483647,0,0,1,1,3,3,4,4,5,5,6,6,7,7,8,8,9,9,10,10,11,11,12,12,13,13,14,14,15,15,16,16,17,17,18,18,19,19,20,20,21,21,22,22,23,23,24,24],"right_children":[2,4,-1,6,8,10,12,14,16,18,20,22,24,26,28,30,32,34,36,38,40,42,44,46,48,-1,-1,-1,-1,-1,-1,-1,-1,-1,-1,-1,-1,-1,-1,-1,-1,-1,-1,-1,-1,-1,-1,-1,-1],"split_conditions":[4E0,2.0168443E0,-6.2250337E-3,1.15E2,6E0,8.1018513E-1,1.3E1,7E0,8E0,4.1E1,1E1,-1.368488E0,2.4E1,2.9522604E-1,7E0,5.4E1,1.9E1,7.8437716E-1,-1.0395077E0,1.3563539E0,3.188709E-1,5E0,-8.985428E-1,1.6772496E0,-6.999131E-1,-5.808007E-3,-9.4192056E-4,-0E0,8.852084E-6,-0E0,8.268919E-4,-2.524278E-3,2.5336628E-4,7.4756716E-4,3.2637795E-3,-8.683126E-4,3.9953872E-4,-2.2393814E-3,1.3651124E-4,-6.666323E-5,7.9426274E-4,-0E0,-2.7585456E-3,2.2460292E-3,3.064731E-4,1.6450185E-3,-1.7302606E-4,2.9409613E-4,-1.3646011E-3],"split_indices":[6,15,0,4,3,14,1,2,3,4,4,14,3,14,1,4,1,14,15,14,15,1,14,15,15,0,0,0,0,0,0,0,0,0,0,0,0,0,0,0,0,0,0,0,0,0,0,0,0],"split_type":[0,0,0,0,0,0,0,0,0,0,0,0,0,0,0,0,0,0,0,0,0,0,0,0,0,0,0,0,0,0,0,0,0,0,0,0,0,0,0,0,0,0,0,0,0,0,0,0,0],"sum_hessian":[5.058E3,4.697E3,3.61E2,4.607E3,9E1,3.734E3,8.73E2,3.8E1,5.2E1,2.889E3,8.45E2,4.6E2,4.13E2,3.6E1,2E0,1.4E1,3.8E1,1.286E3,1.603E3,1.19E2,7.26E2,1.5E1,4.45E2,3.89E2,2.4E1,2.6E1,1E1,1E0,1E0,7E0,7E0,3E1,8E0,1.267E3,1.9E1,2.19E2,1.384E3,6.6E1,5.3E1,5E2,2.26E2,1E0,1.4E1,5.1E1,3.94E2,3.79E2,1E1,1.1E1,1.3E1],"tree_param":{"num_deleted":"0","num_feature":"16","num_nodes":"49","size_leaf_vector":"1"}},{"base_weights":[1.1116135E-2,4.906915E-1,-8.042438E-1,5.198603E-1,1.17887914E-1,-5.67788E-1,-1.2096943E0,5.470444E-1,4.0259704E-1,2.1776234E-1,-1.0985739E-1,-4.3376037E-1,-1.4185983E0,-1.2172562E0,1.5472865E-3,5.11176E-1,6.413007E-1,4.8185107E-1,3.1531098E-1,3.432688E-1,4.169653E-2,-2.566767E-1,1.0907875E-1,-3.9317346E-1,-6.556286E-3,-7.164274E-3,-0E0,-1.0115632E0,-6.314796E-3,2.5652333E-3,-2.17731E-4,3.2894826E-3,1.2029004E-3,-0E0,2.5274E-3,-2.7099656E-4,1.7153106E-3,-0E0,2.0138675E-3,1.6255087E-3,-2.0688868E-4,-2.9949467E-3,-0E0,1.4617114E-3,-5.751069E-4,-1.4903233E-3,-2.869773E-3,-5.224276E-3,-1.4740058E-3],"categories":[],"categories_nodes":[],"categories_segments":[],"categories_sizes":[],"default_left":[0,0,0,0,0,0,0,0,0,0,0,0,0,0,0,0,0,0,0,0,0,0,0,0,0,0,0,0,0,0,0,0,0,0,0,0,0,0,0,0,0,0,0,0,0,0,0,0,0],"id":13,"left_children":[1,3,5,7,9,11,13,15,17,19,21,23,25,27,-1,29,31,33,35,37,39,41,43,45,-1,-1,-1,47,-1,-1,-1,-1,-1,-1,-1,-1,-1,-1,-1,-1,-1,-1,-1,-1,-1,-1,-1,-1,-1],"loss_changes":[1.973048E3,3.348999E1,1.7504724E2,7.5196533E0,5.6004887E0,1.3123285E2,9.972717E0,5.6417236E0,2.4573593E0,3.1504822E0,2.4953327E0,3.3059998E1,2.357483E0,4.4439697E-1,0E0,2.555603E0,2.5586548E0,2.6074142E0,3.413477E0,1.7395468E0,2.288897E0,4.503939E0,1.3599671E0,1.5337341E1,0E0,0E0,0E0,7.1520996E-1,0E0,0E0,0E0,0E0,0E0,0E0,0E0,0E0,0E0,0E0,0E0,0E0,0E0,0E0,0E0,0E0,0E0,0E0,0E0,0E0,0E0],"parents":[2147483647,0,0,1,1,2,2,3,3,4,4,5,5,6,6,7,7,8,8,9,9,10,10,11,11,12,12,13,13,15,15,16,16,17,17,18,18,19,19,20,20,21,21,22,22,23,23,27,27],"right_children":[2,4,6,8,10,12,14,16,18,20,22,24,26,28,-1,30,32,34,36,38,40,42,44,46,-1,-1,-1,48,-1,-1,-1,-1,-1,-1,-1,-1,-1,-1,-1,-1,-1,-1,-1,-1,-1,-1,-1,-1,-1],"split_conditions":[2E0,1.6772496E0,3.188709E-1,9.980602E-1,2.0168443E0,4E0,2.5E1,5.1E2,3.59E2,6E0,2E0,4E0,1.41E2,6.5846556E-1,1.5472865E-3,2E0,2.4E1,2.4E1,2E0,3E0,3.5E1,6E0,3.74E2,9E0,-6.556286E-3,-7.164274E-3,-0E0,1.33E2,-6.314796E-3,2.5652333E-3,-2.17731E-4,3.2894826E-3,1.2029004E-3,-0E0,2.5274E-3,-2.7099656E-4,1.7153106E-3,-0E0,2.0138675E-3,1.6255087E-3,-2.0688868E-4,-2.9949467E-3,-0E0,1.4617114E-3,-5.751069E-4,-1.4903233E-3,-2.869773E-3,-5.224276E-3,-1.4740058E-3],"split_indices":[11,15,15,15,15,11,1,0,0,2,12,6,4,15,0,13,3,0,3,1,4,3,0,1,0,0,0,4,0,0,0,0,0,0,0,0,0,0,0,0,0,0,0,0,0,0,0,0,0],"split_type":[0,0,0,0,0,0,0,0,0,0,0,0,0,0,0,0,0,0,0,0,0,0,0,0,0,0,0,0,0,0,0,0,0,0,0,0,0,0,0,0,0,0,0,0,0,0,0,0,0],"sum_hessian":[5.043E3,3.177E3,1.866E3,2.942E3,2.35E2,1.184E3,6.82E2,2.372E3,5.7E2,1.68E2,6.7E1,1.027E3,1.57E2,6.8E2,2E0,1.739E3,6.33E2,2.85E2,2.85E2,9.2E1,7.6E1,4.4E1,2.3E1,9.86E2,4.1E1,1.55E2,2E0,1.38E2,5.42E2,1.736E3,3E0,6.03E2,3E1,1.6E1,2.69E2,1.6E1,2.69E2,1.5E1,7.7E1,2E1,5.6E1,1.9E1,2.5E1,1.6E1,7E0,6.55E2,3.31E2,1.29E2,9E0],"tree_param":{"num_deleted":"0","num_feature":"16","num_nodes":"49","size_leaf_vector":"1"}},{"base_weights":[-4.8366995E-3,4.819563E-1,-7.995077E-1,4.0281624E-1,5.418438E-1,-6.8597144E-1,-1.4218979E0,5.321136E-1,2.9970837E-1,5.9446937E-1,4.5643395E-1,-6.268691E-3,-5.1638174E-1,-7.124407E-3,-0E0,5.682019E-1,3.0247557E-1,3.1231344E-1,-0E0,6.6346395E-1,5.4474926E-1,4.612193E-1,-1.1112939E-3,-7.5622624E-1,-4.4342968E-1,5.2771616E-1,8.229834E-1,-6.250076E-2,2.3673305E-3,1.0973178E-3,1.7721874E-3,2.3221718E-3,-3.3010464E-4,3.1041454E-3,4.334784E-3,1.9780172E-3,2.863151E-3,1.6114686E-3,2.4972348E-3,-2.7608234E-3,-5.7911095E-3,-1.292386E-3,-2.438348E-3,2.073323E-3,3.1216093E-3,4.326438E-3,-0E0,1.1184753E-3,-1.5028071E-3],"categories":[],"categories_nodes":[],"categories_segments":[],"categories_sizes":[],"default_left":[0,0,0,0,0,0,0,0,0,0,0,0,0,0,0,0,0,0,0,0,0,0,0,0,0,0,0,0,0,0,0,0,0,0,0,0,0,0,0,0,0,0,0,0,0,0,0,0,0],"id":14,"left_children":[1,3,5,7,9,11,13,15,17,19,21,-1,23,-1,-1,25,27,29,31,33,35,37,-1,39,41,43,45,47,-1,-1,-1,-1,-1,-1,-1,-1,-1,-1,-1,-1,-1,-1,-1,-1,-1,-1,-1,-1,-1],"loss_changes":[1.9524692E3,1.297168E1,1.3042065E2,1.6644241E1,5.8096924E0,1.5280591E2,4.4989014E-1,3.2977295E0,2.8266678E0,1.1490784E0,2.8109436E0,0E0,1.9558777E1,0E0,0E0,2.3453827E0,6.3547153E0,1.87397E0,1.213618E0,4.051361E-1,7.891846E-1,2.1098938E0,0E0,1.961647E1,6.606415E0,2.8274612E0,2.110508E0,2.157463E0,0E0,0E0,0E0,0E0,0E0,0E0,0E0,0E0,0E0,0E0,0E0,0E0,0E0,0E0,0E0,0E0,0E0,0E0,0E0,0E0,0E0],"parents":[2147483647,0,0,1,1,2,2,3,3,4,4,5,5,6,6,7,7,8,8,9,9,10,10,12,12,15,15,16,16,17,17,18,18,19,19,20,20,21,21,23,23,24,24,25,25,26,26,27,27],"right_children":[2,4,6,8,10,12,14,16,18,20,22,-1,24,-1,-1,26,28,30,32,34,36,38,-1,40,42,44,46,48,-1,-1,-1,-1,-1,-1,-1,-1,-1,-1,-1,-1,-1,-1,-1,-1,-1,-1,-1,-1,-1],"split_conditions":[2E0,4E0,4E0,2E0,2.4601083E-1,3E0,8.21E2,1.1931034E0,7.61E2,5E0,2E0,-6.268691E-3,4E0,-7.124407E-3,-0E0,7.2615916E-1,1.460186E0,-4.46003E-1,2E0,1.6E1,5E0,2E0,-1.1112939E-3,2E0,3E0,2.98E2,4.93E2,2E0,2.3673305E-3,1.0973178E-3,1.7721874E-3,2.3221718E-3,-3.3010464E-4,3.1041454E-3,4.334784E-3,1.9780172E-3,2.863151E-3,1.6114686E-3,2.4972348E-3,-2.7608234E-3,-5.7911095E-3,-1.292386E-3,-2.438348E-3,2.073323E-3,3.1216093E-3,4.326438E-3,-0E0,1.1184753E-3,-1.5028071E-3],"split_indices":[11,5,11,5,14,11,0,14,0,2,13,0,5,0,0,14,14,14,3,3,3,2,0,5,3,0,0,6,0,0,0,0,0,0,0,0,0,0,0,0,0,0,0,0,0,0,0,0,0],"split_type":[0,0,0,0,0,0,0,0,0,0,0,0,0,0,0,0,0,0,0,0,0,0,0,0,0,0,0,0,0,0,0,0,0,0,0,0,0,0,0,0,0,0,0,0,0,0,0,0,0],"sum_hessian":[5.042E3,3.126E3,1.916E3,1.364E3,1.762E3,1.626E3,2.9E2,5.95E2,7.69E2,1.072E3,6.9E2,3.69E2,1.257E3,2.89E2,1E0,5.06E2,8.9E1,7.37E2,3.2E1,4.26E2,6.46E2,6.88E2,2E0,2.84E2,9.73E2,4.47E2,5.9E1,2.6E1,6.3E1,2.45E2,4.92E2,3E0,2.9E1,3.65E2,6.1E1,1.15E2,5.31E2,1.61E2,5.27E2,1.94E2,9E1,1.97E2,7.76E2,2.18E2,2.29E2,5.6E1,3E0,9E0,1.7E1],"tree_param":{"num_deleted":"0","num_feature":"16","num_nodes":"49","size_leaf_vector":"1"}},{"base_weights":[-1.0346795E-2,4.8380086E-1,-8.119916E-1,5.1123863E-1,1.3906227E-1,-5.9172577E-1,-1.2046791E0,5.3612155E-1,4.0042976E-1,2.336914E-1,-7.397537E-2,-4.5309493E-1,-1.4120061E0,-1.2085106E0,-0E0,5.384877E-1,-8.59288E-2,2.912294E-1,5.0627935E-1,2.7145922E-1,-1.3718534E-1,-3.264682E-1,1.8360834E-1,-4.1148585E-1,-6.427142E-3,-1.4179932E0,-0E0,-5.761856E-3,-7.097324E-3,1.9945628E-3,2.7612578E-3,-0E0,-8.7294594E-4,1.7356927E-3,-2.406863E-4,2.6962438E-3,-2.4999073E-4,4.613774E-4,2.2731086E-3,-1.6281934E-3,-0E0,-2.6523184E-3,-1.9690048E-4,1.5988117E-3,-1.3148992E-3,-1.48354E-3,-2.6287015E-3,-7.115239E-3,-0E0],"categories":[],"categories_nodes":[],"categories_segments":[],"categories_sizes":[],"default_left":[0,0,0,0,0,0,0,0,0,0,0,0,0,0,0,0,0,0,0,0,0,0,0,0,0,0,0,0,0,0,0,0,0,0,0,0,0,0,0,0,0,0,0,0,0,0,0,0,0],"id":15,"left_children":[1,3,5,7,9,11,13,15,17,19,21,23,25,27,-1,29,31,33,35,37,39,41,43,45,-1,47,-1,-1,-1,-1,-1,-1,-1,-1,-1,-1,-1,-1,-1,-1,-1,-1,-1,-1,-1,-1,-1,-1,-1],"loss_changes":[1.9573721E3,2.7779236E1,1.5892395E2,5.955078E0,4.9511676E0,1.3397421E2,4.762268E0,4.1418457E0,4.7159348E0,2.6010885E0,4.7567616E0,3.25186E1,9.205322E-1,8.291626E-1,0E0,2.5205078E0,9.3336865E-2,5.7186623E0,5.6112595E0,4.1828127E0,8.1574786E-1,1.3289123E0,2.1991086E0,1.1541992E1,0E0,4.4491577E-1,0E0,0E0,0E0,0E0,0E0,0E0,0E0,0E0,0E0,0E0,0E0,0E0,0E0,0E0,0E0,0E0,0E0,0E0,0E0,0E0,0E0,0E0,0E0],"parents":[2147483647,0,0,1,1,2,2,3,3,4,4,5,5,6,6,7,7,8,8,9,9,10,10,11,11,12,12,13,13,15,15,16,16,17,17,18,18,19,19,20,20,21,21,22,22,23,23,25,25],"right_children":[2,4,6,8,10,12,14,16,18,20,22,24,26,28,-1,30,32,34,36,38,40,42,44,46,-1,48,-1,-1,-1,-1,-1,-1,-1,-1,-1,-1,-1,-1,-1,-1,-1,-1,-1,-1,-1,-1,-1,-1,-1],"split_conditions":[2E0,1.6772496E0,3.188709E-1,9.980602E-1,2.0168443E0,4E0,2.6E1,1.45E2,6E0,1.25E2,2E0,4E0,1.41E2,4E0,-0E0,1.3E1,-2.0723764E-2,2E1,7.61E2,6.4E1,1.9E1,6E0,5.16E2,-6.999131E-1,-6.427142E-3,8.15E2,-0E0,-5.761856E-3,-7.097324E-3,1.9945628E-3,2.7612578E-3,-0E0,-8.7294594E-4,1.7356927E-3,-2.406863E-4,2.6962438E-3,-2.4999073E-4,4.613774E-4,2.2731086E-3,-1.6281934E-3,-0E0,-2.6523184E-3,-1.9690048E-4,1.5988117E-3,-1.3148992E-3,-1.48354E-3,-2.6287015E-3,-7.115239E-3,-0E0],"split_indices":[11,15,15,15,15,11,1,4,2,4,12,6,4,11,0,4,15,3,0,4,1,3,0,15,0,0,0,0,0,0,0,0,0,0,0,0,0,0,0,0,0,0,0,0,0,0,0,0,0],"split_type":[0,0,0,0,0,0,0,0,0,0,0,0,0,0,0,0,0,0,0,0,0,0,0,0,0,0,0,0,0,0,0,0,0,0,0,0,0,0,0,0,0,0,0,0,0,0,0,0,0],"sum_hessian":[4.936E3,3.053E3,1.883E3,2.823E3,2.3E2,1.212E3,6.71E2,2.288E3,5.35E2,1.64E2,6.6E1,1.041E3,1.71E2,6.7E2,1E0,2.282E3,6E0,2.74E2,2.61E2,1.53E2,1.1E1,3.6E1,3E1,9.96E2,4.5E1,1.7E2,1E0,5.45E2,1.25E2,2.2E2,2.062E3,3E0,3E0,2.39E2,3.5E1,2.49E2,1.2E1,8.3E1,7E1,8E0,3E0,1.7E1,1.9E1,2.6E1,4E0,5.07E2,4.89E2,1.69E2,1E0],"tree_param":{"num_deleted":"0","num_feature":"16","num_nodes":"49","size_leaf_vector":"1"}},{"base_weights":[1.2260819E-3,4.7884858E-1,-7.806013E-1,5.1201403E-1,8.246718E-2,-5.5093E-1,-1.1744038E0,5.326515E-1,4.241941E-1,1.9294916E-1,-1.5457703E-1,-4.1496146E-1,-1.3763435E0,-1.1891334E0,3.3170937E-3,3.6652312E-1,5.476758E-1,-5.4372535E-3,4.3458262E-1,2.8012446E-1,-0E0,-3.0270776E-1,4.954119E-2,-6.2551405E-3,-3.7835282E-1,-1.3894037E0,-0E0,-4.9359845E-3,-6.177441E-3,1.8811839E-3,-1.9178033E-4,3.199911E-3,2.5724997E-3,-1.763827E-3,1.6096416E-3,2.2439247E-3,9.0452006E-5,6.9277175E-4,2.906264E-3,-1.5047172E-3,1.4132289E-3,-2.6367977E-3,-0E0,1.2683291E-3,-1.8110123E-3,-1.3127539E-3,-2.4690235E-3,-6.9723446E-3,-0E0],"categories":[],"categories_nodes":[],"categories_segments":[],"categories_sizes":[],"default_left":[0,0,0,0,0,0,0,0,0,0,0,0,0,0,0,0,0,0,0,0,0,0,0,0,0,0,0,0,0,0,0,0,0,0,0,0,0,0,0,0,0,0,0,0,0,0,0,0,0],"id":16,"left_children":[1,3,5,7,9,11,13,15,17,19,21,23,25,27,-1,29,31,33,35,37,39,41,43,-1,45,47,-1,-1,-1,-1,-1,-1,-1,-1,-1,-1,-1,-1,-1,-1,-1,-1,-1,-1,-1,-1,-1,-1,-1],"loss_changes":[1.8696273E3,3.9908325E1,1.6778271E2,3.307129E0,6.559731E0,1.3140826E2,2.1180298E1,3.9655151E0,3.1880264E0,3.1326227E0,2.6774566E0,2.8410233E1,2.2075195E0,6.9488525E-1,0E0,1.3419209E0,4.0284424E0,1.6378253E0,2.5900192E0,3.9601736E0,4.692868E0,2.554366E0,2.4583156E0,0E0,1.1975739E1,3.961792E-1,0E0,0E0,0E0,0E0,0E0,0E0,0E0,0E0,0E0,0E0,0E0,0E0,0E0,0E0,0E0,0E0,0E0,0E0,0E0,0E0,0E0,0E0,0E0],"parents":[2147483647,0,0,1,1,2,2,3,3,4,4,5,5,6,6,7,7,8,8,9,9,10,10,11,11,12,12,13,13,15,15,16,16,17,17,18,18,19,19,20,20,21,21,22,22,24,24,25,25],"right_children":[2,4,6,8,10,12,14,16,18,20,22,24,26,28,-1,30,32,34,36,38,40,42,44,-1,46,48,-1,-1,-1,-1,-1,-1,-1,-1,-1,-1,-1,-1,-1,-1,-1,-1,-1,-1,-1,-1,-1,-1,-1],"split_conditions":[2E0,1.6772496E0,3.188709E-1,9.980602E-1,2.0168443E0,4E0,2.6E1,1E1,-1.9182578E0,3.828531E-1,2E0,3E0,1.41E2,6.5846556E-1,3.3170937E-3,2E0,3.1E1,1.7E1,2.4E1,1.2357299E-1,8E0,5.4E1,8.7E1,-6.2551405E-3,-6.999131E-1,2E0,-0E0,-4.9359845E-3,-6.177441E-3,1.8811839E-3,-1.9178033E-4,3.199911E-3,2.5724997E-3,-1.763827E-3,1.6096416E-3,2.2439247E-3,9.0452006E-5,6.9277175E-4,2.906264E-3,-1.5047172E-3,1.4132289E-3,-2.6367977E-3,-0E0,1.2683291E-3,-1.8110123E-3,-1.3127539E-3,-2.4690235E-3,-6.9723446E-3,-0E0],"split_indices":[11,15,15,15,15,11,1,4,14,14,12,11,4,15,0,13,4,3,3,14,3,4,4,0,15,13,0,0,0,0,0,0,0,0,0,0,0,0,0,0,0,0,0,0,0,0,0,0,0],"split_type":[0,0,0,0,0,0,0,0,0,0,0,0,0,0,0,0,0,0,0,0,0,0,0,0,0,0,0,0,0,0,0,0,0,0,0,0,0,0,0,0,0,0,0,0,0,0,0,0,0],"sum_hessian":[5.004E3,3.108E3,1.896E3,2.864E3,2.44E2,1.203E3,6.93E2,2.297E3,5.67E2,1.71E2,7.3E1,1.037E3,1.66E2,6.89E2,4E0,2.03E2,2.094E3,1E1,5.57E2,1.2E2,5.1E1,4.6E1,2.7E1,3.9E1,9.98E2,1.64E2,2E0,1.43E2,5.46E2,2.02E2,1E0,5.32E2,1.562E3,7E0,3E0,5.35E2,2.2E1,8.7E1,3.3E1,2.6E1,2.5E1,2.3E1,2.3E1,2.1E1,6E0,5.08E2,4.9E2,1.63E2,1E0],"tree_param":{"num_deleted":"0","num_feature":"16","num_nodes":"49","size_leaf_vector":"1"}},{"base_weights":[-5.4153698E-3,4.7907785E-1,-7.8679305E-1,5.107781E-1,8.5437536E-2,-5.3170353E-1,-1.0957268E0,5.355588E-1,4.0136382E-1,5.675822E-1,1.054247E-2,-4.0316167E-1,-1.370074E0,-1.0222152E0,-6.980532E-3,4.957664E-1,6.449971E-1,-2.972143E-1,4.1697207E-1,3.075482E-2,7.679382E-1,1.0468353E-1,-2.558037E-1,-3.669302E-1,-6.0372334E-3,-6.8801665E-3,-0E0,-6.780654E-1,-5.566921E-3,2.5126627E-3,3.1130176E-4,3.3122154E-3,4.2633753E-4,-0E0,-1.977544E-3,2.4858702E-3,1.654432E-3,1.5647198E-3,-5.2874483E-4,-0E0,4.406402E-3,-0E0,2.3091014E-3,-0E0,-1.5244894E-3,-1.4560202E-3,-2.3455436E-3,-2.1019476E-3,-4.03341E-3],"categories":[],"categories_nodes":[],"categories_segments":[],"categories_sizes":[],"default_left":[0,0,0,0,0,0,0,0,0,0,0,0,0,0,0,0,0,0,0,0,0,0,0,0,0,0,0,0,0,0,0,0,0,0,0,0,0,0,0,0,0,0,0,0,0,0,0,0,0],"id":17,"left_children":[1,3,5,7,9,11,13,15,17,19,21,23,25,27,-1,29,31,33,35,37,39,41,43,45,-1,-1,-1,47,-1,-1,-1,-1,-1,-1,-1,-1,-1,-1,-1,-1,-1,-1,-1,-1,-1,-1,-1,-1,-1],"loss_changes":[1.894455E3,3.753955E1,1.4738562E2,5.9002686E0,7.642866E0,1.1003598E2,1.2552368E1,7.704529E0,6.3808517E0,1.8738661E0,5.067366E0,2.3561554E1,3.6489868E-1,1.789154E1,0E0,4.1118164E0,4.614731E0,4.3614507E-1,2.136467E0,8.392181E-1,4.4497395E-1,6.56446E0,7.531469E-1,5.434082E0,0E0,0E0,0E0,2.6512146E0,0E0,0E0,0E0,0E0,0E0,0E0,0E0,0E0,0E0,0E0,0E0,0E0,0E0,0E0,0E0,0E0,0E0,0E0,0E0,0E0,0E0],"parents":[2147483647,0,0,1,1,2,2,3,3,4,4,5,5,6,6,7,7,8,8,9,9,10,10,11,11,12,12,13,13,15,15,16,16,17,17,18,18,19,19,20,20,21,21,22,22,23,23,27,27],"right_children":[2,4,6,8,10,12,14,16,18,20,22,24,26,28,-1,30,32,34,36,38,40,42,44,46,-1,-1,-1,48,-1,-1,-1,-1,-1,-1,-1,-1,-1,-1,-1,-1,-1,-1,-1,-1,-1,-1,-1,-1,-1],"split_conditions":[2E0,1.6772496E0,-2.0723764E-2,9.980602E-1,8.8E1,4E0,4E0,5.1E2,-1.9182578E0,3.5E1,4.8428443E-1,4E0,8.21E2,3.188709E-1,-6.980532E-3,4.97E2,2.4E1,-2.3293848E0,3.63E2,2.2E1,-3.2416534E-1,1.2357299E-1,2E0,-6.999131E-1,-6.0372334E-3,-6.8801665E-3,-0E0,2E0,-5.566921E-3,2.5126627E-3,3.1130176E-4,3.3122154E-3,4.2633753E-4,-0E0,-1.977544E-3,2.4858702E-3,1.654432E-3,1.5647198E-3,-5.2874483E-4,-0E0,4.406402E-3,-0E0,2.3091014E-3,-0E0,-1.5244894E-3,-1.4560202E-3,-2.3455436E-3,-2.1019476E-3,-4.03341E-3],"split_indices":[11,15,15,15,0,11,11,0,14,0,14,6,0,15,0,0,3,14,0,0,14,14,6,15,0,0,0,6,0,0,0,0,0,0,0,0,0,0,0,0,0,0,0,0,0,0,0,0,0],"split_type":[0,0,0,0,0,0,0,0,0,0,0,0,0,0,0,0,0,0,0,0,0,0,0,0,0,0,0,0,0,0,0,0,0,0,0,0,0,0,0,0,0,0,0,0,0,0,0,0,0],"sum_hessian":[4.999E3,3.085E3,1.914E3,2.851E3,2.34E2,1.054E3,8.6E2,2.307E3,5.44E2,2.7E1,2.07E2,9.18E2,1.36E2,7.02E2,1.58E2,1.71E3,5.97E2,9E0,5.35E2,1E1,1.7E1,1.58E2,4.9E1,8.83E2,3.5E1,1.35E2,1E0,1.54E2,5.48E2,1.68E3,3E1,5.76E2,2.1E1,2E0,7E0,2.63E2,2.72E2,6E0,4E0,4E0,1.3E1,1.21E2,3.7E1,7E0,4.2E1,5.2E2,3.63E2,5.8E1,9.6E1],"tree_param":{"num_deleted":"0","num_feature":"16","num_nodes":"49","size_leaf_vector":"1"}},{"base_weights":[6.5732156E-3,4.7582495E-1,-7.8286403E-1,5.0718606E-1,1.0418027E-1,-5.602964E-1,-1.1709626E0,5.269353E-1,4.205366E-1,2.074621E-1,-1.4528762E-1,-4.255768E-1,-1.3434877E0,-1.178443E0,1.5559449E-3,4.8869613E-1,6.271071E-1,-1.16543E-1,4.352984E-1,6.02368E-1,1.399912E-1,-2.4467322E-1,7.352282E-2,-3.9048186E-1,-6.2988107E-3,-6.740266E-3,-0E0,-1.1249787E0,-6.95033E-3,2.4615312E-3,-3.9450394E-4,5.9120514E-4,3.1916574E-3,1.5401878E-4,-1.4934639E-3,2.2180383E-3,-0E0,-7.132707E-7,4.265406E-3,1.272197E-3,-6.477964E-4,-0E0,-2.5669858E-3,1.5261687E-3,-4.2548415E-4,-1.521363E-3,-2.7019202E-3,-4.262378E-3,-5.8624237E-3],"categories":[],"categories_nodes":[],"categories_segments":[],"categories_sizes":[],"default_left":[0,0,0,0,0,0,0,0,0,0,0,0,0,0,0,0,0,0,0,0,0,0,0,0,0,0,0,0,0,0,0,0,0,0,0,0,0,0,0,0,0,0,0,0,0,0,0,0,0],"id":18,"left_children":[1,3,5,7,9,11,13,15,17,19,21,23,25,27,-1,29,31,33,35,37,39,41,43,45,-1,-1,-1,47,-1,-1,-1,-1,-1,-1,-1,-1,-1,-1,-1,-1,-1,-1,-1,-1,-1,-1,-1,-1,-1],"loss_changes":[1.8717716E3,3.5935974E1,1.5874109E2,3.1325073E0,6.672217E0,1.2313284E2,9.595642E0,6.737976E0,5.0669937E0,3.6204276E0,1.8367128E0,2.6724045E1,3.2092285E-1,7.9351807E-1,0E0,4.232483E0,2.329712E0,7.9598385E-1,2.4716034E0,4.753971E0,5.2817307E0,3.6202834E0,1.0804784E0,1.1249588E1,0E0,0E0,0E0,2.2001343E0,0E0,0E0,0E0,0E0,0E0,0E0,0E0,0E0,0E0,0E0,0E0,0E0,0E0,0E0,0E0,0E0,0E0,0E0,0E0,0E0,0E0],"parents":[2147483647,0,0,1,1,2,2,3,3,4,4,5,5,6,6,7,7,8,8,9,9,10,10,11,11,12,12,13,13,15,15,16,16,17,17,18,18,19,19,20,20,21,21,22,22,23,23,27,27],"right_children":[2,4,6,8,10,12,14,16,18,20,22,24,26,28,-1,30,32,34,36,38,40,42,44,46,-1,-1,-1,48,-1,-1,-1,-1,-1,-1,-1,-1,-1,-1,-1,-1,-1,-1,-1,-1,-1,-1,-1,-1,-1],"split_conditions":[2E0,1.6772496E0,3.188709E-1,9.980602E-1,2.0168443E0,4E0,2.5E1,5.1E2,-1.8750445E0,6.9E1,1.6E1,4E0,8.21E2,4E0,1.5559449E-3,3E0,4E0,-2.3293848E0,1.7260681E0,-3.787689E-2,3.828531E-1,5E0,7.5E1,9E0,-6.2988107E-3,-6.740266E-3,-0E0,6.5846556E-1,-6.95033E-3,2.4615312E-3,-3.9450394E-4,5.9120514E-4,3.1916574E-3,1.5401878E-4,-1.4934639E-3,2.2180383E-3,-0E0,-7.132707E-7,4.265406E-3,1.272197E-3,-6.477964E-4,-0E0,-2.5669858E-3,1.5261687E-3,-4.2548415E-4,-1.521363E-3,-2.7019202E-3,-4.262378E-3,-5.8624237E-3],"split_indices":[11,15,15,15,15,11,1,0,14,0,1,6,0,11,0,7,4,14,14,14,14,1,4,1,0,0,0,15,0,0,0,0,0,0,0,0,0,0,0,0,0,0,0,0,0,0,0,0,0],"split_type":[0,0,0,0,0,0,0,0,0,0,0,0,0,0,0,0,0,0,0,0,0,0,0,0,0,0,0,0,0,0,0,0,0,0,0,0,0,0,0,0,0,0,0,0,0,0,0,0,0],"sum_hessian":[5.05E3,3.169E3,1.881E3,2.918E3,2.51E2,1.201E3,6.8E2,2.354E3,5.64E2,1.82E2,6.9E1,1.029E3,1.72E2,6.78E2,2E0,1.723E3,6.31E2,1.2E1,5.52E2,2.1E1,1.61E2,5.2E1,1.7E1,9.92E2,3.7E1,1.71E2,1E0,5.57E2,1.21E2,1.715E3,8E0,1.7E1,6.14E2,3E0,9E0,5.44E2,8E0,5E0,1.6E1,1.17E2,4.4E1,2.8E1,2.4E1,1E1,7E0,6.4E2,3.52E2,9.3E1,4.64E2],"tree_param":{"num_deleted":"0","num_feature":"16","num_nodes":"49","size_leaf_vector":"1"}},{"base_weights":[6.2482613E-3,9.4103195E-2,-6.0430914E-3,1.0468758E-1,-3.8727707E-1,1.0808139E-1,-2.5764215E-1,-5.7612425E-1,-0E0,1.8002126E-1,9.200123E-2,-4.364263E-1,1.404314E-1,-7.873645E-1,-1.9330153E-1,1.8133712E-1,-4.5195505E-1,7.5957015E-2,2.2890376E-1,-4.770364E-2,1.0162392E-1,-5.6187373E-1,5.7780213E-4,1.3435511E-3,-0E0,-9.2635393E-1,-0E0,-0E0,-3.7299388E-3,1.7276193E-3,-1.7322837E-3,-3.243393E-3,-0E0,-9.572216E-4,8.897104E-4,1.3432471E-3,-0E0,1.1966244E-3,-5.9838255E-4,8.912561E-4,3.574322E-4,-3.1514743E-3,-0E0,-5.3370707E-3,-0E0,5.3401233E-4,-0E0,-8.9575915E-4,5.289468E-4],"categories":[],"categories_nodes":[],"categories_segments":[],"categories_sizes":[],"default_left":[0,0,0,0,0,0,0,0,0,0,0,0,0,0,0,0,0,0,0,0,0,0,0,0,0,0,0,0,0,0,0,0,0,0,0,0,0,0,0,0,0,0,0,0,0,0,0,0,0],"id":19,"left_children":[1,3,-1,5,7,9,11,13,15,17,19,21,23,25,27,29,31,33,35,37,39,41,-1,-1,-1,43,45,47,-1,-1,-1,-1,-1,-1,-1,-1,-1,-1,-1,-1,-1,-1,-1,-1,-1,-1,-1,-1,-1],"loss_changes":[5.334965E2,2.3487053E1,0E0,5.464512E0,7.5401955E0,4.815361E0,3.3421688E0,3.6427288E0,2.6933322E0,3.6334267E0,5.1116695E0,2.8766913E0,4.329159E-1,5.2368927E0,2.8118856E0,2.4910948E0,6.863333E-1,7.4655747E0,4.5639305E0,4.6705284E0,7.694195E0,6.132889E-1,0E0,0E0,0E0,4.1465816E0,4.5627065E-2,5.2092E-1,0E0,0E0,0E0,0E0,0E0,0E0,0E0,0E0,0E0,0E0,0E0,0E0,0E0,0E0,0E0,0E0,0E0,0E0,0E0,0E0,0E0],"parents":[2147483647,0,0,1,1,3,3,4,4,5,5,6,6,7,7,8,8,9,9,10,10,11,11,12,12,13,13,14,14,15,15,16,16,17,17,18,18,19,19,20,20,21,21,25,25,26,26,27,27],"right_children":[2,4,-1,6,8,10,12,14,16,18,20,22,24,26,28,30,32,34,36,38,40,42,-1,-1,-1,44,46,48,-1,-1,-1,-1,-1,-1,-1,-1,-1,-1,-1,-1,-1,-1,-1,-1,-1,-1,-1,-1,-1],"split_conditions":[4E0,2.0168443E0,-6.0430914E-3,2.3754687E0,2E0,2E0,3.188709E-1,8E0,9.1E1,3E0,6E0,2E0,1.4E1,1.12E2,1.09E2,5.1E2,1.22E2,-2.0723764E-2,1.1276833E0,5E1,3E1,1.24E2,5.7780213E-4,1.3435511E-3,-0E0,8.64802E-1,2.2E1,2E0,-3.7299388E-3,1.7276193E-3,-1.7322837E-3,-3.243393E-3,-0E0,-9.572216E-4,8.897104E-4,1.3432471E-3,-0E0,1.1966244E-3,-5.9838255E-4,8.912561E-4,3.574322E-4,-3.1514743E-3,-0E0,-5.3370707E-3,-0E0,5.3401233E-4,-0E0,-8.9575915E-4,5.289468E-4],"split_indices":[6,15,0,14,12,5,15,1,4,2,4,10,1,4,4,0,4,15,14,0,4,4,0,0,0,14,0,7,0,0,0,0,0,0,0,0,0,0,0,0,0,0,0,0,0,0,0,0,0],"split_type":[0,0,0,0,0,0,0,0,0,0,0,0,0,0,0,0,0,0,0,0,0,0,0,0,0,0,0,0,0,0,0,0,0,0,0,0,0,0,0,0,0,0,0,0,0,0,0,0,0],"sum_hessian":[5.01E3,4.675E3,3.35E2,4.579E3,9.6E1,4.542E3,3.7E1,6.5E1,3.1E1,8.09E2,3.733E3,2.8E1,9E0,3.8E1,2.7E1,2.4E1,7E0,2.7E2,5.39E2,2.3E2,3.503E3,2.5E1,3E0,7E0,2E0,3.3E1,5E0,2.2E1,5E0,2.1E1,3E0,4E0,3E0,7E1,2E2,4.54E2,8.5E1,4.1E1,1.89E2,9.72E2,2.531E3,2.1E1,4E0,2.8E1,5E0,2E0,3E0,9E0,1.3E1],"tree_param":{"num_deleted":"0","num_feature":"16","num_nodes":"49","size_leaf_vector":"1"}},{"base_weights":[-3.6419332E-3,4.6966365E-1,-7.779099E-1,4.8621878E-1,-1.4556058E-1,-5.6296074E-1,-1.1658291E0,5.226143E-1,3.620858E-1,-3.1836423E-1,1.5070097E-1,-4.257304E-1,-1.3601731E0,-1.1809005E0,3.3164409E-3,4.878643E-1,6.1753416E-1,4.6102902E-1,2.6621503E-1,-6.7865884E-1,-0E0,3.1202134E-1,-2.0812339E-1,-6.088986E-3,-3.8505575E-1,-6.8235104E-3,-0E0,-1.1271389E0,-6.9756657E-3,2.459591E-3,-2.5432016E-4,-0E0,3.1043983E-3,2.3773194E-3,-1.9381596E-3,-8.7826484E-5,1.6632822E-3,-3.7571979E-3,-0E0,-8.912342E-4,4.2229693E-4,-0E0,2.1002006E-3,-0E0,-1.1695706E-3,-1.2906885E-3,-2.5549363E-3,-4.354959E-3,-5.875392E-3],"categories":[],"categories_nodes":[],"categories_segments":[],"categories_sizes":[],"default_left":[0,0,0,0,0,0,0,0,0,0,0,0,0,0,0,0,0,0,0,0,0,0,0,0,0,0,0,0,0,0,0,0,0,0,0,0,0,0,0,0,0,0,0,0,0,0,0,0,0],"id":20,"left_children":[1,3,5,7,9,11,13,15,17,19,21,23,25,27,-1,29,31,33,35,37,39,41,43,-1,45,-1,-1,47,-1,-1,-1,-1,-1,-1,-1,-1,-1,-1,-1,-1,-1,-1,-1,-1,-1,-1,-1,-1,-1],"loss_changes":[1.8452467E3,3.2460693E1,1.5543884E2,1.2046875E1,4.4942517E0,1.313836E2,2.1006042E1,5.4578247E0,5.3606186E0,5.939878E0,1.9065237E0,3.0775711E1,3.4658813E-1,8.2281494E-1,0E0,4.4986267E0,2.1335144E0,4.628708E0,7.4794426E0,9.0810585E-1,5.628363E-1,1.2894561E0,2.5087506E-2,0E0,1.4757278E1,0E0,0E0,1.6868286E0,0E0,0E0,0E0,0E0,0E0,0E0,0E0,0E0,0E0,0E0,0E0,0E0,0E0,0E0,0E0,0E0,0E0,0E0,0E0,0E0,0E0],"parents":[2147483647,0,0,1,1,2,2,3,3,4,4,5,5,6,6,7,7,8,8,9,9,10,10,11,11,12,12,13,13,15,15,16,16,17,17,18,18,19,19,20,20,21,21,22,22,24,24,27,27],"right_children":[2,4,6,8,10,12,14,16,18,20,22,24,26,28,-1,30,32,34,36,38,40,42,44,-1,46,-1,-1,48,-1,-1,-1,-1,-1,-1,-1,-1,-1,-1,-1,-1,-1,-1,-1,-1,-1,-1,-1,-1,-1],"split_conditions":[2E0,2.0168443E0,3.188709E-1,9.980602E-1,2E0,4E0,2.6E1,5.1E2,3.7E2,6E0,5.1E2,3E0,8.21E2,4E0,3.3164409E-3,5.04E2,2E0,1.7506757E0,4.43E2,4.9508777E-1,7E0,3E0,-9.345539E-1,-6.088986E-3,-6.999131E-1,-6.8235104E-3,-0E0,6.5846556E-1,-6.9756657E-3,2.459591E-3,-2.5432016E-4,-0E0,3.1043983E-3,2.3773194E-3,-1.9381596E-3,-8.7826484E-5,1.6632822E-3,-3.7571979E-3,-0E0,-8.912342E-4,4.2229693E-4,-0E0,2.1002006E-3,-0E0,-1.1695706E-3,-1.2906885E-3,-2.5549363E-3,-4.354959E-3,-5.875392E-3],"split_indices":[11,15,15,15,12,11,1,0,0,3,0,11,0,11,0,0,1,14,0,14,1,3,14,0,15,0,0,15,0,0,0,0,0,0,0,0,0,0,0,0,0,0,0,0,0,0,0,0,0],"split_type":[0,0,0,0,0,0,0,0,0,0,0,0,0,0,0,0,0,0,0,0,0,0,0,0,0,0,0,0,0,0,0,0,0,0,0,0,0,0,0,0,0,0,0,0,0,0,0,0,0],"sum_hessian":[5.03E3,3.121E3,1.909E3,3.042E3,7.9E1,1.234E3,6.75E2,2.338E3,7.04E2,5.3E1,2.6E1,1.057E3,1.77E2,6.71E2,4E0,1.732E3,6.06E2,3.35E2,3.69E2,2.3E1,3E1,2.1E1,5E0,4.7E1,1.01E3,1.76E2,1E0,5.52E2,1.19E2,1.722E3,1E1,1E0,6.05E2,3.32E2,3E0,6.6E1,3.03E2,2E1,3E0,1.1E1,1.9E1,3E0,1.8E1,1E0,4E0,5.12E2,4.98E2,9.8E1,4.54E2],"tree_param":{"num_deleted":"0","num_feature":"16","num_nodes":"49","size_leaf_vector":"1"}},{"base_weights":[-6.5284795E-3,4.6976107E-1,-7.823243E-1,3.836844E-1,5.3153944E-1,-6.7050505E-1,-1.3999077E0,4.919599E-1,2.9636467E-1,5.334964E-1,-1.1357196E-3,-5.9944484E-3,-5.1428944E-1,-7.014379E-3,-0E0,-0E0,5.0111705E-1,1.6506287E-1,3.6537093E-1,5.365572E-1,-0E0,-7.5804836E-1,-4.3482423E-1,-0E0,1.1263617E-4,5.34211E-1,2.9480267E-1,2.0015603E-1,-2.0808929E-1,2.7800605E-1,2.6539078E-3,2.5188348E-3,3.0992047E-3,-8.5172115E-4,3.008402E-4,-2.9270852E-3,-5.5031865E-3,-2.0150903E-3,-3.8253516E-3,2.458793E-3,4.183935E-3,-7.992328E-4,1.8481612E-3,3.3616752E-4,1.6524589E-3,-1.569795E-3,-0E0,1.5002406E-3,-4.158604E-4],"categories":[],"categories_nodes":[],"categories_segments":[],"categories_sizes":[],"default_left":[0,0,0,0,0,0,0,0,0,0,0,0,0,0,0,0,0,0,0,0,0,0,0,0,0,0,0,0,0,0,0,0,0,0,0,0,0,0,0,0,0,0,0,0,0,0,0,0,0],"id":21,"left_children":[1,3,5,7,9,11,13,15,17,19,-1,-1,21,-1,-1,23,25,27,29,31,33,35,37,-1,-1,39,41,43,45,47,-1,-1,-1,-1,-1,-1,-1,-1,-1,-1,-1,-1,-1,-1,-1,-1,-1,-1,-1],"loss_changes":[1.836158E3,1.4581726E1,1.25605225E2,1.0845245E1,3.338745E0,1.2884198E2,4.111328E-1,2.1791077E0,5.7342377E0,3.2192383E0,0E0,0E0,2.168692E1,0E0,0E0,5.0747627E-3,2.2582245E0,3.5285053E0,5.3126106E0,2.5101318E0,1.9944432E-1,1.3865585E1,7.5993805E0,0E0,0E0,3.259903E0,3.4267144E0,3.6208124E0,7.1110094E-1,2.9148216E0,0E0,0E0,0E0,0E0,0E0,0E0,0E0,0E0,0E0,0E0,0E0,0E0,0E0,0E0,0E0,0E0,0E0,0E0,0E0],"parents":[2147483647,0,0,1,1,2,2,3,3,4,4,5,5,6,6,7,7,8,8,9,9,12,12,15,15,16,16,17,17,18,18,19,19,20,20,21,21,22,22,25,25,26,26,27,27,28,28,29,29],"right_children":[2,4,6,8,10,12,14,16,18,20,-1,-1,22,-1,-1,24,26,28,30,32,34,36,38,-1,-1,40,42,44,46,48,-1,-1,-1,-1,-1,-1,-1,-1,-1,-1,-1,-1,-1,-1,-1,-1,-1,-1,-1],"split_conditions":[2E0,4E0,4E0,2E0,2E0,3E0,8.21E2,3E0,-4.243963E-1,1.45E2,-1.1357196E-3,-5.9944484E-3,4E0,-7.014379E-3,-0E0,-8.0611426E-1,1.1931034E0,1.25E2,8E0,5.1E2,1.059262E0,2E0,2E0,-0E0,1.1263617E-4,7.2615916E-1,1.2915338E0,6.8E1,1.38E2,1.6582471E0,2.6539078E-3,2.5188348E-3,3.0992047E-3,-8.5172115E-4,3.008402E-4,-2.9270852E-3,-5.5031865E-3,-2.0150903E-3,-3.8253516E-3,2.458793E-3,4.183935E-3,-7.992328E-4,1.8481612E-3,3.3616752E-4,1.6524589E-3,-1.569795E-3,-0E0,1.5002406E-3,-4.158604E-4],"split_indices":[11,5,11,5,13,11,0,4,14,4,0,0,5,0,0,14,14,4,2,0,14,5,10,0,0,14,14,4,4,14,0,0,0,0,0,0,0,0,0,0,0,0,0,0,0,0,0,0,0],"split_type":[0,0,0,0,0,0,0,0,0,0,0,0,0,0,0,0,0,0,0,0,0,0,0,0,0,0,0,0,0,0,0,0,0,0,0,0,0,0,0,0,0,0,0,0,0,0,0,0,0],"sum_hessian":[4.964E3,3.075E3,1.889E3,1.301E3,1.774E3,1.605E3,2.84E2,5.69E2,7.32E2,1.772E3,2E0,3.61E2,1.244E3,2.83E2,1E0,1.2E1,5.57E2,2.62E2,4.7E2,1.763E3,9E0,2.97E2,9.47E2,4E0,8E0,4.71E2,8.6E1,2.44E2,1.8E1,3.17E2,1.53E2,1.288E3,4.75E2,4E0,5E0,2.04E2,9.3E1,8.72E2,7.5E1,4.22E2,4.9E1,9E0,7.7E1,1.28E2,1.16E2,1.4E1,4E0,3.03E2,1.4E1],"tree_param":{"num_deleted":"0","num_feature":"16","num_nodes":"49","size_leaf_vector":"1"}},{"base_weights":[2.091546E-3,9.5977366E-2,-5.8804536E-3,1.0891793E-1,-4.6083352E-1,8.634356E-2,2.0532341E-1,-7.4777687E-1,-1.66514E-1,1.4520352E-1,3.778213E-2,1.9193042E-2,2.7820948E-1,-4.339497E-3,-0E0,2.4869593E-2,-3.708472E-1,1.069913E-2,1.7697498E-1,1.0895549E-1,4.419008E-3,1.1922277E-1,-1.3732402E-1,2.0724578E-1,3.7656388E-1,1.870698E-3,-6.816236E-4,-1.5750915E-2,1.115907E-3,-2.067726E-3,-0E0,2.3046185E-4,-1.9794893E-3,9.975156E-4,-0E0,7.5771153E-4,-8.4033184E-4,-2.0909829E-4,5.678027E-4,-2.6445588E-4,1.0732858E-3,-1.3465615E-3,7.004841E-5,2.481344E-4,1.4785859E-3,1.5226977E-3,3.0475762E-3,8.752429E-4,-1.5267971E-3],"categories":[],"categories_nodes":[],"categories_segments":[],"categories_sizes":[],"default_left":[0,0,0,0,0,0,0,0,0,0,0,0,0,0,0,0,0,0,0,0,0,0,0,0,0,0,0,0,0,0,0,0,0,0,0,0,0,0,0,0,0,0,0,0,0,0,0,0,0],"id":22,"left_children":[1,3,-1,5,7,9,11,13,15,17,19,21,23,-1,25,27,29,31,33,35,37,39,41,43,45,-1,-1,47,-1,-1,-1,-1,-1,-1,-1,-1,-1,-1,-1,-1,-1,-1,-1,-1,-1,-1,-1,-1,-1],"loss_changes":[5.5167865E2,3.2962547E1,0E0,9.392181E0,7.0781956E0,1.0258905E1,1.1020313E1,4.990385E0,2.727349E0,6.778637E0,4.6683397E0,3.8570564E0,3.169918E0,0E0,6.714284E-1,5.356755E-1,6.9621325E-1,4.2175746E0,5.173607E0,7.529349E0,7.2024775E0,2.8441732E0,2.2081585E0,4.5145817E0,2.3012123E0,0E0,0E0,1.2970005E0,0E0,0E0,0E0,0E0,0E0,0E0,0E0,0E0,0E0,0E0,0E0,0E0,0E0,0E0,0E0,0E0,0E0,0E0,0E0,0E0,0E0],"parents":[2147483647,0,0,1,1,3,3,4,4,5,5,6,6,7,7,8,8,9,9,10,10,11,11,12,12,14,14,15,15,16,16,17,17,18,18,19,19,20,20,21,21,22,22,23,23,24,24,27,27],"right_children":[2,4,-1,6,8,10,12,14,16,18,20,22,24,-1,26,28,30,32,34,36,38,40,42,44,46,-1,-1,48,-1,-1,-1,-1,-1,-1,-1,-1,-1,-1,-1,-1,-1,-1,-1,-1,-1,-1,-1,-1,-1],"split_conditions":[4E0,2.0168443E0,-5.8804536E-3,1.15E2,6E0,4.1E1,2E0,9E0,8E0,8E0,5E0,1.6E1,1.6E1,-4.339497E-3,1E1,8E0,1.32E2,8E0,1.337655E0,1.08E2,4.84E2,3E0,5.77E2,3.59E2,1E1,1.870698E-3,-6.816236E-4,4E0,1.115907E-3,-2.067726E-3,-0E0,2.3046185E-4,-1.9794893E-3,9.975156E-4,-0E0,7.5771153E-4,-8.4033184E-4,-2.0909829E-4,5.678027E-4,-2.6445588E-4,1.0732858E-3,-1.3465615E-3,7.004841E-5,2.481344E-4,1.4785859E-3,1.5226977E-3,3.0475762E-3,8.752429E-4,-1.5267971E-3],"split_indices":[6,15,0,4,3,4,2,1,2,4,1,3,1,0,1,1,4,3,15,4,0,5,0,0,5,0,0,1,0,0,0,0,0,0,0,0,0,0,0,0,0,0,0,0,0,0,0,0,0],"split_type":[0,0,0,0,0,0,0,0,0,0,0,0,0,0,0,0,0,0,0,0,0,0,0,0,0,0,0,0,0,0,0,0,0,0,0,0,0,0,0,0,0,0,0,0,0,0,0,0,0],"sum_hessian":[4.998E3,4.632E3,3.66E2,4.531E3,1.01E2,3.687E3,8.44E2,4.7E1,5.4E1,1.651E3,2.036E3,2.44E2,6E2,4.1E1,6E0,2.5E1,2.9E1,3.25E2,1.326E3,6.34E2,1.402E3,1.55E2,8.9E1,3.61E2,2.39E2,2E0,4E0,1.6E1,9E0,2.7E1,2E0,3.04E2,2.1E1,1.173E3,1.53E2,5.55E2,7.9E1,9.76E2,4.26E2,5E1,1.05E2,5.2E1,3.7E1,1.37E2,2.24E2,1.91E2,4.8E1,7E0,9E0],"tree_param":{"num_deleted":"0","num_feature":"16","num_nodes":"49","size_leaf_vector":"1"}},{"base_weights":[-1.0304743E-2,4.522067E-1,-7.6683575E-1,3.7611392E-1,5.0698334E-1,-6.561324E-1,-1.3763179E0,5.097998E-1,2.649812E-1,4.659315E-1,6.1217445E-1,-6.049171E-3,-5.0071114E-1,-1.3798723E0,-0E0,1.7649332E-1,5.3723E-1,2.736041E-1,-3.9413524E-1,4.8236233E-1,2.2820783E-1,6.1784935E-1,-0E0,-7.280559E-1,-4.257175E-1,-1.3827579E0,-0E0,-4.437764E-5,1.5963473E-3,2.4890522E-3,3.6075597E-3,7.8880065E-4,1.6768473E-3,-0E0,-2.4482773E-3,2.425739E-3,-1.1321178E-3,2.1918975E-3,1.4255512E-4,2.4012113E-3,3.358906E-3,-0E0,1.4207077E-4,-2.7298748E-3,-5.4403245E-3,-1.7600885E-3,-2.7604012E-3,-6.9264183E-3,-0E0],"categories":[],"categories_nodes":[],"categories_segments":[],"categories_sizes":[],"default_left":[0,0,0,0,0,0,0,0,0,0,0,0,0,0,0,0,0,0,0,0,0,0,0,0,0,0,0,0,0,0,0,0,0,0,0,0,0,0,0,0,0,0,0,0,0,0,0,0,0],"id":23,"left_children":[1,3,5,7,9,11,13,15,17,19,21,-1,23,25,-1,27,29,31,33,35,37,39,41,43,45,47,-1,-1,-1,-1,-1,-1,-1,-1,-1,-1,-1,-1,-1,-1,-1,-1,-1,-1,-1,-1,-1,-1,-1],"loss_changes":[1.7506869E3,1.1227661E1,1.23273926E2,1.8149002E1,5.529175E0,1.3503265E2,9.1741943E-1,4.133957E0,4.183819E0,3.807434E0,1.4767456E0,0E0,1.921698E1,3.7591553E-1,0E0,1.8475035E0,1.3753967E0,4.33482E0,4.355966E-1,3.0006409E0,3.219905E0,1.1889954E0,4.0368205E-3,1.6419373E1,7.2048645E0,8.0566406E-2,0E0,0E0,0E0,0E0,0E0,0E0,0E0,0E0,0E0,0E0,0E0,0E0,0E0,0E0,0E0,0E0,0E0,0E0,0E0,0E0,0E0,0E0,0E0],"parents":[2147483647,0,0,1,1,2,2,3,3,4,4,5,5,6,6,7,7,8,8,9,9,10,10,12,12,13,13,15,15,16,16,17,17,18,18,19,19,20,20,21,21,22,22,23,23,24,24,25,25],"right_children":[2,4,6,8,10,12,14,16,18,20,22,-1,24,26,-1,28,30,32,34,36,38,40,42,44,46,48,-1,-1,-1,-1,-1,-1,-1,-1,-1,-1,-1,-1,-1,-1,-1,-1,-1,-1,-1,-1,-1,-1,-1],"split_conditions":[2E0,4E0,4E0,2E0,5.1E2,3E0,1.44E2,1E1,1.7506757E0,4.62E2,1.45E2,-6.049171E-3,4E0,8.21E2,-0E0,1.98E2,6.04E2,-4.46003E-1,9E0,2E0,8.996261E-2,2E0,2.3E1,2E0,9E0,3E0,-0E0,-4.437764E-5,1.5963473E-3,2.4890522E-3,3.6075597E-3,7.8880065E-4,1.6768473E-3,-0E0,-2.4482773E-3,2.425739E-3,-1.1321178E-3,2.1918975E-3,1.4255512E-4,2.4012113E-3,3.358906E-3,-0E0,1.4207077E-4,-2.7298748E-3,-5.4403245E-3,-1.7600885E-3,-2.7604012E-3,-6.9264183E-3,-0E0],"split_indices":[11,5,11,5,0,11,4,4,14,0,4,0,5,0,0,0,0,14,4,13,14,6,1,5,1,10,0,0,0,0,0,0,0,0,0,0,0,0,0,0,0,0,0,0,0,0,0,0,0],"split_type":[0,0,0,0,0,0,0,0,0,0,0,0,0,0,0,0,0,0,0,0,0,0,0,0,0,0,0,0,0,0,0,0,0,0,0,0,0,0,0,0,0,0,0,0,0,0,0,0,0],"sum_hessian":[4.998E3,3.101E3,1.897E3,1.316E3,1.785E3,1.611E3,2.86E2,5.88E2,7.28E2,1.302E3,4.83E2,3.48E2,1.263E3,2.85E2,1E0,5E1,5.38E2,7.22E2,6E0,1.21E3,9.2E1,4.78E2,5E0,3.04E2,9.59E2,2.84E2,1E0,1.8E1,3.2E1,4.56E2,8.2E1,2.62E2,4.6E2,1E0,5E0,1.208E3,2E0,4E1,5.2E1,1.48E2,3.3E2,2E0,3E0,2.08E2,9.6E1,6.18E2,3.41E2,2.83E2,1E0],"tree_param":{"num_deleted":"0","num_feature":"16","num_nodes":"49","size_leaf_vector":"1"}},{"base_weights":[4.11007E-3,4.7176853E-1,-7.6217437E-1,5.086322E-1,4.9091075E-2,-5.396816E-1,-1.1543485E0,3.6761895E-1,5.1841795E-1,2.5236017E-1,-9.391671E-3,-4.001646E-1,-1.3286173E0,-1.1617477E0,1.5562049E-3,1.7707835E-1,4.740589E-1,6.4626384E-1,5.0492173E-1,4.0378717E-1,-6.1869413E-2,-2.6216766E-1,3.6077112E-2,-3.59062E-1,-6.1156075E-3,-6.6700983E-3,-0E0,-1.1051689E0,-6.912074E-3,1.9093178E-3,-5.6745246E-4,2.5284821E-3,-0E0,1.7761731E-3,3.4793222E-3,9.944843E-4,2.560618E-3,1.7965007E-4,3.022163E-3,-1.1307205E-3,1.4611634E-3,5.230063E-4,-1.6809503E-3,1.387805E-3,-1.5153017E-4,-1.1981699E-3,-2.3597814E-3,-4.30844E-3,-5.7528145E-3],"categories":[],"categories_nodes":[],"categories_segments":[],"categories_sizes":[],"default_left":[0,0,0,0,0,0,0,0,0,0,0,0,0,0,0,0,0,0,0,0,0,0,0,0,0,0,0,0,0,0,0,0,0,0,0,0,0,0,0,0,0,0,0,0,0,0,0,0,0],"id":24,"left_children":[1,3,5,7,9,11,13,15,17,19,21,23,25,27,-1,29,31,33,35,37,39,41,43,45,-1,-1,-1,47,-1,-1,-1,-1,-1,-1,-1,-1,-1,-1,-1,-1,-1,-1,-1,-1,-1,-1,-1,-1,-1],"loss_changes":[1.8010394E3,4.777423E1,1.6234827E2,2.2488403E0,3.4124532E0,1.3073892E2,9.427185E0,2.9724712E0,2.22406E0,3.5605593E0,2.5992682E0,3.1994751E1,8.239746E-1,1.7402954E0,0E0,5.309076E0,2.0535316E0,1.3501129E0,4.09198E0,2.3912292E0,1.1382707E0,1.367935E0,2.9846406E0,1.2148712E1,0E0,0E0,0E0,1.177185E0,0E0,0E0,0E0,0E0,0E0,0E0,0E0,0E0,0E0,0E0,0E0,0E0,0E0,0E0,0E0,0E0,0E0,0E0,0E0,0E0,0E0],"parents":[2147483647,0,0,1,1,2,2,3,3,4,4,5,5,6,6,7,7,8,8,9,9,10,10,11,11,12,12,13,13,15,15,16,16,17,17,18,18,19,19,20,20,21,21,22,22,23,23,27,27],"right_children":[2,4,6,8,10,12,14,16,18,20,22,24,26,28,-1,30,32,34,36,38,40,42,44,46,-1,-1,-1,48,-1,-1,-1,-1,-1,-1,-1,-1,-1,-1,-1,-1,-1,-1,-1,-1,-1,-1,-1,-1,-1],"split_conditions":[2E0,1.6772496E0,3.188709E-1,8E0,2E0,4E0,2.6E1,-2.0723764E-2,-1.4068999E0,7.2E1,3E0,4E0,1.41E2,4E0,1.5562049E-3,4E0,8E0,3.8E1,-1.300667E0,2.2E1,1.16E2,-1.6085622E0,5E0,-6.999131E-1,-6.1156075E-3,-6.6700983E-3,-0E0,6.5846556E-1,-6.912074E-3,1.9093178E-3,-5.6745246E-4,2.5284821E-3,-0E0,1.7761731E-3,3.4793222E-3,9.944843E-4,2.560618E-3,1.7965007E-4,3.022163E-3,-1.1307205E-3,1.4611634E-3,5.230063E-4,-1.6809503E-3,1.387805E-3,-1.5153017E-4,-1.1981699E-3,-2.3597814E-3,-4.30844E-3,-5.7528145E-3],"split_indices":[11,15,15,4,6,11,1,15,14,4,3,6,4,11,0,4,3,4,14,4,4,14,1,15,0,0,0,15,0,0,0,0,0,0,0,0,0,0,0,0,0,0,0,0,0,0,0,0,0],"split_type":[0,0,0,0,0,0,0,0,0,0,0,0,0,0,0,0,0,0,0,0,0,0,0,0,0,0,0,0,0,0,0,0,0,0,0,0,0,0,0,0,0,0,0,0,0,0,0,0,0],"sum_hessian":[5.023E3,3.121E3,1.902E3,2.867E3,2.54E2,1.219E3,6.83E2,2.01E2,2.666E3,6.1E1,1.93E2,1.04E3,1.79E2,6.81E2,2E0,7.9E1,1.22E2,2.35E2,2.431E3,4.4E1,1.7E1,3.3E1,1.6E2,9.95E2,4.5E1,1.78E2,1E0,5.57E2,1.24E2,4.9E1,3E1,1.15E2,7E0,4.1E1,1.94E2,6.2E1,2.369E3,1.9E1,2.5E1,1.5E1,2E0,2E0,3.1E1,3.8E1,1.22E2,4.93E2,5.02E2,9.9E1,4.58E2],"tree_param":{"num_deleted":"0","num_feature":"16","num_nodes":"49","size_leaf_vector":"1"}},{"base_weights":[-6.898046E-3,4.5773867E-1,-7.669476E-1,4.9410617E-1,4.374785E-2,-5.623891E-1,-1.1420239E0,6.5673447E-1,4.8217314E-1,1.3419838E-1,-1.5962367E-1,-4.2762068E-1,-1.3470336E0,-5.7674926E-3,2.6127773E-3,4.3861815E-1,7.812872E-1,-0E0,4.846773E-1,2.1119727E-1,-8.964441E-2,-5.0103396E-1,1.4933328E-2,-6.108102E-3,-3.8648283E-1,-1.3519386E0,-0E0,-0E0,2.6021805E-3,-0E0,3.998538E-3,-1.0523697E-3,7.398895E-4,2.4320218E-3,-0E0,3.1808598E-4,2.6572999E-3,-2.50073E-3,1.7872351E-3,-3.343663E-3,-0E0,7.335453E-4,-1.5931152E-3,-1.3233867E-3,-2.5035592E-3,-6.782665E-3,-0E0,9.789568E-4,-8.3582185E-4],"categories":[],"categories_nodes":[],"categories_segments":[],"categories_sizes":[],"default_left":[0,0,0,0,0,0,0,0,0,0,0,0,0,0,0,0,0,0,0,0,0,0,0,0,0,0,0,0,0,0,0,0,0,0,0,0,0,0,0,0,0,0,0,0,0,0,0,0,0],"id":25,"left_children":[1,3,5,7,9,11,13,15,17,19,21,23,25,-1,-1,27,29,31,33,35,37,39,41,-1,43,45,-1,47,-1,-1,-1,-1,-1,-1,-1,-1,-1,-1,-1,-1,-1,-1,-1,-1,-1,-1,-1,-1,-1],"loss_changes":[1.7520686E3,4.5476746E1,1.4063208E2,3.140625E0,4.67705E0,1.2572397E2,1.475824E1,2.3476562E0,3.1224365E0,3.3570817E0,5.1541862E0,3.0940155E1,5.155029E-1,0E0,0E0,2.8272295E0,2.4765854E0,5.5096704E-1,2.7614136E0,5.704045E0,8.463465E0,2.8094902E0,1.9454411E0,0E0,1.2542328E1,3.4994507E-1,0E0,4.8150092E-1,0E0,0E0,0E0,0E0,0E0,0E0,0E0,0E0,0E0,0E0,0E0,0E0,0E0,0E0,0E0,0E0,0E0,0E0,0E0,0E0,0E0],"parents":[2147483647,0,0,1,1,2,2,3,3,4,4,5,5,6,6,7,7,8,8,9,9,10,10,11,11,12,12,15,15,16,16,17,17,18,18,19,19,20,20,21,21,22,22,24,24,25,25,27,27],"right_children":[2,4,6,8,10,12,14,16,18,20,22,24,26,-1,-1,28,30,32,34,36,38,40,42,-1,44,46,-1,48,-1,-1,-1,-1,-1,-1,-1,-1,-1,-1,-1,-1,-1,-1,-1,-1,-1,-1,-1,-1,-1],"split_conditions":[2E0,1.6772496E0,3.188709E-1,-1.520335E0,2.0168443E0,4E0,2.5E1,6E0,-1.5023293E0,5.791137E-1,4.3E1,3E0,1.38E2,-5.7674926E-3,2.6127773E-3,-1.9794768E0,6E0,3E0,2E0,1.2357299E-1,8E0,2E0,1.21E2,-6.108102E-3,-6.999131E-1,2E0,-0E0,-2.3293848E0,2.6021805E-3,-0E0,3.998538E-3,-1.0523697E-3,7.398895E-4,2.4320218E-3,-0E0,3.1808598E-4,2.6572999E-3,-2.50073E-3,1.7872351E-3,-3.343663E-3,-0E0,7.335453E-4,-1.5931152E-3,-1.3233867E-3,-2.5035592E-3,-6.782665E-3,-0E0,9.789568E-4,-8.3582185E-4],"split_indices":[11,15,15,14,15,11,1,5,14,14,4,11,4,0,0,14,4,5,13,14,3,8,4,0,15,13,0,14,0,0,0,0,0,0,0,0,0,0,0,0,0,0,0,0,0,0,0,0,0],"split_type":[0,0,0,0,0,0,0,0,0,0,0,0,0,0,0,0,0,0,0,0,0,0,0,0,0,0,0,0,0,0,0,0,0,0,0,0,0,0,0,0,0,0,0,0,0,0,0,0,0],"sum_hessian":[4.956E3,3.075E3,1.881E3,2.823E3,2.52E2,1.223E3,6.58E2,1.77E2,2.646E3,1.8E2,7.2E1,1.048E3,1.75E2,6.55E2,3E0,7.2E1,1.05E2,1.4E1,2.632E3,1.39E2,4.1E1,2.6E1,4.6E1,4.7E1,1.001E3,1.74E2,1E0,1.1E1,6.1E1,1E0,1.04E2,5E0,9E0,2.625E3,7E0,1E2,3.9E1,2.3E1,1.8E1,2E1,6E0,3.7E1,9E0,4.94E2,5.07E2,1.73E2,1E0,4E0,7E0],"tree_param":{"num_deleted":"0","num_feature":"16","num_nodes":"49","size_leaf_vector":"1"}},{"base_weights":[-3.378193E-3,8.4880166E-2,-5.896015E-3,1.041323E-1,-1.9008863E-1,7.788296E-2,1.741741E-1,-8.461937E-2,-3.782345E-1,1.9835436E-1,5.8176756E-2,1.9521573E-1,-6.035187E-2,-6.6488725E-1,-5.1747594E-2,-5.64904E-1,-0E0,1.7002046E-1,7.8179723E-1,2.7708389E-2,1.1753296E-1,2.1779273E-1,-2.0046335E-2,-4.052653E-1,1.5287384E-1,-0E0,-3.5839458E-3,1.2090983E-4,-1.2229935E-3,-0E0,-3.2592495E-3,1.4759895E-3,-5.837292E-4,1.0624512E-3,-3.1948704E-5,5.1954E-3,-0E0,1.8193417E-4,-2.4787225E-3,-3.9200555E-4,7.942974E-4,1.1711603E-3,-3.5744844E-4,-2.4576795E-3,8.671411E-4,-0E0,-3.2674456E-3,-1.5629629E-3,1.6609718E-3],"categories":[],"categories_nodes":[],"categories_segments":[],"categories_sizes":[],"default_left":[0,0,0,0,0,0,0,0,0,0,0,0,0,0,0,0,0,0,0,0,0,0,0,0,0,0,0,0,0,0,0,0,0,0,0,0,0,0,0,0,0,0,0,0,0,0,0,0,0],"id":26,"left_children":[1,3,-1,5,7,9,11,13,15,17,19,21,23,25,27,29,31,33,35,37,39,41,43,45,47,-1,-1,-1,-1,-1,-1,-1,-1,-1,-1,-1,-1,-1,-1,-1,-1,-1,-1,-1,-1,-1,-1,-1,-1],"loss_changes":[5.156385E2,2.429361E1,0E0,7.520775E0,5.1352577E0,7.082203E0,5.9403763E0,2.632974E0,7.2507267E0,5.447914E0,4.7037506E0,5.500656E0,7.195038E0,5.9906244E-2,3.15393E0,3.3696709E0,1.3129292E0,3.4360723E0,4.7251062E0,7.6148586E0,7.4898243E0,4.909565E0,9.496114E0,3.1539378E0,4.8278084E0,0E0,0E0,0E0,0E0,0E0,0E0,0E0,0E0,0E0,0E0,0E0,0E0,0E0,0E0,0E0,0E0,0E0,0E0,0E0,0E0,0E0,0E0,0E0,0E0],"parents":[2147483647,0,0,1,1,3,3,4,4,5,5,6,6,7,7,8,8,9,9,10,10,11,11,12,12,13,13,14,14,15,15,16,16,17,17,18,18,19,19,20,20,21,21,22,22,23,23,24,24],"right_children":[2,4,-1,6,8,10,12,14,16,18,20,22,24,26,28,30,32,34,36,38,40,42,44,46,48,-1,-1,-1,-1,-1,-1,-1,-1,-1,-1,-1,-1,-1,-1,-1,-1,-1,-1,-1,-1,-1,-1,-1,-1],"split_conditions":[4E0,1.6772496E0,-5.896015E-3,5.08E2,2.0168443E0,-1.0605929E0,7.96E2,-1.9182578E0,9E0,1.337655E0,3.188709E-1,1.337655E0,8.09E2,4.29E2,3.3843938E-1,3.9E1,2E0,1.12E2,3.27E2,2.3754687E0,-5.456338E-1,2.4E1,4.3E1,8E0,1.6E1,-0E0,-3.5839458E-3,1.2090983E-4,-1.2229935E-3,-0E0,-3.2592495E-3,1.4759895E-3,-5.837292E-4,1.0624512E-3,-3.1948704E-5,5.1954E-3,-0E0,1.8193417E-4,-2.4787225E-3,-3.9200555E-4,7.942974E-4,1.1711603E-3,-3.5744844E-4,-2.4576795E-3,8.671411E-4,-0E0,-3.2674456E-3,-1.5629629E-3,1.6609718E-3],"split_indices":[6,15,0,0,15,14,0,14,1,15,15,15,0,0,14,0,6,4,0,14,14,3,4,3,3,0,0,0,0,0,0,0,0,0,0,0,0,0,0,0,0,0,0,0,0,0,0,0,0],"split_type":[0,0,0,0,0,0,0,0,0,0,0,0,0,0,0,0,0,0,0,0,0,0,0,0,0,0,0,0,0,0,0,0,0,0,0,0,0,0,0,0,0,0,0,0,0,0,0,0,0],"sum_hessian":[4.949E3,4.604E3,3.45E2,4.309E3,2.95E2,3.153E3,1.156E3,1.96E2,9.9E1,4.3E2,2.723E3,1.067E3,8.9E1,6E0,1.9E2,6.6E1,3.3E1,4.15E2,1.5E1,1.818E3,9.05E2,9.72E2,9.5E1,3.6E1,5.3E1,1E0,5E0,1.32E2,5.8E1,9E0,5.7E1,9E0,2.4E1,3.41E2,7.4E1,1.2E1,3E0,1.793E3,2.5E1,1.51E2,7.54E2,9.25E2,4.7E1,2.9E1,6.6E1,1.6E1,2E1,1.2E1,4.1E1],"tree_param":{"num_deleted":"0","num_feature":"16","num_nodes":"49","size_leaf_vector":"1"}},{"base_weights":[-1.3010139E-2,7.598065E-2,-5.782169E-3,8.839738E-2,-4.491557E-1,6.223735E-2,1.5079698E-1,-5.301704E-1,8.412734E-2,7.223094E-2,-1.7845751E-1,1.6356583E-1,-1.09989405E-1,-6.93379E-1,-2.3016985E-1,-5.673623E-4,3.1610176E-1,8.524747E-2,-1.3222066E-1,-3.142624E-1,1.613958E-1,2.0038567E-1,6.300638E-2,-2.6083598E-1,3.7415788E-1,-0E0,-3.7535892E-3,-1.03182545E-4,-3.1170584E-3,1.989999E-3,-0E0,2.7962014E-4,9.233403E-4,-1.7482663E-3,-1.3793906E-4,-0E0,-2.6133016E-3,2.2045746E-3,-1.1054103E-3,3.6488313E-4,1.273871E-3,2.8726351E-3,8.6812484E-5,-5.343012E-4,-3.0448185E-3,3.6157342E-3,-5.1842746E-4,-0E0,5.194712E-4],"categories":[],"categories_nodes":[],"categories_segments":[],"categories_sizes":[],"default_left":[0,0,0,0,0,0,0,0,0,0,0,0,0,0,0,0,0,0,0,0,0,0,0,0,0,0,0,0,0,0,0,0,0,0,0,0,0,0,0,0,0,0,0,0,0,0,0,0,0],"id":27,"left_children":[1,3,-1,5,7,9,11,13,15,17,19,21,23,25,27,-1,29,31,33,35,37,39,41,43,45,47,-1,-1,-1,-1,-1,-1,-1,-1,-1,-1,-1,-1,-1,-1,-1,-1,-1,-1,-1,-1,-1,-1,-1],"loss_changes":[5.0720935E2,2.9591158E1,0E0,7.018795E0,5.251459E0,7.55412E0,4.4885616E0,2.8490162E0,9.7157705E-1,8.138086E0,5.961497E0,4.2375145E0,4.188026E0,2.946228E0,2.2216911E0,0E0,2.6802754E-1,8.072981E0,3.4644518E0,5.7641497E0,4.052732E0,5.7701836E0,7.2872896E0,1.3154671E0,3.0802965E0,4.3176048E-2,0E0,0E0,0E0,0E0,0E0,0E0,0E0,0E0,0E0,0E0,0E0,0E0,0E0,0E0,0E0,0E0,0E0,0E0,0E0,0E0,0E0,0E0,0E0],"parents":[2147483647,0,0,1,1,3,3,4,4,5,5,6,6,7,7,8,8,9,9,10,10,11,11,12,12,13,13,14,14,16,16,17,17,18,18,19,19,20,20,21,21,22,22,23,23,24,24,25,25],"right_children":[2,4,-1,6,8,10,12,14,16,18,20,22,24,26,28,-1,30,32,34,36,38,40,42,44,46,48,-1,-1,-1,-1,-1,-1,-1,-1,-1,-1,-1,-1,-1,-1,-1,-1,-1,-1,-1,-1,-1,-1,-1],"split_conditions":[4E0,2.0168443E0,-5.782169E-3,4.86E2,2E1,1.6772496E0,2.4E1,2E0,5E0,4.53E2,1.09E2,2.0699877E-1,1.3437633E-1,2.2E1,5.1E2,-5.673623E-4,7.2E1,6.5846556E-1,5.3E1,5E0,3.51E2,-1.041387E0,4.93E2,-2.3473771E-1,1E1,7E0,-3.7535892E-3,-1.03182545E-4,-3.1170584E-3,1.989999E-3,-0E0,2.7962014E-4,9.233403E-4,-1.7482663E-3,-1.3793906E-4,-0E0,-2.6133016E-3,2.2045746E-3,-1.1054103E-3,3.6488313E-4,1.273871E-3,2.8726351E-3,8.6812484E-5,-5.343012E-4,-3.0448185E-3,3.6157342E-3,-5.1842746E-4,-0E0,5.194712E-4],"split_indices":[6,15,0,0,1,15,3,12,3,0,4,14,14,0,0,0,4,15,4,3,0,14,0,14,1,0,0,0,0,0,0,0,0,0,0,0,0,0,0,0,0,0,0,0,0,0,0,0,0],"split_type":[0,0,0,0,0,0,0,0,0,0,0,0,0,0,0,0,0,0,0,0,0,0,0,0,0,0,0,0,0,0,0,0,0,0,0,0,0,0,0,0,0,0,0,0,0,0,0,0,0],"sum_hessian":[4.965E3,4.607E3,3.58E2,4.505E3,1.02E2,3.194E3,1.311E3,9.1E1,1.1E1,3.074E3,1.2E2,1.256E3,5.5E1,5.4E1,3.7E1,3E0,8E0,2.898E3,1.76E2,8.9E1,3.1E1,9.07E2,3.49E2,4.5E1,1E1,3E0,5.1E1,2.8E1,9E0,6E0,2E0,2.252E3,6.46E2,5.1E1,1.25E2,3.7E1,5.2E1,2E1,1.1E1,2.81E2,6.26E2,2.4E1,3.25E2,3.6E1,9E0,7E0,3E0,1E0,2E0],"tree_param":{"num_deleted":"0","num_feature":"16","num_nodes":"49","size_leaf_vector":"1"}},{"base_weights":[2.5835584E-3,4.6167856E-1,-7.6726586E-1,3.565032E-1,4.726048E-1,-6.539261E-1,-1.3453088E0,3.2564387E-1,9.1027933E-1,4.9439168E-1,4.0187687E-1,-5.790854E-3,-4.9872905E-1,-6.7429338E-3,-0E0,-0E0,3.4224012E-1,5.044121E-3,-0E0,6.3465446E-1,4.8214218E-1,-1.270373E-1,4.1701272E-1,-4.289076E-1,-6.207086E-1,1.5398496E-3,-2.2680266E-1,3.803076E-1,1.0084113E-1,-0E0,6.449883E-1,1.6465646E-3,2.475674E-3,-0E0,-1.8052876E-3,2.378218E-3,1.405367E-3,-2.1909564E-3,3.5429627E-4,-3.1811558E-3,2.1397427E-3,-0E0,-1.8810797E-3,2.1326463E-3,6.02668E-4,-1.8095049E-4,1.0175611E-3,3.2605294E-3,-0E0],"categories":[],"categories_nodes":[],"categories_segments":[],"categories_sizes":[],"default_left":[0,0,0,0,0,0,0,0,0,0,0,0,0,0,0,0,0,0,0,0,0,0,0,0,0,0,0,0,0,0,0,0,0,0,0,0,0,0,0,0,0,0,0,0,0,0,0,0,0],"id":28,"left_children":[1,3,5,7,9,11,13,15,17,19,21,-1,23,-1,-1,25,27,-1,-1,29,31,33,35,37,39,-1,41,43,45,-1,47,-1,-1,-1,-1,-1,-1,-1,-1,-1,-1,-1,-1,-1,-1,-1,-1,-1,-1],"loss_changes":[1.7670668E3,2.020874E0,1.17558716E2,2.9534378E0,2.6036987E0,1.1898859E2,8.4814453E-1,1.9751968E0,1.4408073E0,1.3741455E0,6.0727615E0,0E0,8.147339E0,0E0,0E0,1.0400614E0,1.8940887E0,0E0,0E0,1.6336479E0,2.3648682E0,8.8277036E-1,3.9774551E0,4.2320557E0,7.7913513E0,0E0,4.2493522E-1,2.0423546E0,9.410325E-1,0E0,9.9651337E-1,0E0,0E0,0E0,0E0,0E0,0E0,0E0,0E0,0E0,0E0,0E0,0E0,0E0,0E0,0E0,0E0,0E0,0E0],"parents":[2147483647,0,0,1,1,2,2,3,3,4,4,5,5,6,6,7,7,8,8,9,9,10,10,12,12,15,15,16,16,19,19,20,20,21,21,22,22,23,23,24,24,26,26,27,27,28,28,30,30],"right_children":[2,4,6,8,10,12,14,16,18,20,22,-1,24,-1,-1,26,28,-1,-1,30,32,34,36,38,40,-1,42,44,46,-1,48,-1,-1,-1,-1,-1,-1,-1,-1,-1,-1,-1,-1,-1,-1,-1,-1,-1,-1],"split_conditions":[2E0,1E1,4E0,6.87E2,2E0,3E0,1.43E2,-1.2850622E0,8E0,6.9E1,3.7E1,-5.790854E-3,9E0,-6.7429338E-3,-0E0,-1.7249981E0,5.35E2,5.044121E-3,-0E0,7E0,1.4E2,5.9E1,5.2749777E-1,7.65E2,2.5E1,1.5398496E-3,1.47E2,9E0,5.69E2,-0E0,1.7260681E0,1.6465646E-3,2.475674E-3,-0E0,-1.8052876E-3,2.378218E-3,1.405367E-3,-2.1909564E-3,3.5429627E-4,-3.1811558E-3,2.1397427E-3,-0E0,-1.8810797E-3,2.1326463E-3,6.02668E-4,-1.8095049E-4,1.0175611E-3,3.2605294E-3,-0E0],"split_indices":[11,4,11,0,8,11,4,14,1,0,0,0,1,0,0,14,0,0,0,0,0,4,14,0,1,0,0,4,0,0,14,0,0,0,0,0,0,0,0,0,0,0,0,0,0,0,0,0,0],"split_type":[0,0,0,0,0,0,0,0,0,0,0,0,0,0,0,0,0,0,0,0,0,0,0,0,0,0,0,0,0,0,0,0,0,0,0,0,0,0,0,0,0,0,0,0,0,0,0,0,0],"sum_hessian":[4.997E3,3.132E3,1.865E3,3.14E2,2.818E3,1.565E3,3E2,3.03E2,1.1E1,2.129E3,6.89E2,3.63E2,1.202E3,2.99E2,1E0,1.2E1,2.91E2,1E1,1E0,1.53E2,1.976E3,1.6E1,6.73E2,7.78E2,4.24E2,3E0,9E0,2.45E2,4.6E1,1E0,1.52E2,1.68E2,1.808E3,9E0,7E0,4.59E2,2.14E2,7.67E2,1.1E1,4.2E2,4E0,4E0,5E0,2.02E2,4.3E1,1.4E1,3.2E1,1.51E2,1E0],"tree_param":{"num_deleted":"0","num_feature":"16","num_nodes":"49","size_leaf_vector":"1"}},{"base_weights":[7.78145E-5,8.563433E-2,-5.692514E-3,1.0278537E-1,-1.5942705E-1,1.3571882E-1,6.293592E-2,-2.1763478E-1,1.2398161E-1,1.09234266E-1,2.1239923E-1,4.957399E-2,2.4126364E-1,-9.997864E-2,-4.1666067E-1,2.5872016E-1,-3.277142E-3,1.14919506E-1,-3.5024896E-1,3.4156832E-1,5.7068054E-2,7.678499E-2,-4.0603954E-2,5.4888874E-2,6.3964057E-1,-0E0,-1.8808666E-3,-3.1746873E-3,-9.550363E-4,-1.0534433E-3,1.8408344E-3,6.308064E-4,-8.815024E-5,-2.4533202E-3,-0E0,-0E0,1.9428764E-3,6.235267E-4,-4.788342E-4,4.7116465E-4,-6.668243E-5,-0E0,-1.6790932E-3,1.1598557E-3,-3.410746E-4,8.717371E-4,4.4147237E-3,2.2782806E-4,-3.7078157E-3],"categories":[],"categories_nodes":[],"categories_segments":[],"categories_sizes":[],"default_left":[0,0,0,0,0,0,0,0,0,0,0,0,0,0,0,0,0,0,0,0,0,0,0,0,0,0,0,0,0,0,0,0,0,0,0,0,0,0,0,0,0,0,0,0,0,0,0,0,0],"id":29,"left_children":[1,3,-1,5,7,9,11,13,15,17,19,21,23,25,27,29,-1,31,33,35,37,39,41,43,45,47,-1,-1,-1,-1,-1,-1,-1,-1,-1,-1,-1,-1,-1,-1,-1,-1,-1,-1,-1,-1,-1,-1,-1],"loss_changes":[4.8655734E2,1.9542465E1,0E0,5.4121666E0,5.143417E0,4.27816E0,4.303045E0,5.089548E0,4.7848787E0,4.3721294E0,1.1220875E1,4.6491723E0,8.614397E0,4.6984997E0,2.902213E0,2.6518657E0,0E0,2.791296E0,1.2804554E0,5.142376E0,2.9203985E0,2.4038877E0,4.604642E0,2.3264349E0,2.521284E0,4.096482E0,0E0,0E0,0E0,0E0,0E0,0E0,0E0,0E0,0E0,0E0,0E0,0E0,0E0,0E0,0E0,0E0,0E0,0E0,0E0,0E0,0E0,0E0,0E0],"parents":[2147483647,0,0,1,1,3,3,4,4,5,5,6,6,7,7,8,8,9,9,10,10,11,11,12,12,13,13,14,14,15,15,17,17,18,18,19,19,20,20,21,21,22,22,23,23,24,24,25,25],"right_children":[2,4,-1,6,8,10,12,14,16,18,20,22,24,26,28,30,-1,32,34,36,38,40,42,44,46,48,-1,-1,-1,-1,-1,-1,-1,-1,-1,-1,-1,-1,-1,-1,-1,-1,-1,-1,-1,-1,-1,-1,-1],"split_conditions":[4E0,1.6772496E0,-5.692514E-3,1.0136613E-1,1.9E1,-2.7855125E-1,2.2E1,2.0168443E0,2E0,-2.9835737E-1,6E0,2E0,3.188709E-1,5.1429373E-1,6E0,8E0,-3.277142E-3,2.1E1,2.1E1,-1.0395077E0,9E0,1.7E1,9E0,2.4E1,8.2939106E-1,3E0,-1.8808666E-3,-3.1746873E-3,-9.550363E-4,-1.0534433E-3,1.8408344E-3,6.308064E-4,-8.815024E-5,-2.4533202E-3,-0E0,-0E0,1.9428764E-3,6.235267E-4,-4.788342E-4,4.7116465E-4,-6.668243E-5,-0E0,-1.6790932E-3,1.1598557E-3,-3.410746E-4,8.717371E-4,4.4147237E-3,2.2782806E-4,-3.7078157E-3],"split_indices":[6,15,0,14,1,14,3,15,10,14,5,8,15,14,3,3,0,3,1,15,5,1,5,3,14,5,0,0,0,0,0,0,0,0,0,0,0,0,0,0,0,0,0,0,0,0,0,0,0],"split_type":[0,0,0,0,0,0,0,0,0,0,0,0,0,0,0,0,0,0,0,0,0,0,0,0,0,0,0,0,0,0,0,0,0,0,0,0,0,0,0,0,0,0,0,0,0,0,0,0,0],"sum_hessian":[5.007E3,4.66E3,3.47E2,4.362E3,2.98E2,2.365E3,1.997E3,2.52E2,4.6E1,1.776E3,5.89E2,1.868E3,1.29E2,1.65E2,8.7E1,4.2E1,4E0,1.759E3,1.7E1,3.15E2,2.74E2,1.448E3,4.2E2,9.2E1,3.7E1,1.22E2,4.3E1,3.9E1,4.8E1,5E0,3.7E1,1.632E3,1.27E2,1.3E1,4E0,3.8E1,2.77E2,1.97E2,7.7E1,1.227E3,2.21E2,3.75E2,4.5E1,4.2E1,5E1,1.6E1,2.1E1,1.17E2,5E0],"tree_param":{"num_deleted":"0","num_feature":"16","num_nodes":"49","size_leaf_vector":"1"}},{"base_weights":[2.1303757E-3,4.521446E-1,-7.509752E-1,4.8486945E-1,8.196465E-2,-5.350709E-1,-1.1198554E0,5.049297E-1,3.966E-1,1.7594215E-1,-8.955303E-2,-4.0484184E-1,-1.3065138E0,-1.1345512E0,3.2834697E-3,5.057937E-1,-0E0,-1.07594304E-1,4.0531388E-1,3.2891908E-1,-0E0,-5.6017256E-1,1.9316649E-2,-5.716961E-3,-3.7124366E-1,-6.555541E-3,-0E0,-5.3781215E-3,-6.8230946E-3,5.414177E-1,2.3319104E-3,-0E0,-2.028354E-4,-0E0,-1.7587926E-3,1.5120455E-3,2.4880485E-3,2.27151E-3,-0E0,2.484255E-3,-4.8368092E-4,-0E0,-3.9925077E-3,-4.7322165E-4,1.3857316E-3,-1.2488022E-3,-2.4260296E-3,2.540254E-3,3.1919142E-3],"categories":[],"categories_nodes":[],"categories_segments":[],"categories_sizes":[],"default_left":[0,0,0,0,0,0,0,0,0,0,0,0,0,0,0,0,0,0,0,0,0,0,0,0,0,0,0,0,0,0,0,0,0,0,0,0,0,0,0,0,0,0,0,0,0,0,0,0,0],"id":30,"left_children":[1,3,5,7,9,11,13,15,17,19,21,23,25,27,-1,29,31,33,35,37,39,41,43,-1,45,-1,-1,-1,-1,47,-1,-1,-1,-1,-1,-1,-1,-1,-1,-1,-1,-1,-1,-1,-1,-1,-1,-1,-1],"loss_changes":[1.6778265E3,3.6635986E1,1.4373816E2,3.284851E0,4.3197474E0,1.1432019E2,1.993396E1,1.4941406E0,2.9502258E0,4.9225125E0,5.2904744E0,2.1916382E1,2.894287E-1,2.5550537E0,0E0,1.2055054E0,4.937064E-3,6.49792E-1,3.665741E0,4.3758717E0,3.6173835E0,2.3267894E0,2.3829904E0,0E0,1.2084335E1,0E0,0E0,0E0,0E0,1.4268494E0,0E0,0E0,0E0,0E0,0E0,0E0,0E0,0E0,0E0,0E0,0E0,0E0,0E0,0E0,0E0,0E0,0E0,0E0,0E0],"parents":[2147483647,0,0,1,1,2,2,3,3,4,4,5,5,6,6,7,7,8,8,9,9,10,10,11,11,12,12,13,13,15,15,16,16,17,17,18,18,19,19,20,20,21,21,22,22,24,24,29,29],"right_children":[2,4,6,8,10,12,14,16,18,20,22,24,26,28,-1,30,32,34,36,38,40,42,44,-1,46,-1,-1,-1,-1,48,-1,-1,-1,-1,-1,-1,-1,-1,-1,-1,-1,-1,-1,-1,-1,-1,-1,-1,-1],"split_conditions":[2E0,1.6772496E0,3.188709E-1,9.980602E-1,2.0168443E0,4E0,2.6E1,2E0,-1.9182578E0,6E0,3E0,3E0,2E0,4E0,3.2834697E-3,-1.8657629E-3,5E0,-2.3293848E0,6E0,5.064913E-1,5E0,4E0,2E0,-5.716961E-3,-6.999131E-1,-6.555541E-3,-0E0,-5.3781215E-3,-6.8230946E-3,1.5E1,2.3319104E-3,-0E0,-2.028354E-4,-0E0,-1.7587926E-3,1.5120455E-3,2.4880485E-3,2.27151E-3,-0E0,2.484255E-3,-4.8368092E-4,-0E0,-3.9925077E-3,-4.7322165E-4,1.3857316E-3,-1.2488022E-3,-2.4260296E-3,2.540254E-3,3.1919142E-3],"split_indices":[11,15,15,15,15,11,1,13,14,2,3,11,13,11,0,14,1,14,2,14,1,1,12,0,15,0,0,0,0,3,0,0,0,0,0,0,0,0,0,0,0,0,0,0,0,0,0,0,0],"split_type":[0,0,0,0,0,0,0,0,0,0,0,0,0,0,0,0,0,0,0,0,0,0,0,0,0,0,0,0,0,0,0,0,0,0,0,0,0,0,0,0,0,0,0,0,0,0,0,0,0],"sum_hessian":[4.948E3,3.099E3,1.849E3,2.843E3,2.56E2,1.172E3,6.77E2,2.295E3,5.48E2,1.71E2,8.5E1,1.007E3,1.65E2,6.73E2,4E0,2.293E3,2E0,6E0,5.42E2,9.3E1,7.8E1,1.7E1,6.8E1,3.9E1,9.68E2,1.64E2,1E0,5.5E2,1.23E2,1.171E3,1.122E3,1E0,1E0,2E0,4E0,2.68E2,2.74E2,6.9E1,2.4E1,1E1,6.8E1,6E0,1.1E1,4.4E1,2.4E1,4.78E2,4.9E2,8.92E2,2.79E2],"tree_param":{"num_deleted":"0","num_feature":"16","num_nodes":"49","size_leaf_vector":"1"}},{"base_weights":[-9.7739175E-3,4.3674976E-1,-7.445206E-1,4.7094896E-1,4.327015E-2,-5.3177047E-1,-1.1242355E0,4.892745E-1,3.914864E-1,1.614736E-1,-2.1808723E-1,-4.0363213E-1,-1.286604E0,-1.1353278E0,2.570272E-3,4.9124852E-1,-0E0,1.4552993E-1,4.115663E-1,2.6834366E-1,-0E0,-5.9716755E-1,-8.903143E-2,-3.6617297E-1,-5.6759147E-3,-6.6279685E-3,-4.143116E-1,-5.4048686E-3,-6.760641E-3,2.4677035E-3,-0E0,-0E0,-4.955998E-4,1.3965901E-3,-5.640199E-4,2.1256967E-3,2.6847E-4,-0E0,1.6280435E-3,2.2748203E-3,-4.918342E-4,-0E0,-3.885744E-3,-0E0,-2.260704E-3,-1.2531471E-3,-2.3673587E-3,-0E0,-3.0237453E-3],"categories":[],"categories_nodes":[],"categories_segments":[],"categories_sizes":[],"default_left":[0,0,0,0,0,0,0,0,0,0,0,0,0,0,0,0,0,0,0,0,0,0,0,0,0,0,0,0,0,0,0,0,0,0,0,0,0,0,0,0,0,0,0,0,0,0,0,0,0],"id":31,"left_children":[1,3,5,7,9,11,13,15,17,19,21,23,25,27,-1,29,31,33,35,37,39,41,43,45,-1,-1,47,-1,-1,-1,-1,-1,-1,-1,-1,-1,-1,-1,-1,-1,-1,-1,-1,-1,-1,-1,-1,-1,-1],"loss_changes":[1.6388964E3,4.0970947E1,1.48922E2,2.4503174E0,7.8324194E0,1.1413812E2,1.4347473E1,2.5114746E0,1.8102798E0,3.1556363E0,2.5824795E0,2.555304E1,2.2095337E0,1.3341675E0,0E0,2.239502E0,5.894861E-2,2.07545E0,1.7182388E0,1.7990074E0,3.2908142E0,1.5417767E0,2.5750208E0,1.1061798E1,0E0,0E0,8.659229E-1,0E0,0E0,0E0,0E0,0E0,0E0,0E0,0E0,0E0,0E0,0E0,0E0,0E0,0E0,0E0,0E0,0E0,0E0,0E0,0E0,0E0,0E0],"parents":[2147483647,0,0,1,1,2,2,3,3,4,4,5,5,6,6,7,7,8,8,9,9,10,10,11,11,12,12,13,13,15,15,16,16,17,17,18,18,19,19,20,20,21,21,22,22,23,23,26,26],"right_children":[2,4,6,8,10,12,14,16,18,20,22,24,26,28,-1,30,32,34,36,38,40,42,44,46,-1,-1,48,-1,-1,-1,-1,-1,-1,-1,-1,-1,-1,-1,-1,-1,-1,-1,-1,-1,-1,-1,-1,-1,-1],"split_conditions":[2E0,1.6772496E0,3.188709E-1,9.980602E-1,2.0168443E0,4E0,2.6E1,1.45E2,2E0,6E0,2.2E1,4E0,1.33E2,4E0,2.570272E-3,3E0,-2.0723764E-2,4.9E1,2.4E1,3E0,5E0,4E0,1.21E2,-6.999131E-1,-5.6759147E-3,-6.6279685E-3,2E0,-5.4048686E-3,-6.760641E-3,2.4677035E-3,-0E0,-0E0,-4.955998E-4,1.3965901E-3,-5.640199E-4,2.1256967E-3,2.6847E-4,-0E0,1.6280435E-3,2.2748203E-3,-4.918342E-4,-0E0,-3.885744E-3,-0E0,-2.260704E-3,-1.2531471E-3,-2.3673587E-3,-0E0,-3.0237453E-3],"split_indices":[11,15,15,15,15,11,1,4,3,2,4,6,4,11,0,7,15,4,3,1,1,1,4,15,0,0,1,0,0,0,0,0,0,0,0,0,0,0,0,0,0,0,0,0,0,0,0,0,0],"split_type":[0,0,0,0,0,0,0,0,0,0,0,0,0,0,0,0,0,0,0,0,0,0,0,0,0,0,0,0,0,0,0,0,0,0,0,0,0,0,0,0,0,0,0,0,0,0,0,0,0],"sum_hessian":[4.99E3,3.103E3,1.887E3,2.851E3,2.52E2,1.215E3,6.72E2,2.293E3,5.58E2,1.78E2,7.4E1,1.043E3,1.72E2,6.69E2,3E0,2.285E3,8E0,4.9E1,5.09E2,1.07E2,7.1E1,1.4E1,6E1,9.97E2,4.6E1,1.62E2,1E1,5.5E2,1.19E2,2.273E3,1.2E1,4E0,4E0,3.6E1,1.3E1,4.86E2,2.3E1,1.8E1,8.9E1,1.1E1,6E1,4E0,1E1,4.7E1,1.3E1,4.9E2,5.07E2,4E0,6E0],"tree_param":{"num_deleted":"0","num_feature":"16","num_nodes":"49","size_leaf_vector":"1"}},{"base_weights":[-4.6348865E-3,7.851707E-2,-5.7099997E-3,-5.4678176E-2,8.788751E-2,2.6099002E-1,-1.1607862E-1,-8.803169E-2,9.603035E-2,3.8178843E-1,-0E0,-3.565934E-2,-3.25739E-1,-3.4139806E-1,-0E0,3.856207E-1,8.409236E-2,5.6500983E-1,3.419077E-2,-2.8441265E-1,2.002914E-1,-2.3734726E-1,8.3140664E-2,-4.1457537E-1,-0E0,-2.855728E-3,4.8527643E-4,8.1270054E-4,-1.1831946E-3,1.2899429E-3,2.8497025E-3,-2.4855128E-4,4.914259E-4,-0E0,3.556136E-3,-1.0082771E-3,1.8301478E-3,-0E0,-1.92069E-3,-0E0,1.351799E-3,-5.838957E-4,-3.2373308E-3,-1.239599E-3,1.1284192E-3,-2.9011413E-3,-6.558395E-4,7.807192E-4,-4.6356823E-4],"categories":[],"categories_nodes":[],"categories_segments":[],"categories_sizes":[],"default_left":[0,0,0,0,0,0,0,0,0,0,0,0,0,0,0,0,0,0,0,0,0,0,0,0,0,0,0,0,0,0,0,0,0,0,0,0,0,0,0,0,0,0,0,0,0,0,0,0,0],"id":32,"left_children":[1,3,-1,5,7,9,11,13,15,17,19,21,23,25,27,29,31,33,35,37,39,41,43,45,47,-1,-1,-1,-1,-1,-1,-1,-1,-1,-1,-1,-1,-1,-1,-1,-1,-1,-1,-1,-1,-1,-1,-1,-1],"loss_changes":[4.7464523E2,5.8755627E0,0E0,5.599727E0,6.281685E0,1.5991864E0,3.7172983E0,4.5027633E0,1.3684818E1,1.1005573E0,1.0081743E0,4.847237E0,1.5248799E0,5.959412E0,5.2695303E0,2.2280502E0,7.722458E0,8.297243E-1,1.6463915E0,9.068543E-2,2.2370562E-1,2.460403E0,5.5998273E0,1.0811071E0,2.3505671E-1,0E0,0E0,0E0,0E0,0E0,0E0,0E0,0E0,0E0,0E0,0E0,0E0,0E0,0E0,0E0,0E0,0E0,0E0,0E0,0E0,0E0,0E0,0E0,0E0],"parents":[2147483647,0,0,1,1,3,3,4,4,5,5,6,6,7,7,8,8,9,9,10,10,11,11,12,12,13,13,14,14,15,15,16,16,17,17,18,18,19,19,20,20,21,21,22,22,23,23,24,24],"right_children":[2,4,-1,6,8,10,12,14,16,18,20,22,24,26,28,30,32,34,36,38,40,42,44,46,48,-1,-1,-1,-1,-1,-1,-1,-1,-1,-1,-1,-1,-1,-1,-1,-1,-1,-1,-1,-1,-1,-1,-1,-1],"split_conditions":[4E0,6E0,-5.7099997E-3,5E1,3.9E1,4E0,7.951805E-1,3.6004606E-1,6.9E1,-1.3090563E-1,7.009514E-1,3E0,3.78E2,7.5E1,5E1,8E1,1.28E2,2E0,4.9508777E-1,7E0,3E0,8E0,-7.911096E-1,1.340749E0,3.91E2,-2.855728E-3,4.8527643E-4,8.1270054E-4,-1.1831946E-3,1.2899429E-3,2.8497025E-3,-2.4855128E-4,4.914259E-4,-0E0,3.556136E-3,-1.0082771E-3,1.8301478E-3,-0E0,-1.92069E-3,-0E0,1.351799E-3,-5.838957E-4,-3.2373308E-3,-1.239599E-3,1.1284192E-3,-2.9011413E-3,-6.558395E-4,7.807192E-4,-4.6356823E-4],"split_indices":[6,4,0,0,0,4,14,14,0,14,14,1,0,4,4,4,0,4,14,0,2,5,14,14,0,0,0,0,0,0,0,0,0,0,0,0,0,0,0,0,0,0,0,0,0,0,0,0,0],"split_type":[0,0,0,0,0,0,0,0,0,0,0,0,0,0,0,0,0,0,0,0,0,0,0,0,0,0,0,0,0,0,0,0,0,0,0,0,0,0,0,0,0,0,0,0,0,0,0,0,0],"sum_hessian":[4.998E3,4.658E3,3.4E2,2.95E2,4.363E3,4.3E1,2.52E2,1.84E2,4.179E3,3E1,1.3E1,1.89E2,6.3E1,4.9E1,1.35E2,1.58E2,4.021E3,1.6E1,1.4E1,6E0,7E0,7.4E1,1.15E2,4.7E1,1.6E1,3.4E1,1.5E1,8.3E1,5.2E1,1.01E2,5.7E1,3.75E2,3.646E3,5E0,1.1E1,6E0,8E0,3E0,3E0,1E0,6E0,6.2E1,1.2E1,3.1E1,8.4E1,2.5E1,2.2E1,2E0,1.4E1],"tree_param":{"num_deleted":"0","num_feature":"16","num_nodes":"49","size_leaf_vector":"1"}},{"base_weights":[1.123539E-2,4.624864E-1,-7.4779755E-1,4.5529628E-1,6.7413855E-1,-6.2731826E-1,-1.3373803E0,4.5665395E-1,-0E0,-0E0,6.8506557E-1,-5.5796057E-3,-4.8751613E-1,-1.3405855E0,-0E0,5.7605934E-1,4.4511455E-1,-4.6728566E-4,-0E0,3.481895E-3,-0E0,-4.9251324E-1,4.2191604E-1,-1.3434228E0,-0E0,3.2770744E-1,6.7792934E-1,1.650843E-1,4.5139027E-1,-4.2531887E-1,-6.094723E-1,-0E0,2.5610873E-3,-6.7287367E-3,-0E0,-5.031222E-2,2.1978386E-3,3.4693757E-3,-0E0,-3.8554953E-4,1.6550749E-3,2.292686E-3,1.1260479E-3,-2.484992E-3,-1.4521513E-3,-3.0913856E-3,-0E0,1.192665E-5,-1.1883879E-3],"categories":[],"categories_nodes":[],"categories_segments":[],"categories_sizes":[],"default_left":[0,0,0,0,0,0,0,0,0,0,0,0,0,0,0,0,0,0,0,0,0,0,0,0,0,0,0,0,0,0,0,0,0,0,0,0,0,0,0,0,0,0,0,0,0,0,0,0,0],"id":33,"left_children":[1,3,5,7,9,11,13,15,17,-1,19,-1,21,23,-1,25,27,-1,-1,-1,-1,29,31,33,-1,35,37,39,41,43,45,-1,-1,-1,-1,47,-1,-1,-1,-1,-1,-1,-1,-1,-1,-1,-1,-1,-1],"loss_changes":[1.6946823E3,2.4172363E0,1.2635901E2,2.4829102E0,8.822212E-1,1.0149573E2,8.5510254E-1,2.1028442E0,5.2405413E-2,0E0,4.3671036E-1,0E0,5.979492E0,5.4071045E-1,0E0,4.2962265E0,3.7854614E0,0E0,0E0,0E0,0E0,7.3365784E0,2.4375474E-1,1.0803223E-1,0E0,4.0109463E0,1.7709274E0,3.2048407E0,3.1291504E0,6.023468E0,2.6721802E0,0E0,0E0,0E0,0E0,5.2192503E-1,0E0,0E0,0E0,0E0,0E0,0E0,0E0,0E0,0E0,0E0,0E0,0E0,0E0],"parents":[2147483647,0,0,1,1,2,2,3,3,4,4,5,5,6,6,7,7,8,8,10,10,12,12,13,13,15,15,16,16,21,21,22,22,23,23,25,25,26,26,27,27,28,28,29,29,30,30,35,35],"right_children":[2,4,6,8,10,12,14,16,18,-1,20,-1,22,24,-1,26,28,-1,-1,-1,-1,30,32,34,-1,36,38,40,42,44,46,-1,-1,-1,-1,48,-1,-1,-1,-1,-1,-1,-1,-1,-1,-1,-1,-1,-1],"split_conditions":[2E0,2E1,4E0,1.45E2,3E0,3E0,1.44E2,-1.4068999E0,1.2915338E0,-0E0,2.4E1,-5.5796057E-3,2.5E1,2.2E1,-0E0,4.5E1,-1.300667E0,-4.6728566E-4,-0E0,3.481895E-3,-0E0,9E0,2.16E2,3E0,-0E0,-1.7544073E0,8.15E2,8E0,1.3E2,7E0,8.21E2,-0E0,2.5610873E-3,-6.7287367E-3,-0E0,2E0,2.1978386E-3,3.4693757E-3,-0E0,-3.8554953E-4,1.6550749E-3,2.292686E-3,1.1260479E-3,-2.484992E-3,-1.4521513E-3,-3.0913856E-3,-0E0,1.192665E-5,-1.1883879E-3],"split_indices":[11,2,11,4,3,11,4,14,14,0,3,0,1,2,0,4,14,0,0,0,0,1,0,10,0,14,0,1,4,2,0,0,0,0,0,2,0,0,0,0,0,0,0,0,0,0,0,0,0],"split_type":[0,0,0,0,0,0,0,0,0,0,0,0,0,0,0,0,0,0,0,0,0,0,0,0,0,0,0,0,0,0,0,0,0,0,0,0,0,0,0,0,0,0,0,0,0,0,0,0,0],"sum_hessian":[4.945E3,3.103E3,1.842E3,3.014E3,8.9E1,1.535E3,3.07E2,3.008E3,6E0,1E0,8.8E1,3.36E2,1.199E3,3.06E2,1E0,2.45E2,2.763E3,4E0,2E0,8.6E1,2E0,1.195E3,4E0,3.05E2,1E0,7.8E1,1.67E2,6.7E1,2.696E3,7.73E2,4.22E2,1E0,3E0,3.04E2,1E0,1.5E1,6.3E1,1.63E2,4E0,2.4E1,4.3E1,2.605E3,9.1E1,4.94E2,2.79E2,4.17E2,5E0,7E0,8E0],"tree_param":{"num_deleted":"0","num_feature":"16","num_nodes":"49","size_leaf_vector":"1"}},{"base_weights":[1.1115394E-5,8.261903E-2,-5.664982E-3,9.980721E-2,-1.58532E-1,6.049598E-2,1.3858184E-1,-9.517059E-2,-7.385655E-1,8.623688E-2,-9.0492435E-2,1.2899366E-1,4.3336594E-1,-1.6263063E-1,2.2144113E-1,-8.680119E-1,4.8559322E-4,6.619973E-2,2.6037258E-1,1.2205304E-1,-2.0094238E-1,1.4008503E-1,-6.9728725E-2,5.231883E-1,-1.3868742E-1,-3.3042383E-1,-1.2581635E-4,-1.592161E-3,1.7628282E-3,-0E0,-4.5645456E-3,5.9858296E-4,9.370343E-5,1.6522532E-3,-1.3014743E-3,9.494518E-4,-4.0527987E-3,-1.206546E-3,