{"learner":{"attributes":{"best_iteration":"3","best_score":"0.9996416574274003"},"feature_names":["player_id","player_team_id","home_team_id","opponent_team_id","ground_id","position_id","style_id","floodlit","neutral_match","international_valid","rain_rule","target_id","is_home","actual_days","current_age","batting_order"],"feature_types":["int","int","int","int","int","int","int","int","int","int","int","int","int","int","float","float"],"gradient_booster":{"model":{"gbtree_model_param":{"num_parallel_tree":"1","num_trees":"7"},"iteration_indptr":[0,1,2,3,4,5,6,7],"tree_info":[0,0,0,0,0,0,0],"trees":[{"base_weights":[1.6007788E-2,9.246228E-2,-3.040299E-1,1.5942796E-1,-6.4628795E-2,-0E0,-3.5135219E-1,1.8383744E-1,-1.7186317E-1,-1.6746509E-1,2.3188765E-1,-3.8091624E-1,3.90721E-1,-6.109384E-1,-2.5909337E-1,2.4522793E-1,3.4271676E-2,1.7658073E-1,-6.265591E-1,-9.625E-1,-1.1157967E-1,5.878314E-1,2.1446642E-2,-0E0,-2.0988968E-3,6.4102286E-1,-3.6157922E-5,-3.384068E-3,7.9719845E-4,-3.505768E-5,-2.2982908E-3,5.533382E-4,2.102996E-3,-1.9407949E-3,6.5794133E-4,-9.160426E-4,2.5958738E-3,-4.674595E-3,1.8195245E-4,-5.0943666E-3,-0E0,-2.6462094E-3,-2.782066E-4,3.3086475E-3,-0E0,7.743617E-4,-3.0682373E-3,3.6200413E-3,-0E0],"categories":[],"categories_nodes":[],"categories_segments":[],"categories_sizes":[],"default_left":[0,0,0,0,0,0,0,0,0,0,0,0,0,0,0,0,0,0,0,0,0,0,0,0,0,0,0,0,0,0,0,0,0,0,0,0,0,0,0,0,0,0,0,0,0,0,0,0,0],"id":0,"left_children":[1,3,5,7,9,11,13,15,17,19,21,23,25,27,29,31,33,35,37,39,41,43,45,-1,-1,47,-1,-1,-1,-1,-1,-1,-1,-1,-1,-1,-1,-1,-1,-1,-1,-1,-1,-1,-1,-1,-1,-1,-1],"loss_changes":[3.2771103E1,1.1681889E1,3.8968487E0,6.348303E0,9.799667E0,5.5123444E0,3.7429752E0,6.239195E0,8.818045E0,9.015219E0,5.0532813E0,2.0768619E-1,2.8525155E0,3.68157E0,8.040212E0,1.10977955E1,8.8025E0,4.14551E0,6.3220873E0,5.256491E-1,4.484074E0,1.6174154E0,4.162495E0,0E0,0E0,1.0616994E0,0E0,0E0,0E0,0E0,0E0,0E0,0E0,0E0,0E0,0E0,0E0,0E0,0E0,0E0,0E0,0E0,0E0,0E0,0E0,0E0,0E0,0E0,0E0],"parents":[2147483647,0,0,1,1,2,2,3,3,4,4,5,5,6,6,7,7,8,8,9,9,10,10,11,11,12,12,13,13,14,14,15,15,16,16,17,17,18,18,19,19,20,20,21,21,22,22,25,25],"right_children":[2,4,6,8,10,12,14,16,18,20,22,24,26,28,30,32,34,36,38,40,42,44,46,-1,-1,48,-1,-1,-1,-1,-1,-1,-1,-1,-1,-1,-1,-1,-1,-1,-1,-1,-1,-1,-1,-1,-1,-1,-1],"split_conditions":[1.2073315E0,9E0,-1.4881907E0,1.24E2,2.1E1,9E1,-8.78622E-1,7.3E1,5E0,1.9E1,4.6E1,2E0,9E0,1.6E1,7.263044E-2,5E0,3E0,-7.281184E-1,9E0,8.8E1,-1.3440791E0,1E2,6.812894E-1,-0E0,-2.0988968E-3,1.05E2,-3.6157922E-5,-3.384068E-3,7.9719845E-4,-3.505768E-5,-2.2982908E-3,5.533382E-4,2.102996E-3,-1.9407949E-3,6.5794133E-4,-9.160426E-4,2.5958738E-3,-4.674595E-3,1.8195245E-4,-5.0943666E-3,-0E0,-2.6462094E-3,-2.782066E-4,3.3086475E-3,-0E0,7.743617E-4,-3.0682373E-3,3.6200413E-3,-0E0],"split_indices":[15,3,14,0,3,0,14,4,3,4,4,6,3,2,14,2,3,14,2,0,14,0,15,0,0,4,0,0,0,0,0,0,0,0,0,0,0,0,0,0,0,0,0,0,0,0,0,0,0],"split_type":[0,0,0,0,0,0,0,0,0,0,0,0,0,0,0,0,0,0,0,0,0,0,0,0,0,0,0,0,0,0,0,0,0,0,0,0,0,0,0,0,0,0,0,0,0,0,0,0,0],"sum_hessian":[1.348E3,1.093E3,2.55E2,7.73E2,3.2E2,3.3E1,2.22E2,7.25E2,4.8E1,2.42E2,7.8E1,1.6E1,1.7E1,5.1E1,1.71E2,5.06E2,2.19E2,2.6E1,2.2E1,1.2E1,2.3E2,2.5E1,5.3E1,2E0,1.4E1,1.2E1,5E0,4.9E1,2E0,8E1,9.1E1,2.93E2,2.13E2,3.7E1,1.82E2,1.1E1,1.5E1,1.6E1,6E0,1.1E1,1E0,2.2E1,2.08E2,2.3E1,2E0,4.7E1,6E0,1.1E1,1E0],"tree_param":{"num_deleted":"0","num_feature":"16","num_nodes":"49","size_leaf_vector":"1"}},{"base_weights":[-1.7548313E-2,5.6164917E-2,-3.4335884E-1,1.0189427E-1,-1.2149155E-1,5.7914633E-2,-3.9975357E-1,1.6889858E-1,-0E0,-4.3402123E-1,-2.3258233E-2,3.2027948E-1,-2.439641E-3,-5.2179384E-1,-2.0956334E-1,3.7382044E-2,2.5865495E-1,-7.962351E-1,4.1364428E-2,-5.2206796E-1,1.5035199E-1,6.657938E-2,-3.474655E-1,4.253767E-1,-0E0,-2.948831E-1,-3.704954E-3,-2.5597007E-3,-0E0,6.152785E-4,-2.5807088E-3,1.763574E-3,6.785583E-4,-4.442533E-3,-0E0,6.121966E-4,-4.9620983E-4,-0E0,-3.071754E-3,-0E0,1.3424953E-3,1.1035192E-3,-5.9353985E-4,-3.1194668E-3,3.0235268E-4,4.182788E-5,3.662079E-3,-2.0827514E-3,1.110567E-4],"categories":[],"categories_nodes":[],"categories_segments":[],"categories_sizes":[],"default_left":[0,0,0,0,0,0,0,0,0,0,0,0,0,0,0,0,0,0,0,0,0,0,0,0,0,0,0,0,0,0,0,0,0,0,0,0,0,0,0,0,0,0,0,0,0,0,0,0,0],"id":1,"left_children":[1,3,5,7,9,11,13,15,17,19,21,23,-1,25,27,29,31,33,35,37,39,41,43,45,-1,47,-1,-1,-1,-1,-1,-1,-1,-1,-1,-1,-1,-1,-1,-1,-1,-1,-1,-1,-1,-1,-1,-1,-1],"loss_changes":[3.4308674E1,9.313722E0,6.5333004E0,6.0522766E0,6.324381E0,4.5005827E0,4.1388206E0,5.993639E0,1.1393802E1,3.338622E0,5.7102785E0,1.3379579E0,0E0,4.8232994E0,6.0916314E0,1.0491977E1,2.8489857E0,1.0638237E0,4.1629725E0,2.286995E0,2.2482441E-1,4.174859E0,5.769479E0,1.565387E0,0E0,3.4649315E0,0E0,0E0,0E0,0E0,0E0,0E0,0E0,0E0,0E0,0E0,0E0,0E0,0E0,0E0,0E0,0E0,0E0,0E0,0E0,0E0,0E0,0E0,0E0],"parents":[2147483647,0,0,1,1,2,2,3,3,4,4,5,5,6,6,7,7,8,8,9,9,10,10,11,11,13,13,14,14,15,15,16,16,17,17,18,18,19,19,20,20,21,21,22,22,23,23,25,25],"right_children":[2,4,6,8,10,12,14,16,18,20,22,24,-1,26,28,30,32,34,36,38,40,42,44,46,-1,48,-1,-1,-1,-1,-1,-1,-1,-1,-1,-1,-1,-1,-1,-1,-1,-1,-1,-1,-1,-1,-1,-1,-1],"split_conditions":[1.2073315E0,9E0,-1.4881907E0,7.2E1,2.4E1,7E0,6E0,-1.6910507E-1,2E0,2E0,1.21E2,1.05E2,-2.439641E-3,5.9E1,5E0,1E1,7.49025E-1,9.2E1,1.5524723E-1,-1.025639E0,1.3E2,8.4E1,2E1,7.5E1,-0E0,8.7E1,-3.704954E-3,-2.5597007E-3,-0E0,6.152785E-4,-2.5807088E-3,1.763574E-3,6.785583E-4,-4.442533E-3,-0E0,6.121966E-4,-4.9620983E-4,-0E0,-3.071754E-3,-0E0,1.3424953E-3,1.1035192E-3,-5.9353985E-4,-3.1194668E-3,3.0235268E-4,4.182788E-5,3.662079E-3,-2.0827514E-3,1.110567E-4],"split_indices":[15,5,14,4,4,5,5,14,3,13,0,4,0,4,3,3,14,0,15,14,0,4,3,4,0,0,0,0,0,0,0,0,0,0,0,0,0,0,0,0,0,0,0,0,0,0,0,0,0],"split_type":[0,0,0,0,0,0,0,0,0,0,0,0,0,0,0,0,0,0,0,0,0,0,0,0,0,0,0,0,0,0,0,0,0,0,0,0,0,0,0,0,0,0,0,0,0,0,0,0,0],"sum_hessian":[1.407E3,1.145E3,2.62E2,9.18E2,2.27E2,2.9E1,2.33E2,5.45E2,3.73E2,4.9E1,1.78E2,2.2E1,7E0,1.35E2,9.8E1,2.29E2,3.16E2,1.5E1,3.58E2,4.5E1,4E0,1.37E2,4.1E1,1.9E1,3E0,7.2E1,6.3E1,3.8E1,6E1,2.02E2,2.7E1,1.7E2,1.46E2,1.3E1,2E0,2.34E2,1.24E2,7E0,3.8E1,1E0,3E0,7.9E1,5.8E1,2.6E1,1.5E1,1.1E1,8E0,5.5E1,1.7E1],"tree_param":{"num_deleted":"0","num_feature":"16","num_nodes":"49","size_leaf_vector":"1"}},{"base_weights":[-4.7550052E-3,5.4318875E-2,-2.7854872E-1,1.08873956E-1,-1.4980336E-1,-5.21215E-1,-1.0980687E-1,2.0357081E-1,4.120916E-2,-3.8953167E-1,-4.4564217E-2,-2.5855392E-1,-3.8724504E-3,2.8318733E-1,-1.7939274E-1,1.1433521E-1,3.3285585E-1,1.3805856E-1,-1.090988E-1,-0E0,-5.7959586E-1,-0E0,-3.4536004E-1,-6.1808056E-1,-4.089783E-2,-1.7033126E-4,3.5707857E-3,-2.250383E-3,-5.683629E-5,-1.1011749E-3,1.0902588E-3,3.1504037E-3,7.1988456E-5,1.3137201E-3,3.466052E-4,-1.2595486E-3,2.5894094E-4,-2.0081687E-3,6.4576475E-4,-3.2447411E-3,4.903899E-4,1.1281007E-3,-1.6272094E-4,-2.1424498E-3,-0E0,-3.329801E-3,-0E0,9.7388047E-4,-1.4349967E-3],"categories":[],"categories_nodes":[],"categories_segments":[],"categories_sizes":[],"default_left":[0,0,0,0,0,0,0,0,0,0,0,0,0,0,0,0,0,0,0,0,0,0,0,0,0,0,0,0,0,0,0,0,0,0,0,0,0,0,0,0,0,0,0,0,0,0,0,0,0],"id":2,"left_children":[1,3,5,7,9,11,13,15,17,19,21,23,-1,25,27,29,31,33,35,37,39,41,43,45,47,-1,-1,-1,-1,-1,-1,-1,-1,-1,-1,-1,-1,-1,-1,-1,-1,-1,-1,-1,-1,-1,-1,-1,-1],"loss_changes":[2.307498E1,1.2799788E1,9.339781E0,5.4854536E0,5.318593E0,4.7024918E0,4.212019E0,3.5447989E0,8.021814E0,5.1348686E0,2.7595255E0,3.2649002E0,0E0,3.940055E0,5.5286064E0,8.073878E0,1.2645271E1,2.3708982E0,5.1283455E0,1.3014677E0,3.1155214E0,1.3551565E0,9.381685E-1,2.1962261E-1,2.512125E0,0E0,0E0,0E0,0E0,0E0,0E0,0E0,0E0,0E0,0E0,0E0,0E0,0E0,0E0,0E0,0E0,0E0,0E0,0E0,0E0,0E0,0E0,0E0,0E0],"parents":[2147483647,0,0,1,1,2,2,3,3,4,4,5,5,6,6,7,7,8,8,9,9,10,10,11,11,13,13,14,14,15,15,16,16,17,17,18,18,19,19,20,20,21,21,22,22,23,23,24,24],"right_children":[2,4,6,8,10,12,14,16,18,20,22,24,-1,26,28,30,32,34,36,38,40,42,44,46,48,-1,-1,-1,-1,-1,-1,-1,-1,-1,-1,-1,-1,-1,-1,-1,-1,-1,-1,-1,-1,-1,-1,-1,-1],"split_conditions":[1.2073315E0,9E0,3E0,4.1E1,3.9E1,5.7E1,5E0,5E0,1.5524723E-1,7E0,1.5E1,6E0,-3.8724504E-3,9.1E1,5E0,2E0,7E0,2E0,6E0,2E0,2E0,4.9E1,1.21E2,2.7854578E0,7E0,-1.7033126E-4,3.5707857E-3,-2.250383E-3,-5.683629E-5,-1.1011749E-3,1.0902588E-3,3.1504037E-3,7.1988456E-5,1.3137201E-3,3.466052E-4,-1.2595486E-3,2.5894094E-4,-2.0081687E-3,6.4576475E-4,-3.2447411E-3,4.903899E-4,1.1281007E-3,-1.6272094E-4,-2.1424498E-3,-0E0,-3.329801E-3,-0E0,9.7388047E-4,-1.4349967E-3],"split_indices":[15,5,5,4,4,4,5,2,15,4,1,1,0,4,3,1,1,2,5,4,13,4,4,15,3,0,0,0,0,0,0,0,0,0,0,0,0,0,0,0,0,0,0,0,0,0,0,0,0],"split_type":[0,0,0,0,0,0,0,0,0,0,0,0,0,0,0,0,0,0,0,0,0,0,0,0,0,0,0,0,0,0,0,0,0,0,0,0,0,0,0,0,0,0,0,0,0,0,0,0,0],"sum_hessian":[1.402E3,1.15E3,2.52E2,9.14E2,2.36E2,9.8E1,1.54E2,3.7E2,5.44E2,6.6E1,1.7E2,5.3E1,4.5E1,1.9E1,1.35E2,2.28E2,1.42E2,3.37E2,2.07E2,2.2E1,4.4E1,1.46E2,2.4E1,1.6E1,3.7E1,1E1,9E0,4.7E1,8.8E1,5E1,1.78E2,7E1,7.2E1,1.1E2,2.27E2,1.14E2,9.3E1,4E0,1.8E1,4.2E1,2E0,2.2E1,1.24E2,2E1,4E0,1.4E1,2E0,1.6E1,2.1E1],"tree_param":{"num_deleted":"0","num_feature":"16","num_nodes":"49","size_leaf_vector":"1"}},{"base_weights":[-1.1297201E-2,5.5187438E-2,-3.2205907E-1,1.2554485E-1,-1.04895815E-1,-9.51474E-2,-4.004763E-1,1.8620685E-1,-1.1842144E-1,-1.495605E-1,4.7013956E-1,2.535533E-2,-4.007658E-1,-0E0,-4.6817586E-1,8.6535454E-2,2.7112052E-1,-2.14162E-3,-5.797847E-1,-2.2394641E-4,-3.4606168E-1,8.584248E-1,-1.579541E-1,-1.3260245E-1,3.0535622E-3,-0E0,-4.0316354E-3,1.1289006E-3,-2.1643054E-3,-3.1243414E-3,-3.7362776E-4,1.9658948E-3,1.3719653E-4,7.210137E-5,1.9208051E-3,8.7789417E-4,-1.6175875E-3,6.763782E-4,-4.6825027E-3,-1.0206461E-3,5.6986505E-4,-9.1317756E-4,-3.0340822E-3,-0E0,4.9161403E-3,-0E0,-1.1628966E-3,-2.7833309E-3,1.0092232E-4],"categories":[],"categories_nodes":[],"categories_segments":[],"categories_sizes":[],"default_left":[0,0,0,0,0,0,0,0,0,0,0,0,0,0,0,0,0,0,0,0,0,0,0,0,0,0,0,0,0,0,0,0,0,0,0,0,0,0,0,0,0,0,0,0,0,0,0,0,0],"id":3,"left_children":[1,3,5,7,9,11,13,15,17,19,21,23,25,27,29,31,33,35,37,39,41,43,45,47,-1,-1,-1,-1,-1,-1,-1,-1,-1,-1,-1,-1,-1,-1,-1,-1,-1,-1,-1,-1,-1,-1,-1,-1,-1],"loss_changes":[2.9361101E1,1.3021074E1,3.646595E0,1.2088963E1,8.546346E0,3.2350438E0,5.6027966E0,4.9347706E0,7.5472436E0,9.01748E0,6.9311175E0,5.502215E0,3.9472423E0,2.331114E0,8.598022E0,4.9832664E0,9.344061E0,7.760473E0,8.852338E0,4.629269E0,4.389694E0,2.7107735E0,2.0819968E-1,3.354059E0,0E0,0E0,0E0,0E0,0E0,0E0,0E0,0E0,0E0,0E0,0E0,0E0,0E0,0E0,0E0,0E0,0E0,0E0,0E0,0E0,0E0,0E0,0E0,0E0,0E0],"parents":[2147483647,0,0,1,1,2,2,3,3,4,4,5,5,6,6,7,7,8,8,9,9,10,10,11,11,12,12,13,13,14,14,15,15,16,16,17,17,18,18,19,19,20,20,21,21,22,22,23,23],"right_children":[2,4,6,8,10,12,14,16,18,20,22,24,26,28,30,32,34,36,38,40,42,44,46,48,-1,-1,-1,-1,-1,-1,-1,-1,-1,-1,-1,-1,-1,-1,-1,-1,-1,-1,-1,-1,-1,-1,-1,-1,-1],"split_conditions":[1.2073315E0,9E0,2E0,9E0,2E0,7.4E1,-1.4881907E0,5.4E1,1.21E2,1.5524723E-1,2E0,6.7E1,9E1,7E0,7E0,7E0,4E0,2E0,3E0,1.2E1,7.8E1,1.7E1,2.1E1,-8.78622E-1,3.0535622E-3,-0E0,-4.0316354E-3,1.1289006E-3,-2.1643054E-3,-3.1243414E-3,-3.7362776E-4,1.9658948E-3,1.3719653E-4,7.210137E-5,1.9208051E-3,8.7789417E-4,-1.6175875E-3,6.763782E-4,-4.6825027E-3,-1.0206461E-3,5.6986505E-4,-9.1317756E-4,-3.0340822E-3,-0E0,4.9161403E-3,-0E0,-1.1628966E-3,-2.7833309E-3,1.0092232E-4],"split_indices":[15,3,6,5,10,4,14,0,0,15,12,4,0,5,5,0,3,12,3,1,0,3,0,14,0,0,0,0,0,0,0,0,0,0,0,0,0,0,0,0,0,0,0,0,0,0,0,0,0],"split_type":[0,0,0,0,0,0,0,0,0,0,0,0,0,0,0,0,0,0,0,0,0,0,0,0,0,0,0,0,0,0,0,0,0,0,0,0,0,0,0,0,0,0,0,0,0,0,0,0,0],"sum_hessian":[1.398E3,1.149E3,2.49E2,8.05E2,3.44E2,7E1,1.79E2,6.5E2,1.55E2,3.23E2,2.1E1,4.8E1,2.2E1,2.3E1,1.56E2,3.09E2,3.41E2,1.28E2,2.7E1,1.89E2,1.34E2,1.4E1,7E0,3.7E1,1.1E1,1.2E1,1E1,1.8E1,5E0,1.08E2,4.8E1,4.4E1,2.65E2,1.09E2,2.32E2,8E1,4.8E1,8E0,1.9E1,7.2E1,1.17E2,8.8E1,4.6E1,1E0,1.3E1,1E0,6E0,1.1E1,2.6E1],"tree_param":{"num_deleted":"0","num_feature":"16","num_nodes":"49","size_leaf_vector":"1"}},{"base_weights":[-2.1500427E-2,6.834549E-2,-2.0703857E-1,5.110929E-2,7.2253567E-1,-5.085763E-1,-1.0533773E-1,3.793388E-2,7.163739E-1,-0E0,5.1896265E-3,-5.218562E-1,-0E0,-1.6707817E-1,9.891366E-2,9.32818E-2,-7.948239E-2,8.560367E-1,-0E0,-8.170448E-2,-0E0,-0E0,-5.4803115E-1,-3.3562654E-1,-4.2350225E-2,3.395692E-1,-1.0218218E-1,-2.609385E-1,6.0245686E-4,-1.1356458E-3,9.6060266E-4,4.7235014E-3,-0E0,-1.0597139E-3,-0E0,6.3463335E-4,-1.1022892E-3,-3.819653E-3,-1.9259753E-3,-3.6146087E-3,-6.8207487E-4,6.1649026E-4,-9.0380845E-4,-0E0,3.2727367E-3,-2.325557E-3,2.8683964E-4,1.2339879E-4,-1.9691964E-3],"categories":[],"categories_nodes":[],"categories_segments":[],"categories_sizes":[],"default_left":[0,0,0,0,0,0,0,0,0,0,0,0,0,0,0,0,0,0,0,0,0,0,0,0,0,0,0,0,0,0,0,0,0,0,0,0,0,0,0,0,0,0,0,0,0,0,0,0,0],"id":4,"left_children":[1,3,5,7,9,11,13,15,17,19,-1,21,-1,23,25,27,29,31,-1,33,-1,35,37,39,41,43,45,47,-1,-1,-1,-1,-1,-1,-1,-1,-1,-1,-1,-1,-1,-1,-1,-1,-1,-1,-1,-1,-1],"loss_changes":[2.2873987E1,9.037883E0,1.2741306E1,6.6326904E0,6.2734146E0,9.468956E-1,4.4481153E0,5.747926E0,2.5613103E0,3.3378117E-2,0E0,8.9408684E-1,0E0,5.059712E0,4.0550885E0,5.702589E0,1.112754E1,4.5031834E-1,0E0,1.4630088E-1,0E0,4.0465313E-1,1.2034073E0,6.9235077E0,3.8450453E0,3.7585368E0,2.9232905E0,2.0915346E0,0E0,0E0,0E0,0E0,0E0,0E0,0E0,0E0,0E0,0E0,0E0,0E0,0E0,0E0,0E0,0E0,0E0,0E0,0E0,0E0,0E0],"parents":[2147483647,0,0,1,1,2,2,3,3,4,4,5,5,6,6,7,7,8,8,9,9,11,11,13,13,14,14,15,15,16,16,17,17,19,19,21,21,22,22,23,23,24,24,25,25,26,26,27,27],"right_children":[2,4,6,8,10,12,14,16,18,20,-1,22,-1,24,26,28,30,32,-1,34,-1,36,38,40,42,44,46,48,-1,-1,-1,-1,-1,-1,-1,-1,-1,-1,-1,-1,-1,-1,-1,-1,-1,-1,-1,-1,-1],"split_conditions":[9E0,3E0,3E0,2E0,-4.0967837E-1,1.29E2,2.1E1,7.3E1,2E0,8E0,5.1896265E-3,-1.7188853E0,-0E0,5.5E1,1.02E2,3E0,2E0,9E0,-0E0,9E0,-0E0,9E0,-8.141205E-1,-7.147532E-1,1.01E2,1.1795585E-1,1.21E2,5E0,6.0245686E-4,-1.1356458E-3,9.6060266E-4,4.7235014E-3,-0E0,-1.0597139E-3,-0E0,6.3463335E-4,-1.1022892E-3,-3.819653E-3,-1.9259753E-3,-3.6146087E-3,-6.8207487E-4,6.1649026E-4,-9.0380845E-4,-0E0,3.2727367E-3,-2.325557E-3,2.8683964E-4,1.2339879E-4,-1.9691964E-3],"split_indices":[1,7,5,13,14,4,3,4,8,1,0,14,0,4,4,4,8,5,0,5,0,3,14,14,4,14,4,5,0,0,0,0,0,0,0,0,0,0,0,0,0,0,0,0,0,0,0,0,0],"split_type":[0,0,0,0,0,0,0,0,0,0,0,0,0,0,0,0,0,0,0,0,0,0,0,0,0,0,0,0,0,0,0,0,0,0,0,0,0,0,0,0,0,0,0,0,0,0,0,0,0],"sum_hessian":[1.356E3,9.09E2,4.47E2,8.9E2,1.9E1,1.07E2,3.4E2,8.77E2,1.3E1,5E0,1.4E1,1.05E2,2E0,2.67E2,7.3E1,6.05E2,2.72E2,1.2E1,1E0,3E0,2E0,7E0,9.8E1,1.07E2,1.6E2,3.6E1,3.7E1,3.8E1,5.67E2,1.8E2,9.2E1,1E1,2E0,2E0,1E0,2E0,5E0,3.5E1,6.3E1,3.2E1,7.5E1,6.8E1,9.2E1,1.9E1,1.7E1,1.3E1,2.4E1,9E0,2.9E1],"tree_param":{"num_deleted":"0","num_feature":"16","num_nodes":"49","size_leaf_vector":"1"}},{"base_weights":[2.0902105E-2,8.81259E-2,-2.8452295E-1,1.4615102E-1,-3.140375E-2,1.2069831E-1,-3.2948366E-1,1.2813008E-1,7.8024465E-1,4.6384316E-2,-1.411117E-1,-9.3407944E-2,5.076157E-1,-4.1327514E-2,-4.275742E-1,1.8763767E-1,-0E0,-0E0,4.503118E-3,-1.9153629E-3,3.4159417E-3,1.1826296E-1,-2.2626634E-1,-1.7280825E-3,1.08075656E-1,3.4740951E-3,-0E0,1.4483608E-1,-3.4459758E-1,1.5336399E-1,-2.4228704E-3,4.4286632E-4,1.5165674E-3,-1.7643134E-3,4.197434E-4,-2.538381E-4,1.5933723E-3,2.6103586E-3,-1.4132713E-3,-2.606089E-3,-7.192365E-4,1.5836477E-3,-0E0,1.3346764E-3,-2.3389638E-3,-0E0,-2.9809787E-3,1.5755988E-3,-1.679266E-4],"categories":[],"categories_nodes":[],"categories_segments":[],"categories_sizes":[],"default_left":[0,0,0,0,0,0,0,0,0,0,0,0,0,0,0,0,0,0,0,0,0,0,0,0,0,0,0,0,0,0,0,0,0,0,0,0,0,0,0,0,0,0,0,0,0,0,0,0,0],"id":5,"left_children":[1,3,5,7,9,11,13,15,17,19,21,23,25,27,29,31,33,-1,-1,35,-1,37,39,-1,41,-1,-1,43,45,47,-1,-1,-1,-1,-1,-1,-1,-1,-1,-1,-1,-1,-1,-1,-1,-1,-1,-1,-1],"loss_changes":[2.8500114E1,8.178189E0,4.9292545E0,7.4076557E0,3.3127503E0,2.6214952E0,5.7058125E0,5.7700224E0,2.2222357E0,7.4835873E0,3.7936096E0,1.1424392E0,1.5105507E0,4.012765E0,6.142277E0,5.3402233E0,7.2826858E0,0E0,0E0,2.6844962E0,0E0,6.644332E0,1.9397712E0,0E0,4.3150598E-1,0E0,0E0,2.7909112E0,2.3622608E0,8.6683035E-1,0E0,0E0,0E0,0E0,0E0,0E0,0E0,0E0,0E0,0E0,0E0,0E0,0E0,0E0,0E0,0E0,0E0,0E0,0E0],"parents":[2147483647,0,0,1,1,2,2,3,3,4,4,5,5,6,6,7,7,8,8,9,9,10,10,11,11,12,12,13,13,14,14,15,15,16,16,19,19,21,21,22,22,24,24,27,27,28,28,29,29],"right_children":[2,4,6,8,10,12,14,16,18,20,22,24,26,28,30,32,34,-1,-1,36,-1,38,40,-1,42,-1,-1,44,46,48,-1,-1,-1,-1,-1,-1,-1,-1,-1,-1,-1,-1,-1,-1,-1,-1,-1,-1,-1],"split_conditions":[1.2073315E0,9E0,-1.4881907E0,3E0,1.5524723E-1,1E2,2E0,7.4E1,-4.0967837E-1,1.24E2,1E1,8E0,1.05E2,1.7333736E0,2E0,3.2E1,8.9E1,-0E0,4.503118E-3,1.1401019E0,3.4159417E-3,2E0,3E1,-1.7280825E-3,9E1,3.4740951E-3,-0E0,2E0,-1.3540156E-1,7.263044E-2,-2.4228704E-3,4.4286632E-4,1.5165674E-3,-1.7643134E-3,4.197434E-4,-2.538381E-4,1.5933723E-3,2.6103586E-3,-1.4132713E-3,-2.606089E-3,-7.192365E-4,1.5836477E-3,-0E0,1.3346764E-3,-2.3389638E-3,-0E0,-2.9809787E-3,1.5755988E-3,-1.679266E-4],"split_indices":[15,1,14,7,15,4,6,4,14,4,1,2,4,15,1,4,4,0,0,14,0,12,4,0,4,0,0,10,14,14,0,0,0,0,0,0,0,0,0,0,0,0,0,0,0,0,0,0,0],"split_type":[0,0,0,0,0,0,0,0,0,0,0,0,0,0,0,0,0,0,0,0,0,0,0,0,0,0,0,0,0,0,0,0,0,0,0,0,0,0,0,0,0,0,0,0,0,0,0,0,0],"sum_hessian":[1.398E3,1.151E3,2.47E2,7.83E2,3.68E2,2.1E1,2.26E2,7.66E2,1.7E1,2.08E2,1.6E2,1.2E1,9E0,6.2E1,1.64E2,5.2E2,2.46E2,2E0,1.5E1,1.93E2,1.5E1,3.5E1,1.25E2,8E0,4E0,7E0,2E0,3.6E1,2.6E1,1.2E1,1.52E2,2.89E2,2.31E2,4.5E1,2.01E2,1.73E2,2E1,1.9E1,1.6E1,2.1E1,1.04E2,3E0,1E0,3.3E1,3E0,1.2E1,1.4E1,1E1,2E0],"tree_param":{"num_deleted":"0","num_feature":"16","num_nodes":"49","size_leaf_vector":"1"}},{"base_weights":[5.5735384E-4,7.260746E-2,-3.254684E-1,1.3212802E-1,-1.3830215E-1,1.18987456E-1,-4.017708E-1,1.9253285E-1,-1.9981602E-2,-2.055166E-1,1.5525092E-1,4.131826E-1,-2.7456842E-3,-5.3802955E-1,-1.716883E-1,-1.0812053E-2,2.1851182E-1,-6.85543E-1,1.303446E-2,-7.083139E-2,-6.3829863E-1,3.81258E-1,-1.4702559E-1,5.3559405E-1,-0E0,-1.2980945E-1,-3.1641938E-3,-2.135171E-3,-8.7740795E-5,1.740669E-3,-1.807164E-3,6.563102E-4,1.4586647E-3,-4.1322866E-3,-0E0,-1.354098E-4,3.1298466E-3,7.146952E-4,-1.0881112E-3,8.1856956E-4,-3.903382E-3,-0E0,2.265965E-3,8.6471066E-4,-2.1708456E-3,3.0424332E-3,-0E0,9.4992033E-4,-1.9185231E-3],"categories":[],"categories_nodes":[],"categories_segments":[],"categories_sizes":[],"default_left":[0,0,0,0,0,0,0,0,0,0,0,0,0,0,0,0,0,0,0,0,0,0,0,0,0,0,0,0,0,0,0,0,0,0,0,0,0,0,0,0,0,0,0,0,0,0,0,0,0],"id":6,"left_children":[1,3,5,7,9,11,13,15,17,19,21,23,-1,25,27,29,31,33,35,37,39,41,43,45,-1,47,-1,-1,-1,-1,-1,-1,-1,-1,-1,-1,-1,-1,-1,-1,-1,-1,-1,-1,-1,-1,-1,-1,-1],"loss_changes":[3.2295845E1,1.4375887E1,8.93022E0,8.517486E0,5.012772E0,7.129418E0,5.491089E0,3.750023E0,6.5201883E0,1.0853485E1,3.4010735E0,1.9883666E0,0E0,3.7231255E0,2.7423778E0,8.95552E0,3.0134315E0,2.2998443E0,6.7843595E0,5.257724E0,6.4337425E0,1.2699666E0,2.103916E0,1.1775746E0,0E0,2.8721974E0,0E0,0E0,0E0,0E0,0E0,0E0,0E0,0E0,0E0,0E0,0E0,0E0,0E0,0E0,0E0,0E0,0E0,0E0,0E0,0E0,0E0,0E0,0E0],"parents":[2147483647,0,0,1,1,2,2,3,3,4,4,5,5,6,6,7,7,8,8,9,9,10,10,11,11,13,13,14,14,15,15,16,16,17,17,18,18,19,19,20,20,21,21,22,22,23,23,25,25],"right_children":[2,4,6,8,10,12,14,16,18,20,22,24,-1,26,28,30,32,34,36,38,40,42,44,46,-1,48,-1,-1,-1,-1,-1,-1,-1,-1,-1,-1,-1,-1,-1,-1,-1,-1,-1,-1,-1,-1,-1,-1,-1],"split_conditions":[1.2073315E0,9E0,-1.4881907E0,9E0,2E1,7E0,6E0,2E0,-1.7944276E0,1.21E2,1.5524723E-1,1.7E1,-2.7456842E-3,2E0,5E0,3.9E1,5.1E1,2E0,2E0,-3.8934004E-1,3E0,-1.844983E0,2E0,1.17E2,-0E0,-2.8532407E-1,-3.1641938E-3,-2.135171E-3,-8.7740795E-5,1.740669E-3,-1.807164E-3,6.563102E-4,1.4586647E-3,-4.1322866E-3,-0E0,-1.354098E-4,3.1298466E-3,7.146952E-4,-1.0881112E-3,8.1856956E-4,-3.903382E-3,-0E0,2.265965E-3,8.6471066E-4,-2.1708456E-3,3.0424332E-3,-0E0,9.4992033E-4,-1.9185231E-3],"split_indices":[15,5,14,3,3,5,5,3,14,0,15,3,0,6,3,0,0,7,10,14,3,14,6,0,0,14,0,0,0,0,0,0,0,0,0,0,0,0,0,0,0,0,0,0,0,0,0,0,0],"split_type":[0,0,0,0,0,0,0,0,0,0,0,0,0,0,0,0,0,0,0,0,0,0,0,0,0,0,0,0,0,0,0,0,0,0,0,0,0,0,0,0,0,0,0,0,0,0,0,0,0],"sum_hessian":[1.387E3,1.141E3,2.46E2,8.96E2,2.45E2,3.3E1,2.13E2,6.48E2,2.48E2,2.04E2,4.1E1,2.5E1,8E0,1.28E2,8.5E1,6.7E1,5.81E2,1.2E1,2.36E2,1.6E2,4.4E1,2.6E1,1.5E1,2.1E1,4E0,2.8E1,1E2,2.7E1,5.8E1,3.1E1,3.6E1,2.77E2,3.04E2,1.1E1,1E0,2.21E2,1.5E1,6.1E1,9.9E1,5E0,3.9E1,2E0,2.4E1,5E0,1E1,1.9E1,2E0,1E1,1.8E1],"tree_param":{"num_deleted":"0","num_feature":"16","num_nodes":"49","size_leaf_vector":"1"}}]},"name":"gbtree"},"learner_model_param":{"base_score":"-7.304491E-10","boost_from_average":"1","num_class":"0","num_feature":"16","num_target":"1"},"objective":{"name":"reg:squarederror","reg_loss_param":{"scale_pos_weight":"1"}}},"version":[2,0,1]}